unflavored	-0.0207604,-0.288481,-0.113839,0.0156126,0.0878857,-0.0566875,-0.198383,0.102788,0.0152317,0.0740711,0.182573,-0.183472,-0.0344205,-0.0908607,-0.118764,-0.0609237,-0.087752,0.0120041,0.11731,-0.0366563,0.0268398,-0.113423,0.26211,-0.150912,0.0600914,-0.0131398,0.0721406,-0.28263,0.0191287,0.0963483,0.0871603,-0.319135,0.0804584,-0.150541,-0.19747,0.0478083,0.290407,-0.124897,-0.187345,0.0530406,-0.251892,0.0919672,-0.16805,0.213378,-0.0114516,-0.0691291,0.172546,-0.125565,-0.0387819,0.0211853
mackerel	0.120014,-0.0024935,-0.0412431,-0.15423,0.0591524,-0.294118,0.291955,-0.145877,-0.0285145,-0.129391,0.21913,0.0197276,0.132074,0.0951487,0.0668795,0.252633,-0.0635621,-0.217205,0.303476,0.0683074,-0.121125,0.0592535,-0.00291845,0.0507621,-0.0452849,0.101002,-0.0520156,-0.108025,-0.0220808,0.0143086,0.182581,0.0309099,-0.0259547,0.0462729,0.118163,0.0699954,0.27256,0.135691,0.116219,-0.129554,-0.0186076,-0.166764,0.0982763,0.11003,0.23382,0.205934,-0.0257265,-0.0559084,0.186805,0.205211
yellow	-0.0252494,0.145016,0.260198,-0.0683535,0.040517,0.000272322,-0.0296487,-0.109265,-0.202113,0.103914,-0.0944786,0.18101,0.135069,0.270577,0.145992,-0.116625,0.175914,-0.130105,0.122444,-0.084141,0.0673972,0.0619112,-0.0670872,0.261539,0.0106701,-0.254411,0.160885,0.11328,0.054589,0.0110629,0.0857614,-0.342488,0.0829866,-0.106444,0.0530535,-0.000337924,-0.224234,0.209541,-0.0826074,0.195073,0.130175,0.208421,-0.0759994,-0.0635338,0.126698,-0.0166458,-0.0540992,-0.0408933,0.125848,0.14897
sichuan	0.0517209,0.0909362,0.0160596,-0.0314095,-0.0558112,0.253073,0.205301,-0.0882274,-0.00165995,0.0369916,0.0991131,0.0635656,-0.146805,0.0410419,-0.0775049,-0.0697319,-0.138373,-0.266251,-0.073606,0.197333,-0.0723793,-0.209833,0.145299,0.113673,-0.254043,-0.128495,0.169255,-0.159204,-0.198664,-0.120429,-0.133728,-0.115572,-0.0362042,0.0849084,-0.102459,0.0895608,-0.0669811,-0.19932,-0.0193001,0.218057,0.00900937,0.0982316,0.0612178,-0.0263569,-0.307822,0.0871165,0.0744456,0.275862,0.122253,-0.226158
clotted	-0.0769723,-0.401517,0.0280437,-0.197301,0.0468136,0.22732,0.121114,-0.0259727,0.229672,-0.186873,-0.0752646,0.00678164,-0.234009,-0.0637277,0.018817,0.0904723,-0.068914,0.0668153,0.00277591,-0.0405576,-0.0709714,-0.0405623,0.244405,-0.200431,0.0240733,0.30594,-0.157348,-0.259886,0.0393191,-0.0748771,-0.135428,-0.281155,-0.115171,-0.0530976,0.00306261,0.0239011,-0.101757,-0.0291699,0.124229,0.141142,0.106218,-0.01034,0.134614,0.108637,0.166781,0.0683338,-0.0641095,0.0226857,-0.110166,0.0306075
asian	0.134725,0.310877,-0.159821,-0.00930923,0.0631074,0.0771474,0.0727909,-0.0327088,0.282749,-0.241731,0.176154,0.00734019,-0.100992,-0.0223711,0.222104,-0.0801286,-0.093969,0.0290427,-0.253615,-0.0243377,-0.191897,-0.0408904,0.000953091,0.0496607,0.114128,-0.195792,0.0862383,-0.0139106,0.204665,0.0202436,0.162854,0.046036,-0.134696,-0.158796,0.102594,0.218244,0.112652,-0.158559,-0.036808,0.0844175,-0.0905986,0.0912318,-0.0302472,-0.280579,-0.259793,-0.0929445,-0.0408339,0.00918691,0.191918,-0.0562526
bucatini	-0.0288276,-0.105245,0.0476661,-0.0306358,0.114326,-0.237016,-0.0228832,-0.369314,0.0206862,0.083128,0.0661565,-0.0757714,-0.00422583,-0.043615,0.132812,-0.0382865,0.188726,-0.00443542,0.0988235,-0.0364133,0.116572,0.104136,0.435298,-0.00164209,0.0554257,0.0423153,0.234562,-0.0349974,-0.20002,0.0332581,-0.147339,0.0103931,-0.131591,0.117155,0.0323597,0.179822,-0.204273,-0.26555,-0.123538,-0.224708,-0.0608064,-0.0856023,-0.143306,-0.0573223,0.217227,-0.0406261,-0.0655366,0.156944,-0.0197941,0.0110264
countrystyle	-0.120758,0.0654356,0.264128,0.076619,0.117623,-0.0244541,-0.0975072,-0.222298,-0.297169,0.019345,-0.027899,-0.0182596,0.125927,-0.0828642,0.0395119,-0.124036,-0.0809924,-0.331837,0.15837,0.0828301,-0.0968868,0.129197,-0.0186812,0.0412932,-0.198037,0.099546,0.146036,0.104588,-0.00460232,0.156627,-0.117124,-0.0704042,0.137612,-0.254852,-0.29803,-0.0465908,-0.0114696,-0.262656,0.122988,0.0171136,0.15452,0.0527831,0.0975136,-0.0608146,-0.18992,0.199522,0.07259,-0.0768241,-0.121405,0.015177
segments	-0.0989723,-0.16956,0.0394938,-0.156659,-0.142814,0.0850217,0.00440556,0.208084,-0.0666542,0.0354122,0.1873,0.0713185,0.00537221,0.0372912,-0.249334,0.201496,-0.294425,0.00307485,-0.0405134,0.133462,-0.114819,0.207198,-0.127331,-0.0065898,-0.0338255,0.0635111,0.280207,-0.0580709,-0.0634876,0.108943,-0.180652,-0.186561,-0.00444557,-0.163436,-0.190205,-0.0779998,0.386905,0.089271,0.114385,-0.0866742,-0.0648959,0.000114565,-0.128939,0.014722,-0.171331,0.0477861,0.118791,-0.164982,0.154971,0.0118576
pancetta	0.110874,-0.000130528,0.0901172,0.135953,0.121221,-0.124817,-0.198336,-0.272154,0.0433893,-0.0114166,0.000130012,-0.145492,0.156126,-0.0672617,0.00539239,-0.107154,0.100262,-0.220417,0.107458,-0.203858,0.118032,0.0283422,0.225048,0.0343626,-0.0113308,0.180195,0.204788,-0.0012821,-0.20575,0.150313,-0.0583585,0.118796,0.0789068,-0.0983923,-0.0101864,0.250957,-0.155179,-0.292482,-0.301585,-0.191707,-0.066045,0.0406879,-0.0479295,-0.0571566,0.167683,-0.0229139,0.0606303,-0.0922305,-0.106534,-0.196134
manis	0.0501243,0.258098,0.0725286,-0.121164,0.0272471,0.0858362,-0.0339714,0.0574619,-0.00322807,-0.198768,0.0266388,0.118769,-0.117544,0.0626652,0.0510712,0.122849,-0.154199,-0.0686379,-0.241554,-0.011724,-0.316869,-0.0424487,0.0485611,0.103086,-0.0456588,-0.226516,-0.00898833,-0.236905,-0.00519199,-0.000409224,0.215653,-0.161336,-0.147412,-0.331063,0.0800535,0.19321,0.109114,-0.0736036,-0.0467708,-0.0379263,0.0798152,0.13522,-0.00096383,-0.102785,-0.114599,0.0385963,0.0557092,-0.175202,0.354493,-0.137588
deli	0.237921,-0.114488,0.0537625,-0.0471384,0.0339561,0.253439,0.0406732,-0.0704572,0.0394989,0.08295,0.0345526,0.0498895,-0.0855003,-0.272392,-0.120686,0.0854958,-0.0533129,0.00116912,-0.147508,-0.0381248,0.168137,-0.0786175,-0.306357,-0.17829,-0.14116,-0.000319792,-0.072109,0.0793523,0.0222932,0.332608,-0.166162,0.0181519,0.0252634,0.0979148,0.0797069,-0.0450712,-0.0508757,-0.0766106,-0.254122,-0.0858662,-0.098312,0.325416,0.0876518,0.0720121,-0.204757,0.111196,-0.258264,-0.0577473,-0.136148,-0.103536
rise	-0.133268,-0.42382,-0.0375379,-0.0839588,0.102117,0.121687,0.00719887,0.0221339,0.156602,0.0387713,0.0133716,0.113003,-0.350051,-0.110517,0.252206,0.0866376,0.121126,0.0919899,-0.0653917,0.00182595,0.0560401,0.144218,0.162732,-0.0985089,-0.0792593,0.0722462,-0.00663634,0.152716,-0.00359678,-0.0234655,0.00391388,-0.0379336,0.0134142,0.0801617,-0.000150072,-0.114989,-0.102993,-0.169463,-0.0108903,0.185714,0.152525,0.0680586,0.0873828,0.222645,0.196807,-0.0966406,-0.12618,0.288866,-0.0590194,0.263311
gremolata	-0.0822241,-0.187161,0.215313,0.026272,-0.0532693,-0.361207,0.205381,-0.183349,-0.0600684,-0.13833,0.179844,0.244188,-0.0511693,0.0357707,0.101366,0.189756,0.0403083,-0.100982,-0.0364896,-0.0504984,-0.186883,-0.0875695,0.0902946,-0.0397524,0.20208,0.0209261,0.0712804,-0.040723,-0.199237,0.309297,-0.11831,0.0596809,0.115099,0.028738,0.101825,0.0529544,-0.199452,0.0226912,-0.157202,-0.0440173,0.079421,0.265234,-0.181808,0.0667562,0.153002,0.0982627,0.10409,-0.0971506,-0.0767906,0.0245092
jack	0.016057,0.0473416,-0.0557372,0.203256,-0.189549,0.115121,-0.0504267,0.221065,-0.135915,0.0626697,-0.279424,0.0325139,0.0645217,-0.138784,-0.183425,0.171011,0.322557,0.115786,0.0330724,0.0136363,0.00750312,0.000725544,-0.0101617,-0.112863,-0.136707,-0.190171,0.199019,-0.00486395,-0.131148,-0.0752429,-0.162014,0.214554,-0.0128899,0.00371749,-0.0607664,-0.0385043,-0.0462747,0.275286,-0.123016,0.233319,0.0729729,0.0601263,0.211234,-0.176861,-0.145574,-0.00968159,-0.251119,-0.0413963,-0.0527989,0.129789
softened	-0.120723,-0.385062,0.218804,-0.0635922,0.122503,0.176472,0.0820337,-0.0368334,0.213414,0.000909321,-0.0616945,-0.22622,-0.309793,0.0188201,-0.132831,0.155575,0.0663854,0.132211,0.0507476,-0.0319528,0.0930094,0.111335,0.227146,-0.257258,-0.0697592,0.157441,-0.149683,0.0272808,0.0770945,-0.154963,0.0833941,-0.104144,0.183901,-0.0870455,0.112831,-0.0966314,-0.155389,-0.0122664,0.153364,0.0124985,-0.0352657,0.0934364,0.0616205,0.120033,0.255775,-0.0455701,0.0538764,0.0809757,-0.0960873,0.0402816
mediumgrain	0.0816803,0.226134,-0.0490839,-0.0868587,0.0520133,0.009735,-0.0405358,-0.207414,-0.0695511,0.000626323,-0.0857838,-0.292732,0.212031,0.161961,0.209782,0.0228727,-0.156557,0.141654,0.163802,0.0382047,-0.0981919,-0.087478,0.00109751,0.0302697,-0.132067,-0.00426017,-0.0666648,-0.300121,0.00357007,0.237054,0.01299,-0.0188112,-0.163343,-0.0582974,-0.00837081,-0.0175246,0.139643,-0.263267,0.216161,0.294715,0.0877826,-0.148238,0.0953018,0.00362931,0.015706,0.00790149,-0.328596,0.0763321,0.0452258,-0.0599893
icing	-0.127559,-0.369563,0.101033,-0.309138,0.0607794,0.0443596,0.119052,0.194005,0.21514,0.00921492,0.196983,-0.104335,-0.109092,-0.0357105,-0.0192107,0.258055,-0.231567,-0.101385,0.0360473,-0.107751,-0.111794,0.223003,0.113668,-0.168081,0.0755276,0.133932,-0.100484,-0.0529839,0.068847,-0.0991327,0.11941,-0.0632989,0.194109,-0.0565602,-0.0779756,-0.0913584,-0.148197,-0.00379755,0.29901,-0.0513091,-0.0011571,0.151451,0.0120999,0.116162,0.0214812,-0.0862258,0.0346285,-0.138415,-0.149692,-0.0394643
four	0.0673628,-0.358407,-0.299609,-0.0807056,-0.163738,0.0650779,-0.0109424,0.230814,-0.251476,0.0788576,0.0386095,0.0422549,0.0132692,-0.0390197,-0.330869,0.163727,0.200486,0.158621,0.0244592,0.093948,-0.0217108,-0.0126173,0.0189102,0.0224546,-0.289936,-0.0218774,0.0318116,0.0613146,0.147707,0.0319945,-0.00784834,0.160931,-0.0496164,-0.00929957,0.0129241,0.00688479,0.0376017,-0.0506118,-0.105067,-0.201485,-0.113738,0.272599,-0.077593,-0.213701,-0.029184,-0.159195,-0.115814,0.0335848,0.0129393,0.151577
caramels	-0.0996079,-0.283069,0.179309,0.0794373,0.0345722,0.0614851,0.0299209,0.3135,0.277255,0.0901109,0.209666,0.00817721,-0.154501,-0.0827606,-0.127598,0.122285,-0.0897378,0.162238,0.118927,0.0366612,-0.135642,0.0219479,0.112366,-0.242807,0.222307,-0.0258189,0.0712126,-0.0747458,0.0129835,-0.240327,-0.177117,-0.0782349,0.228384,-0.137495,-0.21885,-0.0549121,-0.0636554,0.155828,0.189906,0.0641375,-0.0936572,-0.0555698,-0.0521459,-0.00623855,0.0332647,-0.000478627,0.163542,-0.206999,-0.0543469,-0.0334455
baking	0.0270276,-0.237842,0.0573129,-0.0245944,0.129192,0.157715,0.0177681,0.292065,0.266097,-0.106176,0.0789983,-0.210919,-0.062712,0.196413,0.0231736,0.173289,0.0743069,0.0452555,-0.0448269,0.0907443,0.0922732,0.268306,0.256406,-0.0120043,0.00011968,-0.119751,-0.0492954,0.154937,0.238515,-0.206046,-0.0351891,-0.113199,0.362103,0.0948719,-0.104457,-0.236839,-0.153183,-0.0276545,0.0872134,0.0115669,0.113823,-0.0789328,0.0552931,0.0403529,0.017024,0.0141375,-0.0128561,-0.0027199,-0.153152,0.0168962
wholemeal	-0.293278,-0.20887,0.0560399,-0.22607,0.115614,-0.0392348,0.164964,0.131382,0.192093,-0.223102,-0.204591,-0.15035,-0.294022,-0.00856296,0.0797335,0.329482,-0.0382687,-0.039943,-0.11709,-0.132567,-0.136501,0.00278207,0.0127951,0.0681736,-0.0531561,0.101694,-0.00800103,0.206146,0.0895672,-0.173654,-0.130666,-0.107726,-0.0270506,0.173928,-0.0177917,0.0697649,-0.107797,0.125503,-0.0371305,0.0670535,0.118394,-0.0220899,-8.55425e-05,-0.012863,0.263477,0.132772,-0.166182,0.13598,-0.0428326,0.0685903
chambord	0.0527751,-0.232646,0.128393,-0.134302,-0.0300167,0.0269935,-0.0426445,0.0656147,0.143,-0.0869821,0.309232,0.239132,-0.0252765,0.143181,-0.177841,0.321044,0.0287814,-0.0533629,-0.046327,-0.169331,-0.223409,0.0873067,0.406153,-0.150333,0.0893345,0.111256,0.0926757,-0.0908387,-0.00213401,0.00520733,0.0611514,-0.149642,0.0418664,0.00121231,0.0518159,-0.135613,0.243114,-0.0344652,0.169164,-0.00770383,-0.14174,0.0251636,-0.118155,0.0250899,0.0187073,0.0254134,0.115063,-0.209936,-0.108631,0.0631095
frozen	0.119725,0.0118288,0.0137792,-0.0351019,-0.261748,-0.0156591,0.141077,-0.00111685,-0.231821,0.0432633,-0.23468,-0.26811,-0.0172884,0.239213,-0.173804,0.0601989,-0.0411668,0.0971863,0.139617,0.108503,-0.057019,0.130305,0.198259,-0.0227194,-0.15105,0.106334,-0.0344211,0.140006,-0.279828,-0.0977086,-0.0201149,-0.14749,0.00390839,0.165075,-0.0342465,-0.221771,-0.053208,0.38644,-0.0132343,-0.109964,-0.127878,0.0322349,-0.163225,-0.0348573,-0.0298625,-0.0769776,-0.14443,-0.0361274,0.132266,-0.142695
poppy	0.00715233,-0.251183,0.0266812,-0.0793771,-0.150442,-0.0030533,0.107278,0.186472,0.335039,-0.0261041,-0.0590448,-0.201412,-0.174619,-0.157967,-0.00955821,0.23698,-0.0948894,0.154252,-0.0793538,-0.0441467,-0.0707742,0.0627552,-0.0886724,-0.00556945,-0.0189606,0.173098,0.094021,0.0632084,0.122184,0.0356632,-0.0161691,-0.239022,0.138145,-0.141112,0.0102974,0.192444,0.0288095,0.129626,0.201473,-0.00642361,0.0814205,-0.26949,-0.147622,0.118968,-0.0299883,0.133982,0.297191,0.232676,-0.0346099,-0.0741075
uncooked	0.116164,-0.0786236,-0.146505,0.0082693,-0.254783,0.0510282,-0.150579,-0.0618249,-0.150691,-0.0372446,-0.0596162,0.212492,-0.2019,-0.0461421,0.222964,-0.160541,0.271426,0.20395,0.216427,0.12178,-0.0969628,-0.0738417,0.0955622,0.146169,0.00161199,-0.125486,0.125358,0.178714,-0.0548008,0.175383,-0.0582722,0.0773547,-0.0285625,0.213325,0.236815,0.0898519,-0.104987,-0.114774,-0.130817,-0.0769056,-0.0895919,0.0963413,-0.0822646,-0.069855,0.226492,-0.201759,-0.119379,-0.131617,-0.104546,-0.153609
porterhouse	0.113247,0.00911693,-0.138001,-0.127234,0.123095,-0.330626,0.104597,-0.232659,-0.182636,0.0115584,0.294127,0.119715,0.0704421,0.00115316,0.0722745,0.0784189,0.109601,-0.133911,0.129534,-0.0236602,-0.150778,0.133527,0.0416701,0.00743393,0.096322,0.152008,-0.0156742,-0.201006,-0.00958729,-0.0871752,0.01717,0.097873,-0.168751,0.283112,0.0157636,0.00867667,0.0945408,0.0886695,-0.129157,0.0051257,-0.225813,-0.220976,-0.0573569,0.0128507,-0.0722358,0.318904,-0.211142,0.0179815,-0.110185,-0.147362
orzo	-0.0642467,0.194256,-0.264931,0.0575187,-0.0368377,-0.15088,0.0881105,-0.105582,-0.1678,-0.179819,-0.0242094,-0.0821309,0.0678831,-0.0278336,-0.0465004,-0.0364979,0.133281,0.199746,0.0867469,-0.19532,0.194043,0.16206,0.165127,0.224789,-0.175777,-0.0973518,0.177649,0.144282,-0.00395163,0.147797,-0.111476,0.0082601,-0.257246,-0.0771649,0.0587592,0.0456663,0.111415,-0.193499,0.00194962,-0.184698,-0.080701,-0.224771,-0.187393,-0.0426286,0.0343728,-0.193458,-0.296635,-0.0657858,-0.0659775,-0.0431449
ravva	-0.167853,-0.117965,0.0690135,-0.150544,-0.0221318,-0.185506,0.202595,0.107979,0.233822,0.0671215,-0.120849,-0.316154,-0.270498,-0.010928,-0.0380824,0.266301,0.0237264,0.0481287,-0.240858,-0.0784691,-0.214301,-0.0228203,-0.0882003,0.0146586,-0.106025,0.0279475,-0.0177267,0.27137,0.0390368,0.0554481,-0.206295,-0.247573,0.0792643,0.0257084,0.0621412,0.177534,-0.0581636,0.139594,0.0068681,0.197801,-0.0194707,-0.0793584,0.0568542,0.00280458,0.171551,0.0678251,0.0258627,0.236269,0.0509162,-0.0131668
almond	0.00104906,-0.345128,0.0326144,-0.141509,-0.0944371,0.188818,-0.0397099,0.253691,0.323656,0.119004,0.100404,0.00107409,-0.0683954,0.0985128,-0.0434656,-0.0290459,0.0216788,-0.0728562,0.23835,-0.135871,-0.0496302,0.0244915,0.233944,0.0868122,0.260864,-0.0282862,-0.0281889,-0.0641818,0.0503834,-0.00497005,0.0801464,-0.288129,0.179347,0.087432,-0.0614583,-0.00181229,0.00580522,0.274216,0.119472,-0.129289,0.109742,-0.183956,0.0103072,-0.151863,0.0672766,-0.183826,0.00106819,-0.0805924,0.148109,-0.073615
bacon	0.0377932,-0.0215803,0.196643,0.210019,0.0912612,-0.126131,0.0480549,-0.319237,-0.0238059,0.02954,0.0951492,0.0270414,0.343811,0.0509208,-0.202623,0.187892,0.0011893,-0.164879,0.0487728,0.0418517,0.0792452,0.118613,-0.206355,-0.109507,-0.0270472,0.134726,-0.0167291,0.193083,-0.131182,0.175925,0.0488602,0.0282292,0.274548,-0.0581321,0.0186929,-0.141498,-0.145208,-0.0353228,-0.263539,0.0453919,0.202357,0.202281,0.121512,0.0186416,-0.0233707,-0.00914085,-0.211304,-0.112657,0.0448611,-0.120531
japanese	0.0833742,-0.0772998,-0.235819,-0.178274,-0.218148,-0.0605804,-0.13402,-0.017184,0.233895,-0.0969834,0.121371,-0.130874,0.124807,0.241459,0.0444602,-0.0392484,-0.219311,-0.210056,-0.0767184,0.0984002,-0.289025,-0.128928,-0.0504621,0.0848307,-0.200341,0.00832163,-0.112965,-0.00602287,-0.144197,-0.0992577,0.0622513,-0.008508,0.023486,-0.0421612,0.118149,0.0957323,0.219711,0.120934,0.208848,0.0792886,0.00775172,-0.164532,0.0422442,0.0462052,0.223644,0.254189,-0.116003,0.16311,0.0765276,-0.147176
millet	-0.182223,-0.336724,0.204491,-0.225644,0.214596,-0.0195343,0.0680233,0.253036,0.137204,0.0874516,-0.0744227,-0.0737971,-0.305898,0.055328,0.0108884,0.15376,-0.0721999,-0.197614,-0.0756837,-0.0606604,-0.167695,-0.0856531,0.0443001,0.142876,-0.0787834,0.0529283,-0.0466615,0.172403,-0.00922353,0.0255447,0.0719618,-0.0297218,0.115141,0.0874592,-0.09045,0.140971,0.0736409,0.227162,0.0349874,0.207725,0.163484,0.10916,-0.140791,0.00715473,0.0905977,-0.000280338,0.0278235,0.258675,0.198237,-0.0667634
soppressata	0.0583762,-0.284918,0.164401,-0.133847,-0.00759455,-0.0921562,-0.0522968,-0.330252,0.0101864,0.0537319,0.0642896,0.141091,-0.190102,-0.238014,-0.00149802,0.0272172,-0.00396359,0.185413,-0.0461728,-0.105437,0.2582,0.123093,0.0885651,-0.045599,-0.0726651,0.153531,0.106913,-0.0704825,-0.0502565,0.264292,-0.221727,0.0185828,0.028008,0.152294,0.0299885,0.0597423,-0.0298366,-0.186482,-0.141278,-0.275997,-0.0561918,0.251021,-0.0624805,0.0779838,-0.0171413,-0.00879682,-0.267275,0.0994232,-0.068222,-0.0170856
cactus	0.0596666,-0.118056,0.291319,0.0182246,-0.0611316,-0.0604421,-0.0334139,0.111216,-0.00820099,-0.00119681,-0.192353,0.0760067,0.185481,-0.0751459,0.152835,0.205418,-0.0899566,0.310453,0.179785,0.214431,-0.158862,-0.0197025,0.0365001,-0.116374,-0.0348951,0.0883643,0.106276,0.077973,0.0685161,0.229145,-0.0978013,-0.0190159,0.0239381,-0.141098,-0.256801,0.0774927,-0.156966,0.207461,-0.0323776,0.0243137,0.0773301,-0.068883,-0.153632,-0.135442,-0.106406,0.137299,-0.0628753,-0.179645,0.102184,0.346278
blue	0.132067,-0.228656,-0.0346136,0.111366,-0.284585,-0.0553536,0.0435737,-0.0760254,-0.0154258,-0.113829,0.135034,0.222805,-0.146867,-0.139533,0.15818,0.0551038,0.0616,-0.355667,0.0035116,-0.0205219,0.111213,0.148677,0.073575,-0.139281,-0.0930624,-0.00119628,0.169215,-0.010796,0.287704,-0.0764363,-0.178206,0.0231263,0.0818291,-0.28928,0.152171,-0.275814,-0.0182349,0.0187036,-0.120818,-0.0355259,-0.134166,0.0772554,-0.0853085,0.180297,0.000101896,-0.0885778,-0.0597065,0.0110611,0.185084,0.103677
sesame	0.228758,0.136309,-0.115163,-0.0252436,-0.0305783,0.295478,-0.043967,0.016945,0.061804,-0.0834644,0.0569015,-0.0489266,-0.162882,0.167434,0.0839486,-0.0125274,-0.174899,-0.191728,-0.0768827,0.137605,-0.242419,-0.0266442,-0.0576696,0.0847405,-0.0600151,-0.10221,-0.0166406,-0.22062,0.054574,-0.200177,-0.0988133,-0.0571177,-0.16183,0.0267308,0.13228,0.281902,0.0860519,-0.094276,0.139664,0.0239319,-0.0688843,-0.111562,0.0624647,-0.00572118,-0.189459,0.0632852,-0.0528443,0.252013,0.240564,-0.346187
porcini	-0.0537097,-0.00741769,-0.104766,0.328028,0.177365,-0.0570904,-0.0141825,-0.185586,0.150371,-0.216342,-0.0408085,0.029429,0.0529163,-0.231365,0.068681,0.0277962,0.195798,-0.242291,0.0679178,-0.0530486,0.0747365,-0.048462,0.254608,0.0906122,-0.00313551,0.297821,0.250366,-0.0678146,-0.27803,0.0906774,0.17323,0.0286517,-0.0101546,0.0301779,0.109026,0.0955644,-0.194049,-0.122406,-0.192325,0.0376329,-0.106985,-0.0486549,0.00560639,0.162399,0.127325,0.125341,0.0357471,0.0581761,-0.155571,-0.0591136
cooking	0.248848,0.0489887,-0.054281,-0.0247255,-0.120772,0.240511,-0.242714,0.149909,0.0214105,-0.204477,0.0310751,0.228905,-0.0750271,0.10543,0.222663,-0.125702,0.203071,0.0686501,0.125375,0.113342,-0.0277416,0.070427,-0.234788,-0.0324085,0.137712,-0.223847,-0.088331,0.26481,-0.0142676,0.0175532,-0.0129449,-0.0100451,-0.00146204,0.176073,0.130177,-0.171808,-0.0502351,-0.0225315,-0.187714,-0.0835171,-0.166837,-0.105699,-0.0722535,0.172996,0.142129,-0.266263,-0.0563603,0.0983319,0.0499715,0.114193
fingers	0.0911447,-0.191486,-0.210718,-0.0827539,-0.0130566,0.266002,0.102032,0.208894,-0.0904955,-0.234703,0.000590837,-0.191464,0.109453,0.0753455,-0.0634131,0.101509,0.0748413,-0.0351755,0.149347,0.200408,0.0622608,-0.212188,-0.0689379,0.165578,0.159146,-0.121558,0.0989009,0.0746198,0.107511,-0.197659,-0.0245766,0.0513,-0.214943,-0.183418,0.0515351,-0.0133827,0.249901,0.224506,0.145579,-0.0333675,0.238029,-0.024351,0.124168,-0.271103,0.11004,0.0814051,0.029876,-0.0096284,0.0536671,-0.0242743
galangal	-0.0299177,0.225553,0.0951149,0.0432955,-0.192717,-0.133556,0.225069,-0.0148247,0.182701,-0.144459,0.0740431,0.207322,-0.0244999,-0.110665,-0.0307876,-0.0627723,0.104809,0.00400917,-0.169111,0.0489824,-0.300864,-0.242013,-0.109562,0.0396161,0.224892,-0.0913338,-0.0108101,-0.0400334,-0.216872,-0.12864,0.229606,0.162922,-0.174509,-0.234873,-0.136976,0.0730648,-0.122168,0.16095,-0.0380957,-0.0421159,-0.032911,-0.0306188,-0.127727,-0.21626,0.0536839,0.136402,0.157819,-0.076519,0.177845,-0.0104714
new	-0.0569971,-0.0753555,0.118681,-0.261632,-0.0272165,-0.448202,0.0110335,0.0823432,-0.0128169,-0.199393,0.122089,0.00714709,0.130911,0.0733119,0.0143729,-0.0184111,-0.0680444,0.0414314,-0.00607653,-0.219336,-0.0814574,-0.00308997,-0.116577,0.237931,0.0042234,0.0580309,-0.199131,-0.232178,0.00534929,0.109482,-0.108622,-0.0499915,0.00311821,0.1142,0.0319803,0.0382607,0.0271331,0.21759,-0.247276,-0.0225761,0.0340312,0.0473383,-0.259021,0.0708963,-0.206623,0.31878,-0.143107,0.0358631,0.00773142,0.0233371
zesty	0.0764141,-0.191171,-0.243072,-0.196702,-0.129366,0.0395492,0.0309292,0.199467,-0.0549711,0.0946655,0.0573106,0.0377059,-0.0820171,0.0410162,-0.364605,0.0991025,0.0304861,0.0624509,0.130044,-0.00955102,0.0898137,0.104353,-0.220186,0.0379734,-0.00656123,0.142845,0.107579,0.132434,0.0834275,0.0772382,-0.019238,0.00106915,-0.0682628,0.156166,0.164639,0.0837831,0.106278,-0.131271,-0.156226,-0.198253,-0.0187494,0.266195,-0.0971177,-0.215142,-0.321942,0.0560616,-0.209408,0.157501,0.129985,0.0684482
croutons	-0.0131259,-0.0629836,-0.0138758,-0.103886,-0.114469,-0.220525,0.0269379,-0.0765217,-0.231589,0.0878234,0.114724,0.120361,0.0437657,0.00971325,-0.160941,0.0401319,0.0464833,-0.0474453,0.0242951,-0.105943,0.291158,0.127003,-0.0693213,-0.134104,-0.0459782,-0.255746,-0.00762302,0.0527696,0.0167715,0.185955,-0.152905,0.236136,-0.0800583,-0.040168,0.115066,0.017616,0.178294,-0.43191,-0.253934,-0.0962223,-0.0873799,0.0692224,-0.0759077,-0.105461,-0.0602198,0.091563,-0.204082,0.272294,-0.0210534,0.0505398
devein	-0.115116,0.0749398,0.0435823,-0.185933,-0.28315,0.0496553,0.123281,-0.130916,-0.209061,-0.388834,0.205825,-0.143042,0.0967069,-0.0313176,-0.0774994,-0.183017,0.0943733,0.225008,-0.101024,0.250324,0.0113328,0.152264,0.202505,-0.0489493,-0.0898795,-0.0972452,0.051055,-0.0954339,-0.0997446,0.241164,0.0981343,-0.0297325,-0.0579696,-0.0677132,0.0241341,-0.127803,-0.0249319,-0.0319331,0.154018,-0.00681493,-0.118885,0.299198,0.0525465,-0.0493962,-0.0505434,-0.18298,0.023693,-0.117665,0.0403035,-0.0627868
kefalotyri	-0.211443,-0.109374,0.0278765,-0.11731,0.0969861,-0.301323,-0.0306301,-0.0878331,-0.0495243,-0.178098,-0.197857,0.0337142,-0.0823855,-0.193783,0.203224,-0.000851832,-0.0243969,0.156935,0.238875,-0.383279,0.0417557,0.24758,0.0828227,0.0512628,-0.174429,0.0521741,-0.104951,0.135604,0.00454179,-0.274503,-0.0664178,-0.0873313,-0.0299255,0.128664,-0.0767598,0.148671,-0.0590109,-0.042069,0.219543,-0.133992,-0.0909631,-0.0273268,-0.143324,0.0549692,0.0258649,-0.116569,-0.10778,-0.00248159,-0.174444,-0.0491827
chiles	0.045934,0.144847,0.00843903,0.131828,-0.0253501,0.0880047,-0.0732791,-0.149884,0.137386,-0.00316257,-0.192134,0.213728,0.159665,-0.134564,0.178292,0.131204,-0.0461286,0.0866109,0.0100988,0.238181,-0.0695145,0.0284566,-0.0560078,0.121488,0.180823,-0.0692309,-0.00770861,-0.0443036,-0.0423104,0.218851,0.0921784,-0.177951,0.00400024,-0.0610969,-0.356859,-0.0708302,-0.278122,0.22975,0.158899,0.186792,0.162053,-0.16764,-0.166471,-0.0615196,-0.222563,0.0476445,0.046611,-0.126256,0.110232,0.124386
jasmine	0.0130847,0.302673,-0.0504487,-0.0680365,0.150268,-0.0125425,0.122616,-0.0772262,0.0144797,0.0514984,0.0978331,-0.170442,-0.0299546,0.0150207,0.0547094,0.115071,-0.106024,0.0329141,-0.0578792,0.140421,-0.10544,-0.154589,-0.242987,0.0440654,0.139804,-0.213202,0.0926879,-0.157001,-0.141784,-0.0454982,-0.00475661,-0.123864,-0.376472,-0.309228,0.00653718,-0.323377,-0.0464569,-0.0422083,0.0808091,0.0201462,0.00269161,-0.00629772,-0.069164,-0.165732,-0.098964,-0.0167784,0.035533,-0.0759577,0.355105,-0.0542924
ramps	-0.0354856,-0.191728,0.257668,-0.129221,0.193732,-0.0719796,0.0346422,-0.0728688,0.113189,-0.0356587,-0.0752241,-0.0772562,0.00475272,-0.0266087,0.0085343,0.129827,0.0479619,-0.244176,-0.00439951,0.052996,0.0345935,-0.0950976,0.157416,-0.204821,-0.236057,-0.139617,0.148932,-0.0169713,-0.0640249,-0.0558554,-0.196251,-0.0268512,0.131752,-0.00861857,-0.0607131,0.000606005,0.115124,0.0725414,0.175705,0.36638,0.159702,-0.117008,0.0919292,0.105579,-0.123755,0.117911,0.105005,0.384769,0.171986,0.13795
broccolini	-0.0374902,0.0860873,0.113695,0.13718,0.161154,0.137463,0.0427871,-0.0114994,-0.0319154,-0.110425,0.111788,0.0398643,-0.141519,0.149741,0.0696603,0.0223127,-0.118889,-0.0724427,-0.00347986,0.211163,0.0088144,-0.304747,0.0468702,0.089946,-0.0024362,-0.144498,-0.0476875,-0.189116,-0.165444,0.0578556,0.0644228,-0.136484,-0.208721,0.0892865,0.0411485,0.351511,-0.188392,0.00864851,0.0369104,0.00245665,0.0182422,0.083847,0.00878011,-0.210012,-0.00343473,0.209687,0.102427,0.255342,0.314972,-0.271515
marnier	0.0280474,-0.246362,0.0800588,-0.0728547,-0.0773823,-0.0438452,0.0778903,0.213386,0.0614387,-0.28819,0.251215,0.136542,-0.118383,-0.0691698,-0.318608,0.306722,-0.293759,-0.0734743,0.102411,-0.094152,0.041701,-0.0839368,0.110724,-0.14422,0.133617,-0.0590052,0.110211,-0.246086,0.001748,-0.182523,-0.0599365,0.072707,-0.000949965,0.0975238,-0.0713935,0.0188848,-0.00989039,0.0643919,-0.0906666,0.0269451,-0.11681,-0.145021,-0.0671917,0.0897978,-0.0603838,-0.0980259,0.185862,-0.187017,-0.176894,-0.0756294
pate	-0.0390276,-0.18541,0.291502,-0.109074,0.0900581,-0.156613,-0.0187578,-0.012653,0.177724,-0.114034,0.0844702,-0.040285,-0.0427914,-0.163109,0.0937431,-0.0965147,-0.0151625,-0.0312894,0.191652,-0.0220327,-0.135379,0.0946606,0.0342195,-0.173775,-0.123076,0.291809,-0.312344,-0.297598,-0.161614,-0.145874,0.0703146,-0.0480665,-0.0189253,-0.0873023,-0.0177939,0.0440669,-0.205362,0.0292416,-0.026454,0.148501,-0.0843703,0.131925,0.158347,0.232951,-0.149085,0.114889,-0.0834011,-0.181467,-0.201169,-0.0193135
active	-0.0792694,-0.161549,-0.00286802,-0.0736727,0.0029659,0.123936,-0.0088731,-0.0379972,0.294383,-0.116837,0.0957632,-0.162217,-0.35374,-0.208357,0.148599,0.160795,0.204005,0.103455,-0.0430744,-0.0533487,0.238561,0.0633392,0.175896,-0.0376069,0.00586189,0.205349,-0.060608,0.0787733,-0.0804787,0.00977496,0.162533,0.0552538,-0.0459385,-0.0449844,-0.0381327,0.0158822,-0.0696053,-0.312917,0.106183,0.127512,0.140579,-0.11991,0.0808568,0.148304,0.126831,0.0320919,0.0198475,0.11784,0.0992983,0.338415
johnsonville	-0.149796,-0.0689803,0.00815979,-0.00624871,-0.0146984,0.101535,0.11743,-0.180433,-0.279307,0.0560968,-0.042699,-0.386644,0.0773051,0.030922,-0.114933,-0.282995,0.266301,0.179388,0.163707,-0.000458843,-0.00888776,-0.0350965,-0.110505,0.00341356,-0.0426956,0.111132,0.0446687,0.0677546,-0.120337,0.302577,0.0170013,-0.0494646,0.145353,-0.0354394,-0.0463069,-0.206883,0.0486723,0.0778874,0.0552725,0.133557,0.020751,0.255194,0.183791,-0.153674,0.122029,0.178256,-0.121543,0.131151,0.0602982,-0.0910035
southern_us	0.0452572,-0.0867964,0.207094,0.0202369,0.00344354,0.0532891,-0.043288,-0.119858,0.0600047,0.122539,0.203312,-0.185226,0.229031,0.112606,-0.151501,0.00983903,0.12207,-0.148604,-0.144509,-0.0874102,0.0920463,0.232295,0.0780722,-0.189552,-0.125342,-0.0602797,0.000510356,0.153026,0.194211,-0.255277,-0.0630574,-0.123621,0.206213,-0.174756,-0.104556,-0.447713,-0.06869,-0.171225,-0.128552,-0.0498578,-0.0524964,0.175891,0.138733,-0.0276941,-0.0188421,-0.0661981,-0.0838662,-0.0245419,-0.0620606,0.0573635
mozzarella	0.0476471,-0.298748,-0.210583,0.057972,-0.0803339,-0.0396692,-0.205376,-0.066625,-0.104204,0.0757852,0.177325,0.170716,-0.17245,-0.340021,-0.0617853,-0.118696,0.222626,0.0850215,0.0545902,-0.0135405,0.0293916,-0.11363,0.199027,0.113963,-0.118589,0.0216905,0.312567,0.268938,-0.173675,-0.0418568,0.0295294,0.0104358,0.00410817,0.079131,0.0634326,0.130695,-0.153539,-0.0840536,-0.0677594,-0.150754,0.045967,0.168474,0.0745788,0.00599061,-0.0674469,-0.0880076,-0.296052,-0.000995564,-0.00722753,-0.0215299
dry	-0.0251874,0.0339843,-0.0171145,-0.116399,0.124387,0.154777,0.124531,-0.295178,0.0997583,-0.268599,-0.0564174,0.21014,0.204073,-0.0309915,0.00466345,-0.0371774,-0.0503917,-0.0587121,-0.0318717,0.0280093,0.0748906,-0.23634,-0.000267608,-0.104534,0.067357,0.00751233,0.145701,0.0259796,-0.0243979,0.12277,-0.0558697,0.00875333,-0.0165205,0.0635434,0.212805,-0.127153,-0.314319,-0.319837,-0.0837727,0.0326178,0.0214731,-0.0474624,-0.0420126,0.283294,0.194018,-0.261403,-0.10575,-0.100316,-0.222292,-0.0836923
glutenfree	0.03232,-0.214505,0.0402048,-0.0600452,0.195327,0.278286,0.080383,0.118924,-0.130111,0.217879,0.00742357,-0.069981,-0.0228793,0.283033,0.150307,0.14959,-0.0332171,-0.245611,-0.091857,-0.15868,-0.00670317,0.0833309,0.029617,0.113168,0.0574345,0.0393569,-0.0465219,0.182847,-0.0656795,-0.0896376,-0.115845,-0.18468,0.238354,0.0784804,0.15354,0.0511069,0.0268018,0.111298,0.0927787,-0.0456538,0.226715,-0.0834822,0.0121376,-0.274759,0.0253422,0.111304,-0.144883,0.0650453,0.338768,-0.0233982
leaves	0.0871326,0.195338,0.154478,-0.00606061,-0.0110637,-0.404902,0.172575,-0.151639,-0.0128553,-0.162541,-0.173489,0.111444,0.0333891,-0.159595,0.20638,-0.190809,-0.137171,-0.0113117,-0.0279702,-0.0248032,-0.156472,-0.00328312,-0.0605208,0.0107618,0.0257562,-0.190416,0.141611,0.121494,-0.135053,0.288137,0.0570319,-0.138036,-0.14643,-0.0685808,0.000809491,0.114886,-0.0468332,0.158334,0.00429579,-0.0323798,0.188382,0.165546,-0.307335,-0.14531,0.0560922,0.0930596,0.169998,0.0872195,-0.0199075,0.00713311
stevia	-0.182604,-0.114443,0.0382337,0.00205726,0.0130899,-0.0414418,0.0276523,0.0466099,0.271122,0.0749078,0.176574,-0.0088222,-0.223649,0.0707124,0.126635,0.0489725,-0.0147934,-0.165531,0.0328737,0.117008,-0.153297,-0.090001,0.117631,-0.161803,0.0512858,-0.112909,0.119869,0.129387,-0.0184998,-0.312556,-0.0753096,-0.151687,0.0377987,-0.0103157,-0.0378125,0.0144245,0.11911,0.145603,0.178404,-0.0274014,-0.208413,0.0207001,-0.124418,-0.0931828,-0.24275,0.115354,0.328104,-0.123525,0.361899,0.104617
dri	0.00159272,0.107032,0.0432611,0.0944442,-0.189169,-0.139838,0.0415899,0.222624,-0.269417,0.0509914,0.105601,-0.0880171,0.138699,-0.126468,-0.000336598,-0.0421211,-0.00250976,0.124541,0.0627537,0.285217,-0.0339641,0.133061,-2.91024e-05,0.298426,-0.181926,0.077294,0.0788529,0.190246,-0.114457,0.091123,-0.0697716,0.163682,-0.0462801,-0.204169,-0.105245,-0.0756758,-0.0536548,-0.0207735,0.0935306,0.0660738,-0.215958,0.183489,-0.170079,0.195734,0.0791872,0.229454,-0.135819,-0.0599606,-0.300394,-0.0310625
smoke	-0.24972,0.0503216,0.182836,-0.0983813,0.147848,-0.00400438,0.02605,-0.0567579,-0.13642,0.230726,0.0918573,-0.011711,-0.0137235,0.163986,0.0975869,-0.177558,-0.0880197,-0.10395,0.0480429,0.12632,0.0179224,0.114457,0.00762074,-0.152815,-0.0475846,0.0449205,0.231306,-0.0146336,0.0862191,-0.0409805,0.0973922,0.102636,-0.0352064,-0.0867986,-0.32329,-0.156077,0.194513,-0.0109578,0.137366,0.14514,0.0839694,0.02099,0.220664,-0.274087,-0.266339,0.183643,-0.108034,0.223118,-0.0940797,0.1873
bertolli	-0.0452413,0.0512917,-0.170232,-0.183417,-0.248924,0.159797,0.0324039,0.0932374,-0.126394,-0.151347,0.127081,0.169795,0.102642,0.0642105,-0.127866,0.0211366,0.0615843,0.0834623,-0.0289554,0.262294,0.00722674,-0.123033,0.315489,0.0990759,-0.0435646,0.0317471,0.0435114,-0.171564,-0.0494122,0.145696,0.122194,0.139755,0.00847957,-0.0951103,0.270391,0.0300341,-0.0608533,-0.21139,-0.0247398,-0.257638,-0.0986903,0.358821,-0.198924,0.0219451,0.0898301,0.0346629,-0.113738,-0.0187223,0.0046946,-0.152352
sriracha	0.144642,0.146737,-0.17836,-0.107173,0.096767,0.144656,-0.131643,-0.109161,0.0903155,-0.0697938,0.183611,0.136187,-0.0833917,-0.0127807,0.132695,-0.0396642,-0.0394327,-0.185028,-0.240248,0.0607448,-0.085716,0.0267256,-0.183751,-0.0554405,-0.158076,-0.233164,-0.053554,-0.131724,-0.0546637,-0.125261,0.0108046,-0.0738455,-0.0102384,0.0352974,-0.0235073,0.10517,0.109109,-0.139122,0.125766,0.0741324,0.00169251,0.0805984,0.169136,-0.386827,-0.210078,0.00393653,-0.0371357,0.0319876,0.437914,-0.0927873
golden	-0.0589045,0.062968,-0.200041,-0.109635,0.00263292,0.117756,0.098305,-0.0356065,0.347829,-0.00312579,-0.170713,0.0038316,-0.0950739,0.0195508,0.200024,0.102939,0.148988,0.124535,0.10919,-0.137196,0.225301,0.0407827,-0.103337,-0.217664,0.183184,0.199777,-0.020514,-0.0970298,-0.138651,-0.0971166,-0.126854,-0.26557,-0.0280989,-0.156025,0.131601,0.0881378,0.036031,-0.0542002,0.0538603,0.134798,0.161867,-0.172854,-0.0296199,-0.0946212,-0.14609,-0.160649,0.045648,-0.234818,-0.281435,-0.0549381
canola	0.0941264,0.25408,0.135754,0.054493,-0.0781882,0.223792,-0.108832,0.0973813,-0.0632143,-0.220894,-0.099044,0.0498077,0.229967,0.221029,0.307762,-0.0227053,0.0917746,-0.101743,-0.326066,0.178815,-0.170194,-0.0640983,-0.100093,-0.106131,0.0856156,-0.18128,-0.22251,0.186803,0.0642402,0.0870679,-0.0552641,-0.135759,-0.031136,0.0195912,-0.0339384,-0.0936875,-0.0298091,0.164032,0.13637,0.149086,0.116026,-0.0601181,0.138991,-0.171179,0.0130235,0.130568,-0.122749,0.113329,0.0701708,0.0272503
slices	0.121258,-0.0414096,0.230394,0.00356899,0.0886921,-0.0444714,0.0678827,-0.0833573,0.0520579,-0.116814,0.123864,0.177314,0.273651,-0.143503,-0.0306909,0.248473,-0.0925543,0.117004,0.0209201,-0.191095,0.0737339,0.0989383,-0.144508,-0.133086,-0.166571,0.267352,0.101552,0.0069446,0.16582,0.169437,0.0366188,0.0134476,0.0289797,-0.0235086,0.226488,-0.259371,0.0495229,-0.112842,-0.0286964,-0.357159,-0.08507,0.100491,0.163694,-0.149853,-0.158975,-0.189864,-0.0568517,-0.0441783,0.0942721,0.0439732
straw	-0.0552678,0.0761688,-0.00207287,0.0658042,-0.121048,0.0657102,0.139316,-0.0772202,0.164305,-0.267898,0.0153711,0.0399059,-0.119905,0.0123235,-0.21799,-0.0238514,0.0469324,-0.113383,-0.136332,0.172484,-0.25772,-0.15821,0.0178784,0.0929752,0.230157,-0.0719249,0.108032,-0.0919666,-0.254581,0.0466482,0.219639,0.146139,-0.235829,-0.287331,-0.0234372,0.0762731,-0.109714,0.0248737,-0.0231501,-0.130284,-0.217462,0.109831,-0.0369933,-0.105319,-0.0534392,0.0732993,0.13698,-0.0449687,0.332328,-0.120869
sliced	0.238637,0.0633444,-0.153541,-0.0667101,-0.173184,0.346303,-0.0844335,0.0799591,-0.0365894,-0.126135,-0.235546,0.221391,-0.106108,-0.0396088,-0.161724,-0.0927089,0.257299,0.0556665,0.253954,-0.117651,-0.0433159,-0.0451685,-0.228217,0.0788696,0.15066,-0.0186048,-0.154717,-0.0288895,-0.207843,0.224539,0.0152004,-0.181704,-0.0795229,0.179283,0.0975454,-0.087093,0.0837653,0.0238856,-0.0720579,-0.0256521,-0.195088,0.147416,0.0280317,-0.0132729,-0.177477,-0.0741721,-0.0303316,0.126024,0.0954557,-0.0323377
dungeness	-0.0698506,0.0146435,0.245946,-0.0335754,-0.279947,0.0492754,0.122625,-0.259027,-0.0564176,-0.108696,0.27547,0.048964,-0.00318578,0.203483,0.0372999,-0.000502606,0.133466,-0.105962,-0.117252,0.103706,-0.0512145,-0.279778,0.138623,0.0298979,-0.054637,0.0515261,0.197022,-0.167697,0.111263,0.317474,0.136765,0.256467,-0.155936,-0.311097,0.0873509,0.0521665,-0.0503234,-0.0695732,-0.0331631,0.0710869,0.119099,0.0451938,-0.0229829,0.104274,0.142556,-0.0428166,-0.016528,0.00719102,0.119703,0.0088775
sparkling	-0.00746712,-0.0795303,0.0300387,-0.0783607,0.0583587,0.00796803,0.0520028,0.034691,-0.00290553,-0.249421,0.189103,0.283015,-0.269773,0.00317115,-0.132787,0.124632,-0.228374,-0.11792,0.150937,0.0791734,-0.0575507,-0.0225422,0.0406981,-0.111357,-0.0299022,0.0262284,0.0339832,-0.289162,0.123294,0.0441483,-0.130032,-0.189935,-0.0499626,0.0184703,0.112894,-0.0217799,0.329557,-0.0958638,0.174727,0.115468,0.0181258,0.136615,-0.130424,-0.0158487,0.184701,0.0269373,0.232837,-0.318621,-0.0248171,-0.143311
soybean	0.104336,0.0875974,0.025209,-0.0529845,-0.0370735,-0.0981518,0.0523846,-0.0931043,0.0689642,0.00283343,-0.0720659,0.0263479,-0.244579,0.146547,0.086755,0.0124136,-0.136209,-0.0922727,-0.0591685,-0.172904,-0.387559,-0.0969535,0.203702,0.102442,-0.269601,0.159542,0.0650332,-0.130816,0.0343645,0.218091,-0.127182,0.0993442,-0.0590323,-0.126144,0.210232,0.139759,-0.129329,0.0934011,-0.0829138,0.112878,-0.206732,-0.0543887,0.214354,-0.189097,-0.229448,0.0154126,-0.0922469,0.158539,0.106404,-0.190213
shoyu	-0.0326376,-0.122218,0.0797988,-0.142867,-0.0771714,-0.123334,-0.0225195,0.127693,0.207742,-0.118939,0.213627,0.000631083,0.0495222,0.122432,0.135314,-0.0733803,-0.258454,-0.240926,0.0517485,0.0656442,-0.330269,-0.186341,0.00571998,0.130946,-0.10487,0.0495065,-0.0279513,-0.135386,-0.106591,-0.069648,0.168497,0.172721,-0.015306,-0.181828,0.163473,0.0340121,0.132725,0.0870548,0.335677,0.0297113,0.0999775,-0.172886,-0.0344602,0.0513582,0.102255,0.199172,-0.18004,0.0712626,0.126227,-0.167815
tenders	-0.140823,0.153998,-0.326735,0.0154325,-0.145311,0.399901,-0.024668,0.14164,-0.176722,-0.110941,-0.0173946,0.122875,-0.0124822,-0.180009,0.10398,0.100485,0.170424,0.0854611,0.129217,0.0912895,0.125479,-0.116176,-0.153941,0.0492714,0.118746,-0.184985,0.0426678,0.076595,-0.0646181,-0.175035,-0.0360168,0.104352,-0.0411023,-0.164262,0.114337,-0.112046,0.194301,0.0685124,-0.167953,-0.165991,-0.0754106,0.0778543,-0.113004,-0.116723,0.0963968,-0.219142,-0.160686,0.204308,0.00710005,-0.00398178
perrins	-0.332644,0.038819,0.113695,-0.217883,-0.0473597,0.164879,-0.0188742,-0.114303,0.0148313,-0.0406368,0.192526,0.0328979,0.116572,-0.0620622,-0.0303438,-0.0554594,0.0478105,-0.103964,-0.124917,0.148712,-0.0548421,0.114698,0.172558,-0.309709,-0.162505,-0.0987465,-0.0845681,-0.139888,-0.0685282,-0.278985,0.00692565,-0.127073,0.0595666,-0.066755,0.0453223,-0.152791,-0.162366,-0.326859,0.0936209,0.143745,-0.0857791,0.102535,0.233208,-0.0715332,-0.008053,0.246587,-0.112572,0.117265,0.0415002,0.0802324
spike	-0.164967,0.0316926,-0.115409,0.0423902,-0.197268,-0.0250357,-0.00260414,-0.00882053,-0.299088,0.157755,-0.0856585,-0.00816208,-0.0816268,0.0851329,0.0792554,-0.0471829,-0.0415736,0.190233,0.310566,-0.122151,0.157232,0.0236056,-0.0985418,0.113616,-0.180767,0.104894,0.26515,0.173087,0.0913644,0.114659,0.0433057,-0.059846,0.0125045,0.0871004,-0.188976,0.0963724,0.161159,-0.112143,0.0467952,-0.123814,-0.0803223,0.0228971,0.0156678,-0.279728,-0.0178587,0.200817,-0.326963,0.0746202,0.0632988,0.231061
broth	0.115801,0.291022,-0.0072173,0.329812,0.047207,0.14045,-0.0473462,0.0794716,-0.197963,-0.258644,-0.230577,-0.0373477,0.189742,0.0989357,0.191712,-0.00494388,0.211953,-0.0234865,0.108788,0.0148225,0.123198,-0.263268,-0.280479,0.0608378,0.0672976,0.016162,0.0133347,0.0184333,-0.271135,0.114301,0.0823167,0.000288915,0.00829247,-0.11007,-0.0116499,-0.0187539,0.0470095,-0.148859,-0.219358,-0.00779997,0.0421093,-0.0261624,-0.0643984,-0.156371,0.0417531,-0.18432,-0.0436647,-0.0337939,-0.088081,-0.183005
calf	-0.0972985,-0.107197,0.387003,-0.122828,0.0824967,-0.15765,0.115928,-0.12712,0.0693644,-0.148532,0.0663375,-0.161914,0.0836842,-0.139777,0.0185729,-0.0636336,0.15481,0.0654574,0.342946,-0.00309964,-0.0845488,0.0550747,0.0634553,-0.0489274,0.0492255,0.229269,-0.135255,-0.110959,-0.139356,0.042558,-0.0153802,0.0387481,-0.0577957,-0.180965,0.0111533,-0.0495794,-0.0829732,-0.186133,-0.123471,0.0837761,-0.0786951,0.0912154,0.153049,0.294243,-0.20388,-0.00620218,-0.142451,-0.166,-0.277396,-0.00895061
grassfed	-0.1915,-0.0307834,0.214071,-0.202164,0.205892,-0.0550515,0.177919,-0.119833,0.0514677,0.0943446,-0.0288514,-0.0703481,-0.202849,0.0267688,0.256344,-0.00335851,0.125796,0.15398,0.341569,-0.0240706,-0.117143,-0.0725803,-0.0231312,0.163153,0.175089,0.083268,-0.0100341,-0.0503142,0.204553,-0.169457,0.180875,-0.168121,0.0772689,-0.0893334,-0.211901,-0.017542,-0.106006,-0.0661156,0.0952477,0.127806,0.262647,-0.0593153,-0.101183,-0.015931,0.276029,0.112676,0.0137817,0.0425781,-0.0528208,-0.0882621
holy	-0.00471069,0.0491315,0.037823,0.0678388,0.0266948,0.0134013,0.0904451,-0.0860628,0.0701777,-0.0782074,-0.0263184,0.175165,-0.121039,-0.107494,0.279904,0.0227099,-0.089971,0.00616753,-0.201784,0.133361,-0.439294,0.0569795,0.0356207,0.0216459,0.147321,-0.148195,-0.101616,0.000195489,0.0241759,-0.0950446,0.205744,-0.00052586,-0.327144,-0.233652,0.0633869,0.0830215,0.0545814,-0.0765407,-0.134587,0.0310262,-0.0796271,0.164943,0.0532192,-0.0979843,-0.0454027,0.168629,0.0299257,-0.25108,0.232661,-0.249088
sauvignon	-0.133411,0.00495087,0.226557,0.147617,0.200395,-0.388728,0.141667,-0.0245282,-0.0735394,-0.232812,0.254463,0.231476,0.142665,-0.0573608,-0.0722213,0.232581,-0.0617195,-0.172278,0.0730438,-0.138274,-0.104137,-0.0303116,0.0512302,0.0476156,0.257976,0.194545,-0.0090053,-0.138737,-0.113821,0.24321,0.0118028,0.00620938,-0.0522677,0.0579327,0.00518723,-0.0721414,-0.0556674,0.018948,-0.207859,-0.0186871,-0.0836264,-0.00861501,-0.117434,0.0841695,-0.00386284,0.165896,0.0829856,-0.207862,-0.0405929,-0.0077751
oscar	0.128047,-0.417317,0.0236108,-0.0141695,-0.0937412,-0.0182204,-0.00531935,0.024145,-0.0895791,0.108235,-0.0825506,0.00172893,-0.0150048,-0.0941624,-0.361603,0.211772,0.0696602,0.171363,0.061569,0.0659751,0.0471573,0.103202,-0.156034,-0.0111738,-0.173961,0.111989,-0.0524688,0.0727897,0.139432,0.388066,-0.117937,0.0857859,0.00492763,-0.0507533,0.0470535,-0.131366,0.168756,-0.00547846,-0.156184,-0.131776,-0.0845229,0.324508,0.00938416,-0.141693,-0.0171173,0.00220521,-0.188563,-0.0219123,0.0548802,0.0392681
padano	0.108408,-0.0843092,0.182372,0.051492,0.162763,-0.190536,-0.0438041,-0.358016,0.0305606,-0.0717257,-0.0387961,0.0630647,-0.0444221,-0.0100959,0.0798422,0.0052741,0.0534269,-0.123201,0.0398252,-0.103874,0.091081,0.17595,0.352223,-0.054926,0.000335969,0.11743,0.0672679,-0.0371509,-0.273916,0.0338439,-0.160169,-0.0957324,-0.0139312,0.114506,-0.0491953,0.266528,-0.219537,-0.28412,-0.0487996,-0.217576,0.0185498,-0.00338038,-0.097928,-0.20706,0.0532101,-0.115533,0.0625899,0.204485,-0.0848303,-0.132439
glass	0.296548,0.073361,-0.0655798,-0.0329342,0.112871,0.0315643,-0.211811,-0.026884,-0.0375296,-0.197121,-0.00919937,0.108076,-0.114192,-0.0591422,0.0885487,0.0551694,-0.0371134,-0.265092,-0.136913,0.20696,-0.184632,-0.112927,0.0570177,0.127316,-0.0417767,-0.16432,-0.0514636,-0.0277186,-0.112215,-0.141465,0.156769,0.097026,-0.083266,-0.173343,0.226499,0.34038,0.0313879,0.0138222,0.00719318,0.109747,-0.149605,0.150592,-0.0462316,0.0361428,-0.225079,0.136723,-0.0610001,-0.0964646,0.208712,-0.269019
warm	0.0169947,-0.234141,-0.02797,-0.223164,0.151855,0.286815,0.0294943,0.0669232,0.137057,-0.0941364,-0.114167,0.0566858,-0.258054,-0.225172,0.41674,0.014544,0.115116,0.034694,-0.0522523,0.0200948,0.0663121,-0.0260261,0.227858,0.0783176,0.0575289,0.115224,0.0570648,0.222177,-0.0383911,-0.0290077,-0.0396921,-0.0479955,-0.042538,0.0481857,0.0164097,-0.0741507,-0.11901,-0.0983471,0.138337,0.116037,0.151195,-0.0383839,0.0957147,0.29926,0.231438,0.0390847,-0.00802576,0.111261,0.139795,0.126418
pecan	0.0690789,-0.0937425,-0.128696,-0.113053,-0.104516,0.00700251,-0.0975357,0.320207,0.125481,0.234671,0.219626,-0.0536101,-0.0525084,0.0560014,-0.0357688,0.0992193,0.0719787,-0.0829387,0.0479287,-0.0111183,-0.0112065,0.167894,0.0407909,-0.254612,0.15835,0.0955181,0.0333595,-0.115983,0.118658,-0.19202,-0.00264343,0.16113,0.066786,-0.108507,-0.122528,-0.310835,-0.265369,-0.4375,0.109335,0.113809,0.0271653,0.0426791,-0.0909191,-0.0263765,0.0652989,-0.00630613,0.0115796,-0.0930333,0.144318,-0.0111459
organic	-0.0321821,0.128378,-0.0824798,0.0874406,0.243815,0.0408401,-0.144526,0.0907017,-0.00624452,-0.0464134,0.000805803,-0.0228235,0.0895492,0.101138,0.36491,0.09981,0.0613654,0.00648451,0.0709656,-0.144123,0.0386463,-0.084818,-0.0112567,0.288983,0.204034,0.170937,0.111455,0.13698,-0.053552,-0.0279023,0.0173649,-0.0858304,0.0343343,0.0130012,-0.0500021,-0.0484013,-0.101534,0.00101638,-0.0447677,0.0890954,0.00207217,-0.161222,-0.297569,-0.264093,0.192472,-0.252253,0.0351831,0.180261,0.358706,-0.0679743
flora	-0.285406,0.145341,-0.0484202,-0.163874,0.0720444,-0.00675496,0.183457,0.180369,-0.0779724,-0.134168,-0.0794698,0.00881021,0.0238957,-0.0869361,-0.0600294,0.0239838,0.0418418,0.0868481,-0.0959824,0.073276,-0.181149,-0.0474697,-0.148206,0.0387346,-0.147246,0.165139,-0.0417506,-0.0434633,-0.0763215,-0.217688,0.0164409,-0.152839,-0.242741,-0.0485889,0.0324437,0.0351267,0.113794,0.225211,0.164581,0.0554295,-0.0118571,0.0854628,-0.175841,-0.253755,0.264315,0.237068,0.169664,-0.312937,0.147774,-0.086059
sweeten	0.105378,-0.23411,-0.141072,0.0468582,0.151218,-0.0523148,-0.152906,0.00741286,0.0502472,0.20139,0.318571,-0.096328,-0.0723793,0.117062,-0.101262,0.250146,-0.118633,0.0305486,0.154962,-0.127025,0.0116076,0.100972,-0.0359871,-0.184489,0.227215,-0.075411,-0.0284132,-0.177665,0.125562,-0.00488682,-0.180164,-0.0609005,0.303948,-0.15,-0.154676,-0.166239,-0.010721,0.00999797,-0.0343602,-0.17022,-0.272372,0.137651,-0.0830967,-0.0910666,-0.0830046,-0.048707,0.0972404,-0.223351,-0.0162738,-0.0292894
elbow	-0.101532,-0.257771,0.202051,-0.0805377,0.157105,-0.128858,0.134701,-0.124058,-0.083096,0.177635,-0.0585579,-0.114431,0.0622119,-0.0320787,-0.166385,-0.159599,0.394497,0.228626,0.17744,-0.0555711,0.242497,-0.0584278,-0.0749198,-0.166312,-0.0829921,-0.0454059,-0.157022,0.368189,-0.115373,-0.0696024,0.0381816,0.0994143,0.183168,-0.105735,-0.0354971,-0.00540743,-0.0296652,-0.0870975,-0.169821,-0.126089,-0.0727381,-0.0513116,-0.0616645,-0.0116758,-0.157695,-0.0072301,0.0337796,0.0201409,-0.0653086,0.098137
crackers	-0.0107366,-0.355243,-0.0744722,-0.0604141,-0.103999,-0.0531019,0.129983,0.0303484,0.068526,0.25306,0.230542,0.0681877,-0.147458,-0.287219,-0.212858,0.118271,0.0330772,-0.0360229,-0.00185098,-0.0512039,0.264435,0.104311,-0.157007,-0.358112,-0.0315725,-0.162595,0.0248192,-0.14931,0.320522,0.0288979,-0.0256885,-0.0519094,-0.0711223,-0.047762,-0.0592696,-0.093818,0.0787697,-0.0118689,-0.0442851,-0.0786939,-0.087278,0.145996,-0.129697,0.0504804,0.0313583,0.0236034,-0.1255,-0.0396125,0.00439491,0.213655
root	-0.164916,0.242499,0.0175194,-0.178232,0.0262641,-0.131598,-0.0284035,0.0646116,0.0771678,-0.0761703,-0.0588891,-0.0797382,-0.0543387,-0.0594098,0.0371567,0.0404793,0.0538509,-0.175548,-0.0328535,0.0170812,-0.156519,-0.242645,-0.226607,-0.106229,0.032736,-0.0203011,-0.0606625,-0.0575855,-0.0393053,-0.386852,0.0990855,-0.211747,-0.342691,-0.0158629,0.0887313,0.149737,-0.0125103,0.0111145,0.124131,0.197578,0.0968414,-0.107201,-0.11268,0.0389357,0.00951017,0.138155,0.31038,0.105611,0.115916,-0.233502
shirataki	0.0369011,-0.0613325,-0.0409151,-0.0642624,0.1015,-0.0769027,-0.202627,0.148967,0.0934807,-0.166561,0.338275,-0.11544,-0.0290333,0.169299,0.135635,0.0724794,0.0158669,-0.206664,0.116218,0.169436,-0.294688,-0.133146,-0.10076,0.052807,-0.00917923,0.0225669,0.00686131,-0.101281,-0.213859,-0.0367094,0.0467704,0.165005,-0.0986345,0.00129881,0.186421,0.0815485,0.186724,0.220824,0.187626,-0.0455995,0.0555486,0.0467895,0.118958,-0.0248779,-0.10239,0.157489,-0.110494,0.105519,0.306845,-0.239288
vodka	-0.121792,0.0625607,0.00190699,-0.0262024,-0.0849591,0.0910362,0.012158,0.00429261,0.0572397,-0.078306,0.367357,0.284461,0.0205768,-0.00746463,-0.089504,0.084427,0.204985,-0.0686847,0.0586038,0.087071,-0.0503119,0.00724988,0.310288,-0.0255316,0.0931619,0.141368,0.227025,-0.106954,0.00890791,0.0181481,-0.147336,-0.093388,0.110663,0.118671,0.160873,-0.104151,0.194461,-0.165589,0.355813,0.127326,0.109185,0.0940858,-0.122194,-0.0975686,0.208663,-0.130361,0.157569,-0.13373,-0.0144233,0.156407
honey	-0.00273019,0.0070229,0.10606,-0.214927,0.0950451,0.210397,-0.0831885,0.0450213,0.016808,-0.015399,0.0140499,0.24142,-0.186999,0.120596,0.204261,0.135706,-0.117358,-0.193797,-0.0744382,-0.108749,0.0791758,0.115568,-0.0997169,-0.0714765,0.139567,-0.0980183,0.023609,-0.0498094,0.105379,-0.421088,-0.12238,-0.253227,-0.109215,0.0241072,0.0107782,0.00979097,0.0825884,-0.0633525,0.313214,-0.198511,0.21451,-0.145921,-0.207921,0.038489,-0.0120368,-0.0294673,0.06438,0.0236271,-0.0354846,-0.168883
veggies	0.113293,-0.153337,0.0775737,-0.189208,0.126412,0.0409157,-0.0299938,0.0756436,-0.0307157,0.28985,-0.00905062,-0.151445,-0.268685,-0.0345885,-0.144737,-0.0527353,0.0910762,-0.199704,0.204069,0.264775,0.0277489,-0.0144565,-0.082469,-0.00623491,-0.0804907,0.108442,-0.129749,0.202062,-0.252286,-0.048993,-0.057388,-0.148512,-0.0459345,0.228037,0.0872193,0.237219,-0.141655,0.205425,0.140397,-0.0682697,0.155255,0.118224,-0.0402016,-0.17893,0.00645617,0.107293,-0.129511,0.0808708,0.0471687,-0.209735
cotija	-0.007691,-0.0676164,0.066731,0.0475852,-0.0112017,0.0769337,-0.17154,-0.000522344,-0.116448,-0.0148895,-0.0696808,0.1363,0.208916,0.0113081,-0.0610431,0.0729929,-0.126812,0.103393,-0.14391,0.155283,-0.0991614,-0.0758798,0.0303663,-0.0618869,-0.161111,-0.00791586,0.166828,0.00441563,0.170285,0.0265602,0.0781378,0.28053,0.141853,-0.0806137,-0.3849,0.10525,-0.0608926,0.252226,0.00591188,0.0864189,0.0554046,-0.190394,-0.0255415,-0.193286,-0.156263,0.209357,-0.222276,-0.00856848,0.0251884,0.382696
pinto	0.0314517,-0.044126,0.0333457,0.324879,0.053676,0.198233,0.0868861,0.15207,-0.199699,0.197229,-0.142927,0.115763,0.0772363,0.204408,0.0375682,-0.0661391,-0.0568524,0.100576,0.205866,-0.0905736,-0.103226,-0.0626798,-0.0813287,0.000518076,-0.112844,0.0291892,0.198734,0.21571,0.0233661,0.0921725,-0.00204622,0.0102323,0.0827029,0.00256361,-0.421977,-0.0156277,-0.171197,-0.0879684,-0.250081,0.0238772,-0.0590515,-0.0422511,0.187138,-0.0947062,-0.184324,0.101026,0.0329845,0.0691763,0.0717981,0.260256
crystallized	0.042484,-0.0841077,-0.0404893,-0.119817,0.021798,0.192214,0.0360208,0.164374,0.356115,-0.0920153,0.159235,-0.140948,-0.26372,0.0212882,-0.000113826,0.180927,-0.0393094,-0.057244,0.0505563,-0.00464411,0.0798787,0.310967,0.0396597,-0.336769,0.199704,-0.00547878,-0.0100625,-0.0618423,0.0682226,-0.312422,-0.188505,-0.0267336,0.056281,0.0215593,0.0517744,-0.123967,-0.0782946,0.0908391,0.125468,0.116727,-0.0252282,-0.206651,0.0188955,0.0341816,0.141338,-0.0689451,0.0847953,-0.145359,-0.189276,-0.138416
hog	-0.0147678,0.0576025,0.380532,0.0777939,-0.0521099,0.0868397,-0.161946,-0.351745,-0.0667256,0.119621,-0.0467974,0.016657,0.148253,-0.00434269,0.159726,-0.181083,0.0771612,0.139736,0.320978,0.036736,-0.119116,0.10528,-0.0282351,0.0507219,0.136099,0.136518,-0.0048337,0.0688502,-0.113576,-0.0053985,-0.181538,0.0221557,0.00456981,-0.0718439,-0.0205856,0.105466,-0.150726,-0.0846648,0.101009,0.180556,0.269283,-0.0242378,0.139699,-0.103032,0.0604179,0.0645741,-0.138887,0.0657433,-0.327222,-0.0769011
chanterelle	0.23052,-0.198903,0.209256,0.126236,-0.102609,0.0410872,-0.00433725,-0.0394299,0.0921439,-0.194143,0.0210859,0.205259,0.0046977,-0.117382,0.0871251,0.192018,0.0629929,-0.269638,0.0663101,0.0446435,0.256219,-0.0563694,0.310614,0.0201235,0.183524,0.0726864,0.0744623,-0.251476,-0.23856,0.153986,-0.176167,0.123497,-0.102959,0.0181274,0.156406,0.0496845,-0.0745805,-0.0431386,-0.142628,0.0844926,-0.0576092,0.0967862,-0.0991004,0.0760008,0.186368,-0.0416288,-0.0239616,0.155509,0.191049,-0.0675281
nuts	-0.147359,-0.103935,0.0569996,-0.0834681,-0.214114,0.0990666,-0.0101656,-0.0957344,-0.174289,0.122574,-0.208255,-0.197957,-0.30326,0.115171,0.121057,0.194994,0.0524196,0.210596,-0.0446973,-0.149675,-0.141901,0.0962009,0.144971,0.127406,0.222351,-0.183321,-0.0329588,-0.074106,-0.163491,0.0534406,-0.00933742,-0.0186038,0.0380543,-0.281986,0.0316196,0.0588748,0.116195,0.0686808,-0.0241945,0.0800146,0.15488,-0.271727,-0.119345,-0.0723218,0.0200116,0.0910163,0.157145,-0.0955146,0.0214991,-0.278914
confit	-0.0924126,-0.0189869,0.292956,-0.0177667,0.251619,0.0950495,-0.154987,-0.159694,0.108162,-0.19467,-0.132373,0.13253,0.0512092,-0.334464,0.0274402,0.0183234,-0.229399,-0.178897,0.00616503,-0.179494,0.0195331,-0.0439715,-0.0838116,0.0367731,-0.0255451,-0.119091,-0.0779032,-0.0804593,-0.0410192,0.0759437,0.0175374,-0.0760439,-0.103322,-0.175672,-0.0581627,-0.00878275,0.0108908,-0.130153,-0.325748,-0.197182,0.163161,0.0947035,-0.107218,0.208357,-0.03706,0.0818097,0.125958,-0.0359715,-0.282823,-0.107596
machine	-0.0449541,-0.387198,0.0871162,-0.175874,0.13947,0.121674,0.21616,-0.0178227,0.415299,-0.000331219,0.0679405,-0.112535,-0.162558,-0.215184,0.179922,0.0424886,0.0414324,0.146478,-0.00275926,-0.0137283,-0.125721,-0.0249842,0.0664105,-0.0790759,0.00279971,0.242526,0.0779394,0.105056,0.00715609,-0.100296,0.0630868,0.030556,-0.072738,0.0141704,0.138386,0.126284,-0.083357,-0.214868,0.0456629,0.0166641,-0.0333249,-0.00584234,0.0224782,0.177562,0.180387,0.0260974,-0.156343,-0.0273054,0.00288622,0.320139
hot	0.0230201,0.0623256,0.0336509,-0.0931733,-0.16512,0.0885179,-0.0291083,-0.339214,-0.266145,0.0736775,-0.054152,-0.10575,0.093178,0.0650327,0.274666,-0.20034,0.233625,-0.107703,0.00691841,0.139763,0.0143961,0.0554973,-0.105292,-0.291028,-0.0777481,-0.0459322,0.123479,-0.0225204,0.00458212,0.118959,0.24407,-0.225738,0.13045,0.00483005,-0.0345197,-0.206724,0.0870007,-0.0713297,0.0846862,0.0821637,0.0817919,0.186078,0.298793,-0.0497302,-0.114609,0.194539,-0.0057854,0.0775532,-0.016136,0.0674562
piecrust	0.0757915,-0.302971,0.315941,-0.0293566,0.218852,0.0051201,-0.145667,0.134349,0.0715706,0.0390974,0.219518,-0.182482,0.0235781,-0.0773367,-0.122104,0.0661224,0.163596,0.0655273,0.119868,-0.117781,-0.0069496,0.141418,0.0220532,-0.317127,-0.0787767,-0.0455111,0.0101105,0.0724769,-0.0411418,-0.244466,-0.059949,-0.0622535,0.2013,-0.138784,-0.0101684,-0.169352,0.082094,-0.0160552,0.0885004,0.0546999,-0.231322,0.0800188,-0.110633,-0.0311056,0.0810005,0.105996,0.0307895,-0.367993,0.0291985,-0.0561614
aminos	-0.072937,-0.0256518,0.0761008,-0.134398,0.21205,-0.0575721,0.0591946,-0.0832063,0.279429,0.177361,0.0606509,-0.0757593,-0.212336,0.178229,0.117468,-0.198367,-0.0443784,-0.208524,-0.0551907,0.0660384,-0.183094,-0.0730609,0.0314278,0.0548822,0.124022,-0.0192659,0.138768,-0.102804,-0.0202115,-0.0517695,0.200831,-0.143146,0.0150225,-0.063747,-0.0812034,0.11307,0.19734,0.106792,0.136545,0.0916538,-0.0143237,0.0903336,-0.110661,-0.364054,-0.129125,0.0671251,0.0689339,0.172345,0.381366,0.0448842
fudge	-0.0185791,-0.283212,-0.175552,-0.145626,0.0131067,0.174164,0.0192263,0.336978,0.213439,0.145563,0.176263,0.0447289,-0.175136,0.0659005,-0.336422,0.162882,-0.0564689,-0.0179941,0.167821,0.0199673,-0.0862055,0.160663,0.0176838,-0.0869259,-0.0520775,0.0843208,0.113609,0.0282133,0.21879,0.00645557,-0.105898,0.0579034,0.227672,-0.0452497,0.0768112,-0.0520197,0.108131,-0.0355983,0.154608,-0.0369282,-0.207303,0.19503,0.113565,-0.16342,-0.15548,0.0884857,-0.0223677,-0.167108,-0.0793103,0.0348217
kewpie	0.11262,-0.224856,-0.071304,-0.226452,-0.0104927,0.0221199,-0.123002,0.0905927,0.111918,-0.0176901,0.210953,0.0391238,0.107429,0.232105,0.24074,0.040225,-0.195302,-0.159723,-0.117527,0.0468204,-0.0297291,-0.0930863,-0.0922807,-0.144135,-0.211728,0.141028,-0.283374,-0.0136354,0.09375,0.0851165,0.0660542,0.00490197,0.158532,0.00980701,0.267474,-0.0931451,0.157334,0.182068,0.130503,0.152586,-0.191712,-0.0208368,-0.0181969,0.00678998,-0.094357,0.154927,-0.239728,0.208754,-0.0717041,-0.0902844
applewood	0.0579611,-0.0773595,0.20108,0.230804,0.0312192,-0.0958778,-0.000741318,-0.204849,-0.204421,-0.144805,-0.0623734,-0.0405626,0.393723,0.0974963,-0.0403965,0.192123,0.0830657,-0.0211161,0.109822,-0.195095,0.167316,0.0892367,-0.10703,0.106054,-0.0507232,0.0831719,-0.132141,0.0910202,0.129811,0.293291,0.0939235,0.0491456,0.136029,-0.10131,0.000791152,-0.231318,0.109381,-0.0224337,-0.264887,0.121309,0.0796069,-0.018164,0.0779407,-0.068001,0.159762,-0.0285207,-0.251369,0.102831,0.0434501,-0.0949381
pizza	0.0207719,-0.158483,0.0416535,0.0579676,-0.0314929,-0.124131,-0.201489,0.0359953,0.111657,0.026624,-0.099687,0.0266966,-0.228283,-0.103366,0.0245581,0.0551013,0.369626,0.160078,-0.0848756,0.175636,0.0852324,0.165781,0.0263042,0.0746033,0.0271278,0.189262,0.331318,-0.0408438,-0.111192,-0.164813,-0.0237257,0.0220228,-0.0106539,0.136302,-0.013363,0.0914657,0.023584,-0.0715397,-0.173258,-0.212215,0.0137628,0.233518,0.087587,0.188334,-0.126192,0.0324944,-0.362004,0.0260747,0.180985,0.0602937
parsnips	-0.0521444,0.158848,0.202819,0.0082092,0.33037,-0.175716,-0.017042,-0.0934295,0.054869,-0.242871,-0.138173,-0.152782,0.270488,-0.0030512,0.124239,-0.0246657,0.0341718,-0.168804,0.168959,-0.368752,0.176806,0.0595317,-0.134059,0.0225209,-0.123384,0.149312,0.0754875,0.0426078,-0.0231765,-0.0166511,-0.137575,0.0379328,0.179692,0.0823826,-0.0438642,-0.00706008,-0.0576623,0.160699,-0.190661,-0.020802,0.141434,-0.0848536,-0.114986,-0.0504211,0.0269707,0.0842002,0.072498,0.0390279,-0.0547833,-0.326996
lan	0.168957,0.0730203,0.0241231,0.109121,0.119448,0.00711022,0.0155432,-0.0149682,0.00469061,-0.0202753,0.285675,0.105661,-0.117042,0.107021,0.0773611,0.0615664,-0.0365226,-0.231888,-0.139669,0.300025,-0.229691,0.0167282,0.19479,0.159315,-0.012621,-0.126118,0.00751788,-0.131444,-0.196286,-0.0983594,0.238378,-0.0605225,-0.157115,-0.222964,0.0664315,0.132055,-0.20894,-0.207057,0.182638,-0.0555107,0.163775,0.192752,0.196354,-0.15434,-0.0334905,0.101239,-0.0493317,0.112182,0.101906,-0.0727479
chestnuts	0.141769,0.0954386,-0.0245183,-0.181489,0.0574004,0.265941,-0.09587,-0.0465836,-0.0547573,-0.166337,-0.0987448,-0.128787,-0.0709276,-0.0172886,-0.201149,-0.1223,0.012376,-0.0899294,-0.00705466,0.126735,-0.169227,0.0735788,0.0833736,-0.0205029,-0.0291331,-0.237837,0.0705238,-0.197523,-0.23529,-0.0318575,-0.0547013,0.0440114,-0.143278,-0.101567,-0.00462177,-0.0775535,0.053801,-0.307506,-0.0778065,-0.0175549,-0.0967197,-0.13749,0.201384,0.0651196,-0.147439,-0.087978,0.168968,0.061681,0.153911,-0.454274
lump	-0.0461225,-0.101684,0.147678,-0.0808617,-0.293167,0.0309681,-0.00534948,-0.287335,-0.0995488,-0.0272871,0.0105713,-0.0555414,0.128855,0.0583319,0.00858507,-0.0192402,0.0676523,-0.189857,-0.159275,0.161416,0.201457,-0.324234,-0.00334893,-0.190226,-0.34028,-0.0188523,0.175488,-0.083013,0.306312,0.189381,0.0697819,0.098792,-0.00168294,0.036172,-0.0280994,-0.160118,0.000935911,0.058809,-0.00494145,0.0923121,-0.280729,0.0133079,-0.031132,0.14258,0.0974612,-0.0776065,-0.0049809,-0.119734,-0.0322755,-0.111019
salsa	0.0938966,-0.0320557,-0.134871,0.241149,-0.0451927,0.208248,-0.215523,0.242228,-0.23028,0.00605515,-0.211212,0.0975474,-0.0406789,0.142247,-0.135322,-0.00942225,0.191959,0.0887016,0.0467602,-0.00131688,0.0438466,-0.097551,-0.141485,-0.146598,-0.119815,0.107791,0.133623,-0.0199095,0.0345765,-0.0541379,0.116785,0.0889242,0.113233,-0.0269716,-0.309543,0.239198,-0.104282,0.0700362,-0.0958858,-0.153042,-0.0562897,-0.081815,-0.00221084,-0.152282,-0.245243,0.15031,-0.215316,0.0670593,-0.00928111,0.253636
chilled	0.0402886,-0.155649,0.192589,-0.00701124,0.142141,-0.147121,0.0633345,-0.0841513,0.0908633,-0.104561,0.366137,0.199992,-0.0940084,0.0509025,-0.055671,0.144395,-0.00416362,0.0364065,0.0306031,-0.103031,-0.151718,0.0225759,0.22161,-0.150609,-0.0139999,0.0699663,0.232693,-0.0841127,0.0716244,0.0335194,-0.0368606,-0.0526274,-0.14271,0.0837251,-0.103605,0.0313593,0.330774,-0.0468031,0.169318,-0.0355736,-0.139638,-0.027879,-0.163498,0.0489832,0.203436,-0.165341,0.017728,-0.393915,0.0690517,0.107363
jaggery	-0.0304522,0.0819352,0.130647,-0.185999,-0.0582643,-0.158892,0.21737,0.0716138,0.35702,0.117157,-0.0026359,-0.228712,-0.0866245,-0.0421834,0.0388741,0.180024,-0.0729492,0.155645,-0.175174,-0.0351835,-0.260413,-0.106292,-0.221016,0.0792972,0.0396043,0.0189362,-0.0548892,0.119845,-0.0368867,0.0601868,-0.151087,-0.256899,0.0561256,-0.124368,-0.124131,0.0574778,-0.0240616,0.270732,0.284736,0.218622,-0.0219618,-0.0651686,-0.0818655,0.0181288,0.0611007,0.103575,0.172096,0.124223,0.0379629,-0.0367671
greek	-0.181763,0.104771,-0.251587,-0.0313401,-0.01357,-0.120103,-0.0183479,-0.00274807,-0.0714602,-0.0693989,-0.231112,0.0831048,0.0135368,-0.0579603,0.0994721,0.0258056,-0.0513764,0.186408,0.136312,-0.373277,0.00613754,0.118179,0.131655,0.106762,-0.197389,-0.0255648,-0.0452363,0.236642,0.0742058,-0.278051,-0.0800643,-0.0974477,-0.137719,0.175397,-0.0535308,0.0509167,0.0260942,-0.232631,0.109352,-0.200854,-0.242852,-0.0140693,-0.161394,0.164275,0.0107196,-0.0793273,-0.123835,0.0321916,-0.193844,0.152089
green	-0.103792,0.333913,0.0257773,-0.152338,-0.383308,0.100645,0.0968866,-0.0229289,-0.292501,-0.0503843,-0.252223,-0.136519,-0.031327,0.0272399,0.0934938,-0.0582422,0.16375,-0.0710726,0.122369,0.0725989,-0.0616505,-0.0453967,-0.286565,-0.0425741,-0.072937,-0.146586,-0.0431721,0.0769859,-0.154587,0.215379,0.0705016,-0.101523,0.0402841,-0.0572878,0.0801972,0.0312956,0.13999,0.0291097,-0.135569,0.163813,0.0828419,0.202559,0.0376456,-0.0447402,-0.12973,0.0192694,-0.0358824,0.023131,0.291345,0.0861959
oysters	0.165057,-0.0434782,0.227931,-0.129789,-0.116633,-0.13991,0.168291,-0.115808,-0.0444458,-0.223095,0.190699,-0.221527,0.0197419,-0.0328888,0.111873,0.01271,-0.0671548,-0.212202,-0.0844904,0.0554134,0.0577,-0.178098,0.103861,-0.105543,-0.160558,-0.109764,0.231672,-0.165404,0.275608,0.253829,0.0375287,0.0835277,-0.00910993,-0.227126,0.0526741,-0.10693,-0.0989911,0.040177,0.013989,0.185573,-0.0518319,0.136371,0.335433,0.179911,-0.0216515,-0.0339778,0.0127441,0.0859368,-0.045108,0.0465771
wing	-0.0094794,-0.0808189,0.0725558,-0.214961,0.223795,0.058669,0.0536516,0.12982,0.145388,0.139112,0.120547,-0.197889,-0.132483,0.0338334,-0.119076,0.141449,-0.126676,-0.291694,-0.0811715,0.0585387,-0.258544,0.0328081,-0.0570745,-0.140296,-0.0786783,0.132737,-0.069085,-0.0996992,0.115408,-0.13513,-0.125603,-0.181007,-0.20292,-0.0910672,0.0228088,-0.164088,0.179515,-0.0762769,0.185545,0.138517,0.0245327,0.0110527,0.122236,-0.16755,-0.320112,0.122708,-0.102122,0.211758,-0.106546,0.066861
wine	0.0614846,0.334676,0.0387433,-0.108999,-0.10491,-0.0467449,0.0186022,-0.054984,-0.0582801,-0.114169,0.0432641,0.0275052,0.161355,-0.13199,0.220446,0.158915,-0.146232,-0.0832404,0.116709,-0.0742574,0.10663,-0.061354,0.263106,0.0655303,0.0197598,0.0900787,-0.0663467,-0.314369,-0.25025,0.0742689,0.0657169,0.0557528,-0.156758,0.0414416,0.105476,0.0836124,0.026742,-0.435857,-0.254444,-0.0258566,0.0246827,0.0440537,0.019563,0.127455,0.0731992,0.0700115,0.0179638,0.135787,-0.102909,-0.187634
banger	-0.160057,-0.310732,0.214734,0.0247759,0.239251,-0.144631,0.133635,-0.117331,-0.00315106,-0.256799,0.236986,-0.194174,-0.0473656,-0.0630543,-0.046878,0.0826671,-0.00700041,0.0038244,0.221758,-0.0771251,0.0306803,0.0730654,0.0508547,-0.0850436,-0.145166,0.236735,-0.105081,0.118311,-0.0509508,-0.240605,-0.188737,-0.0496403,0.0552083,0.0555655,0.135639,-0.046115,-0.222055,0.00886384,0.00331214,-0.0326225,0.140157,0.115821,0.0990571,-0.0348801,0.0712529,0.293445,-0.0347232,-0.131258,-0.201377,-0.0533538
muffin	0.140397,-0.407199,-0.0919118,-0.0826596,-0.025259,0.235055,0.0181892,0.266355,-0.137082,0.0660799,-0.0108834,-0.118526,-0.136917,0.22176,-0.223837,0.186862,0.0120517,0.0890464,0.13564,0.0190492,-0.0627071,0.0463531,-0.148844,-0.0955435,-0.221459,-0.103046,0.0203022,0.157703,0.124439,-0.0843593,-0.00257087,0.167584,0.223336,-0.057402,0.0598903,-0.156579,0.0161669,-0.128406,-0.0365376,0.038733,-0.0574606,0.120583,0.171545,-0.131898,-0.0641658,-0.247558,-0.107424,-0.0126028,-0.0155543,0.197623
roquefort	-0.0999375,-0.363565,0.0758833,-0.103416,0.019473,-0.0808626,-0.0736974,-0.0952778,-0.0463136,-0.016507,0.212909,0.171043,0.178228,-0.244,-0.148841,0.0597644,0.0262126,-0.0430694,0.126942,-0.180916,0.334385,-0.0340653,-0.0560739,-0.190851,0.0118735,0.0941746,0.120515,-0.22891,-0.120265,-0.0393965,-0.198282,0.0544491,0.107797,-0.0075889,0.173159,0.0313077,-0.104827,-0.0555235,-0.121479,-0.14843,-0.268383,0.068885,-0.236721,0.0998172,0.00499932,-0.0358305,-0.142322,0.13215,-0.0901821,-0.0657689
crumbs	0.270213,-0.171974,-0.104133,-0.0640824,-0.191103,-0.0941176,0.0667457,0.0289144,0.0244335,-0.0829138,0.142837,-0.213632,0.0874409,-0.165073,0.204573,0.0194147,0.0512884,0.336505,0.0257926,-0.0658327,0.122573,-0.0160524,-0.0848008,-0.295898,-0.137135,0.0492256,-0.110876,0.0173054,0.0867393,-0.174954,0.106027,0.175574,-0.0839443,0.0698945,0.277969,0.122453,-0.097373,-0.296791,-0.180314,0.0208828,-0.128511,0.0437628,0.0556975,-0.0530872,0.0876684,-0.0519372,0.0346903,0.13844,-0.202196,0.0744541
caster	-0.188936,-0.139527,-0.161646,-0.276964,0.13599,0.0896284,0.139305,0.00387884,0.123932,-0.00938597,-0.0780601,-0.0265825,-0.415748,-0.00816615,-0.095417,0.00186584,-0.20512,-0.111885,0.0689421,0.0373802,-0.186885,-0.0307294,0.0746938,-0.172871,0.0721241,0.0899192,-0.292483,-0.266864,0.0595341,-0.0988737,0.0431063,-0.162473,-0.209138,0.0479744,0.0583967,0.0349147,-0.0172591,0.0422412,0.0805398,0.0340957,-0.0529805,-0.194852,0.00867852,0.0665626,0.21304,0.232865,0.0777877,-0.0310428,0.0482263,-0.182879
saigon	0.070417,-0.061699,0.337094,0.0777655,0.0975078,-0.200782,0.0312734,0.047332,0.191122,0.0223252,0.136613,-0.121161,-0.0559093,0.0378284,0.0508298,0.277857,-0.0798021,-0.081884,0.00982799,-0.110854,-0.133623,0.0673178,0.0687509,-0.24996,-0.133178,-0.00591142,-0.154929,-0.080706,0.135083,-0.177925,-0.164867,-0.364442,0.0812011,-0.2203,-0.0920136,-0.0993191,-0.0581032,0.0673643,0.0270394,0.167785,0.0771011,-0.0180328,-0.0552437,-0.19799,0.0501154,0.0273609,0.0983707,-0.335636,0.00702491,-0.0783827
chihuahua	0.116958,-0.140665,0.209595,0.209613,-0.147418,0.129212,-0.191441,0.0713915,-0.160093,-0.127436,-0.00134375,0.201583,0.148787,0.0474884,0.120489,0.28375,-0.00215171,0.133478,0.0267359,0.0901883,-0.130025,-0.0977544,0.00973804,0.0628615,-0.0288249,-0.0135332,0.0434023,0.073717,0.078654,0.101089,-0.0193666,0.153055,0.122184,-0.0272905,-0.294201,-0.104874,-0.111536,0.321932,-0.0475018,0.19754,0.0914651,-0.0252689,-0.139456,-0.198885,-0.193775,0.0529542,0.0410393,-0.0828281,-0.120684,0.297975
plantains	0.143112,0.0730675,0.443642,0.135913,0.0388001,0.0449544,0.0592563,0.0193436,0.241341,0.167679,-0.147654,-0.0135859,0.148286,-0.083436,0.247462,-0.00718071,-0.132158,0.074457,0.13454,0.259211,-0.0478036,-0.109515,-0.149503,-0.106716,0.177495,0.0386694,0.0872448,0.0637863,0.104328,0.102766,0.0815147,-0.135314,-0.00140712,-0.131035,-0.25496,0.082824,-0.135461,0.0101466,0.174645,-0.0249332,0.0509461,-0.174233,-0.0412754,0.0276217,-0.117371,-0.00656007,0.244194,-0.184337,-0.1318,0.0816083
avocado	-0.186772,-0.0480299,-0.0197743,0.172654,-0.129429,0.127682,-0.233724,0.0457898,-0.187702,0.0809224,-0.253184,0.197758,0.0738079,0.109174,0.0196166,0.154098,-0.132355,0.0252808,-0.0831642,0.0186521,-0.0841068,0.0237187,-0.0965289,-0.0258554,-0.131833,-0.0685075,0.143184,0.00693697,0.150106,0.0413018,0.0233557,0.209832,-0.0979472,-0.0946515,-0.318534,0.127348,0.117614,0.0869297,-0.00293652,-0.0604207,-0.0996173,-0.161994,-0.00732212,-0.244827,-0.142931,0.149462,-0.157764,0.0131551,0.218345,0.359047
imo	0.044725,-0.116052,-0.0305978,-0.163069,0.00538041,-0.0658369,-0.0405584,0.153934,0.174901,-0.115632,0.255157,-0.113954,-0.0113387,0.183683,0.182012,-0.00321294,-0.104838,-0.165782,0.0551394,0.00603225,-0.351053,-0.0604568,0.0271107,0.146425,-0.0954026,0.0564867,-0.0130934,-0.113611,0.00532665,-0.093145,0.153689,0.00560144,0.0344313,-0.213778,0.123803,-0.0332819,0.290042,0.0905076,0.361278,0.173124,0.127841,-0.197513,-0.0775456,0.0650242,0.0614798,0.205357,-0.163526,0.0686705,0.0735463,-0.159215
fig	-0.0547966,-0.245582,0.0443712,0.131813,-0.0167304,0.0715752,0.161082,-0.0741271,0.262072,-0.120586,-0.0135054,0.185812,-0.279117,-0.161294,0.145858,0.0682406,-0.0120459,0.0709939,0.245194,-0.11984,0.272069,0.12726,0.0951331,-0.00604553,0.22413,0.146547,0.0380756,-0.222593,0.145585,0.0202315,-0.212103,-0.120799,-0.119176,-0.0655192,0.0479549,-0.0828522,-0.0627465,-0.155056,-0.0131032,-0.136297,0.0896971,-0.0777476,-0.112751,0.24693,0.114912,-0.0237151,-0.0551255,0.0804902,-0.192825,-0.164983
savory	-0.0630333,0.0490537,0.2739,-0.190683,0.214323,-0.132754,0.140034,-0.0624975,0.0877737,-0.304577,0.179933,0.00554658,-0.0104378,-0.219705,0.276656,-0.0354662,-0.0678184,-0.0662373,0.0556266,-0.220747,0.0817312,-0.00255675,-0.00125704,0.178904,0.0483767,0.128191,0.145536,0.041554,0.0691737,-0.00176175,0.228849,0.190516,-0.00337349,0.0618606,-0.0259074,0.0425245,-0.189498,-0.0231802,-0.182434,0.106656,0.194404,0.0528067,-0.287526,0.0733965,0.0315278,-0.0863182,-0.000461929,0.109291,-0.249868,0.0508435
hidden	-0.0930454,-0.173765,-0.243501,-0.0167336,-0.0889787,-0.0275267,0.101104,0.272948,-0.169011,0.194774,-0.0332824,0.0109065,0.0639442,-0.0619583,-0.127291,0.255238,-0.0881024,-0.00379895,-0.0185759,-0.00517464,0.00189149,0.117595,-0.192218,-0.0400792,-0.303113,0.0510134,0.036498,0.161015,0.213271,0.103031,-0.0128985,0.0266504,0.125414,-0.107296,-0.110678,-0.143746,0.135259,-0.0784853,-0.0614126,-0.0229251,0.0775717,0.285961,-0.125709,-0.29732,-0.147747,0.173936,-0.166707,-0.0451666,0.104019,0.195679
fregola	-0.0468291,-0.0460839,0.0102065,-0.218539,0.0708201,-0.0360786,0.0987984,-0.223982,0.0933208,-0.196644,0.230419,0.245419,0.119135,-0.0244086,0.116195,0.135495,0.0705778,0.144718,0.176652,-0.0720688,0.18264,0.0969716,0.261003,-0.179981,0.0182582,0.0367259,0.307037,-0.184947,-0.00981614,0.26923,-0.114371,0.0515812,-0.233362,0.0441463,-0.0276112,-0.0410517,0.0668368,-0.119207,0.0646968,-0.236969,-0.0882543,-0.0493264,-0.195888,0.12858,0.117928,-0.0525539,-0.15019,-0.0731255,-0.0455152,-0.0222982
split	-0.0946633,0.202214,0.0789385,-0.0550051,0.0706813,-0.199092,0.163264,-0.0263852,0.201275,-0.0263053,-0.175315,-0.384471,0.0121733,0.0464181,0.000369145,0.0100466,-0.134004,0.0979118,-0.0180342,0.101791,-0.0935082,-0.0990274,-0.0907296,0.239339,-0.046029,-0.011494,-0.0456623,0.35882,0.0928911,0.138202,-0.306218,-0.133912,-0.105337,0.00147406,-0.0713973,-0.00208139,-0.0794955,0.1898,-0.275235,-0.0262978,-0.139083,-0.161885,-0.0487086,-0.022241,0.0793462,5.71516e-05,-0.0457059,0.234998,0.0628899,-0.0309864
coffee	0.0230464,-0.00479769,-0.0498804,0.344279,-0.0115066,0.191367,-0.0692796,0.186328,0.219818,0.122232,0.00425482,-0.151871,-0.0683946,0.113998,-0.0535244,0.043654,0.198312,-0.0895556,0.187153,0.114881,-0.214328,-0.0428741,0.183636,-0.138393,0.252117,0.0456232,0.0683498,0.0221345,0.213193,0.18378,-0.15143,-0.0321353,0.0662215,0.0559855,0.0151708,-0.134208,0.0309791,-0.0503894,0.110382,0.0345921,-0.0900615,0.242945,0.0813524,-0.0317424,0.10934,0.0863487,0.241269,-0.0787359,-0.328986,-0.117045
runny	-0.0736877,0.0396217,0.0742454,-0.118089,0.18265,-0.0403491,0.129031,0.14505,0.219914,0.00337743,0.176145,-0.00567543,-0.0696337,-0.134339,0.0866988,0.100488,-0.146998,-0.164448,-0.212453,-0.164177,-0.142838,0.017816,0.00606721,0.0642468,0.0739582,0.219381,-0.0317732,-0.160584,0.0483931,-0.388826,0.146519,-0.285768,-0.193212,-0.11164,-0.152178,0.154848,-0.062681,0.105527,0.0203133,0.0194759,0.137812,-0.0464776,-0.187672,0.0536022,0.18816,0.0667288,-0.0631351,0.0958164,0.0999148,-0.251401
glazed	0.102917,-0.389765,0.151216,-0.112507,0.165974,0.240389,0.0441273,-0.0322548,0.308614,0.0779122,0.230534,-0.00905395,-0.226278,-0.14841,-0.0604731,0.179355,-0.187532,-0.0220225,-0.0856761,-0.165993,0.00326285,0.230208,0.0976929,-0.275118,-0.0331281,-0.0212039,0.129061,0.0154085,0.0343474,-0.0619187,-0.0605221,-0.20297,0.000724952,-0.15168,-0.00394545,-0.151622,-0.102615,-0.074629,0.0748711,0.0994873,-0.0409876,0.120877,0.161573,0.0430458,-0.185458,0.0394872,-0.0489138,-0.00391116,0.0374207,-0.106409
silver	-0.155777,-0.309376,0.197866,-0.173323,-0.0367502,0.111372,0.0215282,0.166638,0.163951,-0.00900697,0.0598397,0.0774299,-0.160965,-0.105471,-0.180421,0.0671254,-0.109348,0.271066,0.0908358,0.0244571,-0.192066,0.0350365,0.147906,-0.109777,0.0610822,0.133009,-0.00606063,-0.154139,0.0776235,0.0770679,-0.0385894,-0.137554,0.0706251,-0.0849941,-0.0821459,-0.0747186,0.252845,0.166864,0.266921,0.164275,-0.0493181,0.10981,-0.00543547,-0.151086,-0.051712,0.0864178,0.149419,-0.330949,-0.0548291,0.131891
bread	-0.0925627,-0.0343894,0.0280081,-0.0956122,0.178851,0.0758687,-0.0608479,-0.268085,-0.00457644,0.162445,0.00631261,0.0145374,-0.0556045,-0.278831,-0.00691452,0.153187,-0.0780419,0.0356818,0.144714,0.0313186,0.219385,-0.0608694,0.0328626,-0.399705,-0.1453,-0.103549,-0.0873195,0.161174,0.000199327,0.0931309,-0.128127,0.194636,-0.13909,0.0480908,0.141949,-0.0951101,-0.161537,0.013,-0.0966031,-0.203902,0.035991,0.0400608,-0.0473184,0.310277,0.181071,-0.0694614,-0.168631,0.045427,-0.24807,0.0808261
crock	0.0995275,-0.239593,0.329261,0.106634,0.0519087,0.399199,-0.226955,0.209579,-0.132009,0.157652,-0.0647243,0.00869593,0.026441,0.0135634,-0.195619,0.087692,0.0196025,0.0625517,0.059597,0.224186,0.0707335,0.0835833,0.177294,-0.044577,-0.0279297,0.0526772,-0.0322988,-0.0532322,-0.0860032,0.111212,-0.16315,0.137169,0.0821445,-0.0874976,0.0323226,-0.131074,0.200916,0.0275671,-0.0663357,-0.0348821,0.0354482,0.282355,-0.247667,-0.0694607,0.0232698,-0.0317073,-0.172661,-0.0490098,-0.0618779,0.147576
thyme	-0.151051,0.143065,0.206701,0.287875,0.185045,-0.146433,0.139999,-0.0924149,0.0112205,-0.165051,0.159005,-0.0508772,0.267155,-0.0939514,0.157563,-0.155168,0.0895542,-0.0258466,0.153918,-0.141412,0.115593,-0.130236,-0.0912121,0.0726732,-0.0417882,0.180187,0.183065,-0.0506818,0.0339163,0.0857423,0.0699359,-0.0252749,-0.0161843,-0.0797519,0.00815622,-0.234668,-0.206359,-0.276737,-0.279903,0.0358442,-0.0346023,0.0736133,-0.0397292,0.199943,0.167752,0.054672,-0.0434084,0.0455173,-0.19454,0.0258172
potatoes	-0.42378,0.0851889,0.207397,-0.0520418,0.305798,-0.240447,0.0480702,0.0398946,-0.0620462,-0.0642702,-0.0165523,-0.360505,0.155476,-0.0107925,-0.0247394,-0.0108758,0.135886,-0.0571025,0.110271,-0.150114,-0.0796023,-0.0444595,-0.00142463,-0.157757,-0.109888,0.17202,-0.0842752,0.131514,-0.0238158,-0.0503579,-0.122729,0.166673,0.0620426,0.0560167,0.0615079,0.111342,-0.0760689,0.371754,-0.126238,0.0787288,0.12947,-0.126247,-0.0683522,-0.0113024,-0.0278147,-0.0096184,-0.0645,0.031553,-0.0419074,-0.11298
gingerroot	-0.0149566,0.220092,-0.0202024,-0.0407073,-0.121752,0.0237835,-0.00447776,-0.0987929,0.0482297,-0.270382,0.114161,-0.166859,0.189226,0.0035199,0.169119,0.105838,-0.0859172,-0.0692224,-0.0812189,0.218297,-0.0867069,-0.164886,-0.342605,-0.207516,0.0626588,-0.211918,-0.0466874,-0.0513893,-0.0379085,-0.166953,0.0972812,-0.0868178,-0.217452,0.0845599,0.150228,0.21182,0.169718,0.0307273,0.0582418,-0.108664,-0.190225,-0.182505,0.0865347,0.0508008,0.108823,-0.165932,0.216637,0.111492,0.132023,-0.0899113
rosemari	-0.1436,-0.173294,0.135863,0.0769043,-0.0357546,-0.307228,-0.0180752,0.185661,-0.143598,0.0143859,0.130577,-0.00919047,0.0548114,-0.13437,0.00626104,0.0298941,-0.0952034,0.0495886,0.0593129,0.0199544,-0.117798,0.0749791,0.0223713,0.141314,-0.341605,0.172419,-0.0866124,0.155902,-0.0445697,0.0821852,-0.199245,0.0293767,-0.103098,-0.105384,-0.0116212,-0.0176014,0.145952,0.00276455,0.0610004,0.0198687,-0.0859788,0.247159,-0.179173,0.125583,0.0830026,0.24806,-0.219265,-0.0469314,-0.40249,0.0834032
chuck	0.225054,0.199452,-0.0635502,0.0574144,0.211724,-0.0888701,0.275267,-0.24629,-0.106964,-0.0397049,-0.00273971,0.0118362,-0.0800115,-0.218295,0.0901325,-0.00153438,0.0875457,-0.0254336,0.0462183,0.171162,-0.0471422,-0.0491352,-0.0309717,-0.117373,-0.0695142,0.279675,0.0607863,0.0433292,-0.00934451,0.127049,-0.137894,0.0915017,0.273795,0.211059,-0.0883644,0.0167839,-0.0395311,-0.0674875,-0.0594087,0.11718,-0.00803577,-0.184904,-0.000685162,-0.164946,-0.263052,0.333759,0.122031,-0.159569,-0.103684,0.0473791
filling	0.0312191,-0.27707,0.202681,-0.257046,0.101175,0.234415,-0.162204,0.251805,0.0385598,0.243427,0.141239,-0.0782415,-0.230173,-0.280223,0.0332285,-0.0304417,-0.119733,0.113145,0.122287,-0.198347,0.0178329,0.279617,0.0679812,-0.229508,-0.00646576,0.170654,-0.0199798,-0.0276639,-0.0963104,-0.00718394,0.10229,-0.0625032,0.102462,-0.0373055,0.020691,-0.175872,0.0302643,0.169305,0.0715038,0.0865363,-0.135732,-0.00649929,0.00254393,-0.0900574,0.0304511,0.0901174,0.00607567,-0.169669,-0.105835,-0.0866491
roast	-0.0329958,0.170459,-0.0674502,0.138736,0.0684755,-0.00072765,-0.0598028,0.220681,0.10604,0.00164323,0.0323936,0.423641,0.156775,-0.147407,0.218769,0.0770558,-0.0393092,-0.0103326,0.105478,0.189127,-0.0193284,0.0679014,-0.0555328,0.00450432,-0.0350031,-0.114494,-0.221575,0.0992886,0.122465,-0.0148075,-0.0604884,-0.00437003,0.00199164,-0.0895887,-0.0900604,0.104779,-0.0390204,-0.0945036,-0.232699,-0.0954347,0.10217,0.304572,0.391101,-0.166957,-0.0446481,0.0271222,0.0582126,0.0998895,-0.102513,-0.192169
european	-0.153028,-0.0321803,-0.216358,-0.33066,-0.0538474,-0.231848,-0.125796,-0.141392,-0.0712301,-0.13527,0.0764956,0.187004,0.0120775,-0.0136211,0.0717339,0.162074,-0.106792,0.0433584,0.029095,-0.177635,-0.191113,-0.0132975,0.037986,0.0926375,-0.110299,-0.10847,0.0409634,0.0321279,0.257634,-0.0244605,-0.234597,-0.176798,-0.215973,0.125321,-0.0539486,0.191454,0.0538348,0.0276617,0.0803351,-0.0344077,-0.151023,0.19871,-0.136515,0.12115,-0.0770849,0.0482794,-0.185734,-0.00786784,0.0554134,0.322408
rosemary	-0.205353,0.0094343,0.0429804,0.14452,0.147497,-0.137724,-0.00129242,-0.131448,0.0390876,-0.149248,0.120539,0.111926,0.126265,-0.174963,0.17969,-0.0413869,0.0921426,-0.1012,0.0385565,-0.26284,0.0574057,0.0822185,0.085027,0.212873,-0.0413904,0.300138,0.161506,0.0308197,-0.025058,-0.0236795,-0.0272389,0.0775654,-0.0783136,0.0268608,0.128211,0.0311617,-0.147638,-0.353995,-0.332893,-0.0464945,-0.0308169,0.0424246,-0.196346,0.0956883,0.129977,-0.0519253,-0.115053,-0.0839502,-0.289324,0.0922781
meal	0.0440415,-0.0515971,0.0943572,-0.0888934,0.0597941,0.162768,-0.0173442,-0.0674577,-0.0148391,-0.0238148,0.231774,-0.295853,-0.125094,0.117655,-0.0456742,0.130712,-0.0197809,0.195202,-0.110006,0.0259717,-0.0961348,0.160928,0.104166,0.0816528,-0.106444,-0.107289,0.168016,0.0775062,0.0608511,-0.0829842,-0.0649173,0.212603,0.260766,0.0461108,0.0119979,-0.26144,-0.128535,-0.00185333,-0.2188,-0.0212481,0.0842171,-0.199173,-0.106515,-0.0509476,0.00645274,-0.206451,-0.168576,0.245972,-0.101883,0.354723
bone	0.0766549,0.321692,-0.0158652,0.124344,0.208963,0.0235341,0.205327,0.0302201,0.0883033,0.0751391,-0.0524505,0.162252,0.168117,0.252291,0.0366744,0.0473599,0.165454,0.0238502,-0.171827,-0.0803565,-0.0829907,0.0501635,-0.00118892,0.141809,-0.00511128,0.113437,-0.0418022,-0.134367,-0.159313,0.0772128,0.20843,0.00604273,0.177891,-0.212933,0.0203154,-0.0892586,0.137232,0.0178217,0.149782,0.223376,-0.0660065,0.0188548,-0.281815,-0.0347776,0.0665099,0.097699,-0.251558,0.0691186,-0.31999,0.0451941
hanger	-0.00274567,0.038778,0.0559246,-0.069352,0.179014,-0.265046,-0.153366,-0.0639877,0.251268,-0.186758,0.137167,0.204259,-0.0400621,0.223653,0.030358,0.126467,-0.0538033,-0.319636,0.0100295,-0.0637999,0.101786,0.0475239,0.0150443,0.0169099,-0.0272549,-0.0219882,0.0897511,-0.323696,0.293589,0.116888,-0.229478,-0.200002,-0.0191932,0.0962112,0.00649509,-0.0154506,-0.174602,0.0259633,0.026167,-0.149388,-0.0399752,-0.209903,-0.045858,-0.0872159,-0.169894,0.138968,0.0190091,-0.10981,0.0760207,-0.137102
allspice	0.0436209,0.218646,0.247869,0.0726318,0.104528,-0.101495,0.0782665,0.0569123,0.125184,-0.00562412,0.0947029,-0.198432,0.159614,-0.0515125,0.24572,-0.16743,-0.209039,0.0518797,0.233755,0.12104,0.0747327,0.0318401,-0.109012,-0.174779,0.0807529,0.044636,0.0448992,0.18677,0.0646713,-0.318313,-0.0278077,-0.033309,0.0927792,-0.116199,-0.239535,0.0475011,0.069615,-0.0975831,-0.101354,0.0502125,-0.0446535,-0.281979,-0.133951,0.171942,0.0131313,-0.0203498,0.0412025,-0.132922,-0.294336,0.101879
prawn	-0.257307,-0.105324,0.059549,-0.0967662,-0.0777076,-0.00859078,0.188294,0.0193059,0.0857084,-0.0955155,-0.161658,-0.0234268,-0.0920286,-0.179619,-0.211264,0.0115179,-0.0536706,0.0638881,-0.0541241,0.0913645,-0.339815,-0.195198,0.0135244,0.0771522,0.137586,-0.197716,-0.128435,-0.200615,0.0401946,0.027232,0.222617,-0.0419841,-0.302552,-0.117703,0.00899559,0.212064,-0.0525811,0.00336031,0.178939,-0.00233204,-0.0559439,0.134581,0.112469,-0.0185109,0.100523,0.119636,0.0984333,-0.25734,0.221212,-0.155134
adobo	0.0409247,0.18585,-0.0011228,0.317399,0.132055,0.143246,-0.159737,0.0994656,-0.192876,0.286342,-0.0178326,0.204766,0.2281,0.0949462,0.0751879,0.0319964,0.0602668,0.12488,-0.0535884,0.207017,-0.158733,-0.0364139,0.214117,-0.238704,-0.0668401,-0.0327458,0.00982238,0.100657,0.0440877,-0.0396671,0.180702,-0.0198041,0.052668,0.0270527,-0.375949,-0.160707,0.148424,0.0264235,0.121529,-0.0554612,0.0674482,-0.0689368,0.00892491,-0.0342817,0.0191525,0.16495,-0.143926,0.0126207,-0.177783,0.109653
skins	0.212935,-0.20672,0.10008,-0.133609,0.0384295,0.111405,-0.176744,-0.0740331,-0.159646,-0.119185,-0.00657329,-0.0868821,-0.276164,-0.0568351,-0.136015,-0.047912,-0.0262884,-0.299808,0.0482855,-0.0415946,-0.290795,-0.00388821,0.223607,0.0453648,-0.258521,-0.192857,-0.012145,0.0528662,0.00716624,0.131834,-0.00793863,0.161605,-0.14054,0.00740672,0.124536,0.152866,-0.0500479,-0.117094,-0.0193417,-0.0468676,-0.0746364,0.0269692,0.173701,0.0759033,-0.194199,0.0517009,0.225989,-0.122324,0.141677,-0.240477
hanh	0.0671293,-0.206946,0.184439,-0.0862067,0.271525,0.0587822,0.0864045,-0.107339,0.155199,0.143033,0.147339,0.0073509,-0.26602,0.121936,0.248252,-0.074392,-0.00825467,-0.259763,-0.170503,0.170154,-0.296513,-0.0829047,0.0293571,-0.0525004,-0.120545,-0.062562,-0.0893439,-0.0390252,0.0728382,0.0770188,0.107612,0.0815279,-0.0522157,0.0148661,-0.0864654,-0.00512259,0.246571,0.133924,0.00129844,0.197729,0.0646694,0.206854,-0.0429277,-0.153517,0.00270508,0.111122,0.011477,0.119874,0.27709,-0.101241
turnip	0.0197462,-0.0682589,0.207728,0.109147,-0.0514515,-0.00860164,0.0137111,-0.18366,0.162954,0.0821225,0.223832,-0.111132,0.191787,0.178435,-0.0565654,0.0778183,-0.0219163,-0.0233401,-0.0986329,-0.00837572,0.0537588,0.245504,-0.219673,-0.0142032,-0.204244,0.252103,0.037265,0.166078,0.102173,0.0655499,-0.0373559,-0.0923301,-0.149125,-0.0906649,-0.181322,-0.0487806,0.0386231,-0.169895,-0.172275,0.0433033,0.161866,0.159759,0.150182,0.0162263,-0.088144,-0.183959,-0.0379735,0.33207,0.212066,-0.218671
navy	-0.144662,-0.0679758,0.106721,0.177905,0.0514786,-0.04858,0.131691,-0.0675456,-0.194797,0.241869,-0.0727651,0.0668561,0.0366768,0.171038,-0.0512742,-0.0244239,0.105164,0.0110307,0.243222,-0.21734,-0.150006,0.0473465,-0.0360472,0.163557,-0.13626,0.164666,0.265003,0.185073,-0.101045,0.269897,-0.0292247,0.0731551,0.0123605,0.0103483,-0.0830443,-0.105692,-0.0100128,-0.176618,-0.449991,-0.164278,-0.0636831,0.127366,-0.0843426,0.0121705,0.0473995,-0.174837,0.0586697,0.0547636,-0.0934717,0.0063533
extract	-0.000464875,-0.192302,0.0128328,-0.0761569,0.0873781,0.103725,0.0438972,0.318009,0.284503,0.0913389,0.126492,-0.0776821,-0.250434,0.0861192,-0.0524563,0.256124,-0.0440501,0.209007,0.180933,-0.0225667,0.00993589,0.0192519,0.16768,-0.149397,0.191642,-0.0352369,-0.0124398,-0.0317255,0.0551701,-0.194883,0.0204769,0.0488394,0.356142,-0.020037,-0.0807616,-0.178932,0.0169908,-0.213744,0.159866,-0.152086,-0.205578,-0.0901975,0.0576298,0.0566467,0.103243,-0.0658861,0.193207,-0.0522764,-0.00166773,-0.0251924
whip	0.0666478,-0.261562,-0.197455,0.0148854,0.123261,0.0378603,-0.104716,0.165695,0.0369338,0.12808,0.241598,0.0731778,-0.129659,-0.0420774,-0.0847759,0.171609,-0.0998956,0.0218427,0.210759,0.057126,-0.172905,0.130384,-0.125491,-0.106235,0.0438569,0.061392,-0.0956338,-0.0894765,0.134022,0.0626474,-0.233076,0.00121218,0.234751,-0.100806,-0.0227938,-0.20235,0.113793,0.0708619,-0.0761233,-0.109748,-0.453583,0.060423,0.0340327,-0.102017,-0.123814,-0.122437,0.177297,-0.172049,-0.0907826,0.0441915
won	0.042527,-0.140733,0.176669,-0.0261507,-0.0927205,0.147463,-0.386984,-0.0801099,0.00402484,0.0113731,-0.0959577,0.0147232,0.0940758,0.240342,-0.00201831,-0.115662,-0.106521,-0.00465942,0.132522,0.309025,-0.0739196,-0.116283,-0.0871496,-0.159072,-0.169389,-0.124662,-0.046914,0.0361756,-0.215,0.0782178,0.071533,0.308925,-0.197425,0.0677214,0.0108884,-0.00551988,0.106921,-0.134447,-0.114765,0.0373418,-0.130005,0.0290553,-0.0431783,0.217637,-0.0283119,-0.16556,-0.0582974,-0.113173,0.0620935,-0.300702
moisture	0.126179,-0.409696,0.162835,0.0268833,0.113782,0.134702,-0.103916,-0.0984088,-0.0187691,0.0556209,-0.0293496,-0.120669,-0.194914,-0.155946,0.137711,0.0443236,0.110075,0.0555349,0.102694,-0.125032,0.242428,0.128179,0.187406,-0.0142022,0.00814743,0.159667,0.205057,0.0136907,-0.163525,0.155238,0.124566,0.0366524,-0.130456,0.307079,0.170164,0.100581,-0.0651806,-0.0194173,-0.0703115,-0.104305,0.0382852,0.126058,-0.0779779,0.00730237,0.102376,0.0587288,-0.350535,-0.000217264,0.0148972,-0.128668
cassava	0.0253115,-0.235064,0.410062,-0.0640427,0.266464,-0.0634991,0.254068,-0.0312291,-0.0125161,0.0553704,0.0431012,-0.260958,0.0658598,-0.0997183,0.0579427,0.148461,0.0434747,-0.0415751,0.0612008,0.0733986,-0.156225,0.0762798,0.0417842,0.0244748,0.258914,-0.0606708,-0.130927,0.229141,0.0631834,-0.031103,0.112232,-0.247194,0.0941914,0.0734027,0.0891913,0.00341023,0.103894,0.0559532,0.165561,0.135052,0.0983957,0.0393072,0.100414,0.0633693,0.0165421,-0.103271,-0.0617263,-0.348079,0.102916,0.0214294
creole	0.115731,0.0540021,-0.156245,-0.202591,-0.092165,0.00221748,-0.0699386,-0.117369,-0.216845,-0.0879429,0.150531,-0.214484,0.206794,-0.0314451,-0.0794989,-0.242667,0.139636,-0.0365544,-0.142915,-0.088317,0.0321839,0.0371398,-0.0482326,-0.158896,-0.0355949,-0.00724783,0.102735,0.00791268,0.217934,0.0653587,0.0889355,0.00566451,0.196076,0.0596347,-0.213427,-0.311749,-0.0129142,-0.148259,-0.191621,0.00241599,-0.213391,0.26291,0.18431,0.100401,0.125131,0.0808291,-0.243646,0.153332,0.0140864,-0.0202819
grease	0.0293617,-0.202586,0.387725,0.163396,0.128801,-0.0376653,0.0967469,-0.0497084,-0.129952,-0.0434836,0.076815,-0.226247,0.0983687,-0.0230165,0.0609139,-0.0117589,-0.0114089,-0.0719063,0.082047,-0.0115486,0.0449023,0.202166,0.025668,-0.0993785,-0.274747,0.166619,0.0197099,0.0573648,0.196254,-0.0121123,0.16046,-0.0197122,0.199968,-0.219313,0.0622512,-0.311435,-0.118044,-0.00401562,-0.12918,0.00766327,0.0991197,0.153071,0.257356,-0.0906297,-0.0229958,0.0730771,-0.295778,0.0522638,0.00714202,0.0225282
slivered	0.243933,0.0137342,-0.0356447,-0.22984,-0.130473,0.357293,0.0987684,0.093417,0.24501,-0.0284681,-0.212082,0.210554,0.0939359,-0.0140858,-0.0338455,0.0954162,0.1333,0.165142,0.113822,-0.0438364,0.0563557,0.0244858,-0.077775,0.000656088,0.161263,0.0324109,-0.12896,-0.132371,-0.0203154,0.00295015,-0.180654,-0.242664,0.0390463,0.154594,-0.0682001,-0.00225496,-0.00431901,0.175663,0.186388,-0.26503,0.0569271,-0.136447,0.00116941,0.145289,0.044378,-0.244021,0.0449075,0.0563586,-0.122319,-0.200379
carcass	0.0949729,-0.0159693,0.241482,0.106101,0.100186,-0.120348,0.0524937,-0.038278,-0.0721197,-0.217268,0.112472,-0.106366,-0.241395,0.0592165,0.0755688,0.0152302,-0.14672,-0.304358,-0.0997212,0.187495,-0.282784,-0.157595,-0.100761,0.0766878,-0.219491,-0.0560305,0.0735914,0.0976792,-0.0846073,0.296711,0.20445,-0.0600362,0.00990392,-0.0235238,0.220028,0.130164,-0.0650873,-0.0231885,-0.00844005,-0.0142918,0.214247,0.107995,-0.0751688,-0.0954707,0.156976,0.128738,0.148717,-0.0189659,0.0420067,-0.229152
fava	-0.060756,-0.0077734,0.136004,0.0989139,-0.0549051,-0.218628,-0.0137898,-0.142177,0.0109962,-0.0404359,-0.0674821,-0.0913904,-0.0529565,0.267129,0.0706309,-0.00454669,-0.0211789,-0.0122182,0.182872,-0.296642,0.0501406,-0.158699,0.200793,0.121756,-0.116003,0.062722,0.0544352,-0.156796,-0.244507,0.27913,-0.194312,-0.104961,-0.206302,0.213977,-0.199521,0.101091,-0.125196,-0.105191,-0.203629,-0.0558483,0.148811,0.0426279,-0.0562533,-0.0813288,0.184438,-0.237802,0.110972,0.0244886,0.0507232,-0.1309
free	0.139785,-0.000367503,-0.16965,0.14992,-0.106633,0.246283,-0.0783898,0.0417066,-0.0592005,-0.238048,0.0633131,0.212503,0.108572,0.0838291,0.0432777,-0.0836531,0.0242766,0.156574,0.0972863,-0.104383,-0.153632,-0.0971182,-0.169241,-0.0479546,0.0131079,0.0380654,-0.144469,0.216001,-0.149145,0.139169,-0.0755294,-0.17684,-0.130501,0.105283,0.115622,-0.242849,-0.134814,-0.139242,-0.32493,0.047016,0.133754,-0.189501,-0.21998,-0.0875467,0.0554049,-0.24176,0.185403,-0.0570279,0.0165405,-0.00155922
grapes	-0.113231,-0.155427,0.00522825,0.016977,-0.178934,0.0358587,-0.0698214,-0.0690096,0.0724469,-0.175967,0.0467208,0.249038,-0.0112625,-0.0966084,0.112464,0.24734,-0.0850887,0.137449,-0.163313,-0.239611,0.175222,0.149324,0.28167,-0.0350357,0.0590345,0.0253386,0.0413206,-0.0810198,0.158747,0.00836197,-0.300528,-0.306028,0.033217,-0.0932103,-0.0137762,0.0446349,0.211743,-0.241774,0.21386,-0.0822624,0.0783697,-0.0875018,-0.13213,0.0421269,0.0580154,-0.0533244,0.122004,0.0650715,0.129479,0.166582
mullet	-0.183683,-0.0441878,0.233698,-0.105666,-0.00889378,-0.256125,0.0419474,-0.00894692,0.0655787,-0.203826,0.0641317,-0.0529821,0.0521003,0.129863,-0.0290489,0.278906,-0.0893477,-0.0923319,0.08593,-0.122148,-0.192456,-0.148873,0.226886,-0.143828,0.00134292,-0.0480383,0.0453416,-0.149931,0.0499264,0.335179,-0.018396,0.220028,-0.190897,0.0642369,0.0373656,0.140405,0.17794,-0.106051,-0.0548283,0.031665,0.0776749,-0.0490927,-0.231934,0.0975075,0.290374,0.0809474,-0.00676853,0.0978041,0.125532,0.151132
tabasco	-0.163169,0.00588334,0.0530001,0.0940461,-0.0510302,-0.117843,0.0154627,-0.245796,-0.124291,-0.0160164,0.0982177,-0.219085,0.239521,0.0323736,-0.0983754,-0.203901,0.131105,-0.126827,-0.127171,-0.0559378,0.0636971,0.0525499,-0.120187,-0.127287,-0.160562,-0.249615,0.133114,-0.0785267,0.0513032,0.0433686,0.27383,-0.0999297,0.0878088,-0.063264,-0.179984,-0.272444,0.104112,-0.103293,-0.0470584,0.0377356,-0.0322739,0.173133,0.143343,0.0730662,-0.0165723,0.357248,-0.23371,0.052253,0.0172239,0.155219
raisin	0.00121216,-0.184709,0.245826,0.0829834,-0.079357,0.00241214,0.160215,-0.0784231,0.323028,-0.0620069,0.261131,-0.0194101,0.137299,-0.0867095,0.0374154,0.100894,-0.036617,0.00513235,0.260934,-0.0616485,0.0735924,0.0482397,0.0507861,-0.433483,0.135641,0.128611,-0.235375,-0.147136,0.127399,-0.0716786,-0.186471,-0.0477324,0.174445,-0.0337313,-0.00531686,-0.0023099,-0.0888002,-0.178939,0.0573422,-0.00421438,-0.106865,0.0443916,-0.193832,0.132488,0.107216,0.00621528,0.0219695,-0.113965,-0.0711563,-0.174494
soda	-0.167801,-0.15933,-0.0316779,-0.0502622,-0.11595,0.218639,0.213345,0.0441459,0.107329,-0.0122494,0.144644,-0.116576,-0.115987,0.261685,0.064438,0.284753,0.0427212,-0.0841016,0.102221,-0.0948813,-0.0935963,0.312971,0.203804,-0.0860897,0.0352298,-0.0201026,0.0214906,0.119649,0.0275641,-0.318872,0.0303908,-0.0830712,0.217624,-0.0270629,0.0165559,-0.185374,-0.14505,0.0823059,0.170179,-0.0328306,0.241237,-0.0245204,0.195641,0.103759,-0.0685963,-0.131455,0.159535,0.0411817,-0.111412,-0.0142479
chopped	0.0188274,0.19891,0.0351099,0.11351,-0.0319999,-0.00842507,-0.154502,0.0525083,-0.154797,-0.237083,-0.3251,0.0534481,0.144352,0.0823691,0.270349,-0.0309189,0.184297,0.107507,0.197297,0.0785605,0.131409,0.0177881,-0.293935,-0.223839,-0.103085,-0.119049,0.0939352,0.174689,-0.00813712,0.15311,0.0236157,0.030157,-0.108552,-0.00414937,-0.0188969,-0.103049,-0.0660099,0.100502,-0.168773,-0.0510309,-0.19581,0.0286735,-0.0845243,-0.0671256,0.0645941,-0.381352,0.136394,-0.0599598,-0.0286029,0.0477212
tilapia	0.0247636,-0.0395163,-0.161861,-0.26263,-0.0521099,-0.0565613,0.0271945,-0.193518,-0.224915,0.121372,0.122861,0.155859,0.158267,0.122805,-0.00238953,0.358201,0.165887,0.0217549,0.017112,0.0655516,-0.180934,-0.0632224,-0.0274524,0.0746066,-0.0034159,-0.0952477,-0.0233992,0.069936,0.119532,0.0348706,0.207512,0.0536602,-0.206112,-0.0583318,-0.0118695,-0.107269,0.25291,0.257966,-0.104411,-0.0211508,0.151753,-0.0902738,0.122207,0.0842525,0.00119664,0.133869,0.089931,0.0248087,0.178086,0.350507
grade	-0.119578,-0.108023,-0.24591,-0.228504,-0.017567,-0.0708736,-0.149963,0.183231,0.0769041,0.0678219,0.225003,0.0864642,-0.00148011,0.360359,0.0555345,-0.033706,-0.192944,-0.103713,-0.0367904,0.0119148,-0.161466,-0.207306,-0.075911,-0.230784,-0.0304147,0.129735,-0.236024,-0.119548,-0.0609187,0.210306,-0.0698016,-0.0219132,-0.0480674,-0.0847263,0.0271374,0.212702,0.147767,0.0301689,0.214607,0.0528022,-0.0700702,0.114539,-0.0343154,0.0924421,-0.0115094,0.106181,-0.286521,0.148722,0.0829562,-0.0367028
veggie	0.140272,-0.291726,-0.314661,-0.255496,0.0402285,0.214019,-0.0506139,0.0907345,-0.0281963,0.0770946,-0.127241,0.02333,-0.149956,0.0496867,-0.106014,0.072605,0.2539,0.149206,0.1849,0.052411,0.251093,0.00604475,-0.0299274,0.0234571,-0.119983,0.0761189,0.0117779,0.0955066,-0.115967,-0.0819888,-0.064697,0.0788342,0.039413,0.0451704,0.172358,0.108045,-0.0602268,-0.0623758,0.0426609,-0.296076,-0.0996515,0.258797,-0.1379,-0.0399329,0.0216702,-0.0383126,-0.31477,-0.118224,0.0494205,-0.0513045
lettuce	0.0102688,0.0309093,0.000533378,-0.090356,-0.0125383,0.00560217,-0.137613,0.165023,-0.17664,0.00279615,-0.145841,0.405695,-0.206603,0.0972483,0.0444097,0.068804,-0.0092111,-0.161426,-0.145092,-0.0353589,0.11444,0.0840521,-0.174554,-0.0799728,-0.00183341,-0.182381,-0.138774,0.186408,0.244818,0.29771,0.0596602,0.0504377,-0.028223,-0.162404,-0.111614,0.187382,0.108492,-0.22062,0.111116,0.0404947,-0.243324,0.0602544,0.131325,-0.0750683,-0.0228777,0.0790357,-0.0697994,0.136429,0.227797,0.0636399
tzatziki	-0.139503,-0.0169583,-0.141796,-0.127894,-0.0462148,-0.184576,0.0693009,0.0207247,-0.155678,-0.0102966,-0.197286,0.113108,0.0553377,-0.202498,0.364418,0.0478159,-0.0900954,0.183751,0.0302079,-0.252826,0.0115326,0.159299,-0.0190893,0.126775,-0.126052,-0.0146853,-0.0209411,0.207679,0.174472,-0.307155,-0.0596971,-0.0506108,-0.0798542,0.136023,-0.0301434,0.104734,0.0158399,-0.130308,0.0407095,-0.224625,0.011242,0.0649015,-0.275158,0.0139799,0.0835163,0.0142702,-0.215655,0.088473,-0.184909,0.160762
delicious	0.0744491,0.0272571,0.107928,0.00895345,0.0440182,0.0913625,0.0562638,-0.0313214,0.326815,0.0263131,-0.00966551,-0.0364512,0.0436306,-0.136009,0.15228,0.150576,-0.136012,-0.0394127,0.0431413,-0.193553,0.00779443,0.201295,-0.208312,-0.346904,0.109308,0.313086,-0.133757,-0.119979,0.173436,0.0429201,-0.203751,-0.188203,0.300476,-0.233691,-0.00527844,-0.0273843,-0.0477363,-0.0665618,-0.0162664,0.106819,-0.0498497,0.00276048,-0.0504445,0.252552,-0.00324511,0.0442815,0.0184333,-0.174437,0.0424635,-0.100697
tamarind	-0.0870429,0.133549,-0.0251657,-0.11845,-0.0473605,-0.0988276,0.213031,-0.2505,0.36348,-0.0299688,0.0251628,0.168204,-0.114798,-0.0161097,-0.0147811,-0.0701786,0.0409964,0.149216,-0.246294,0.107475,-0.314392,-0.0827957,-0.0486908,-0.0499529,-0.0262366,-0.0675198,0.239069,0.0868766,0.0342363,-0.0855103,0.034568,-0.13121,-0.0513419,-0.225488,0.0150521,-0.125399,0.075331,0.276808,0.00757038,0.213862,0.0420218,0.0121667,0.0511762,-0.176334,-0.159197,0.0472364,0.226358,0.104774,0.0902243,-0.156885
buttermargarine	0.160623,-0.109955,0.0677587,-0.00697089,-0.00322706,0.322614,0.0271857,0.271204,-0.273242,-0.0814748,0.0185046,-0.078811,-0.159408,0.139673,0.0537393,0.0893345,-0.060295,0.133194,0.183437,0.205467,0.130301,0.197109,-0.0469058,-0.100266,0.161642,0.129972,0.0331221,0.0328541,0.150391,-0.125666,0.245687,-0.196567,0.222449,0.0636795,0.199449,-0.029314,-0.21699,0.164812,-0.0886068,-0.0817395,-0.234837,0.110288,-0.155261,0.00794221,-0.0168256,0.0455274,0.0483442,-0.0423695,0.0448336,-0.0676603
spinach	-0.0291943,-0.0115392,-0.100494,0.156612,0.0418027,-0.276754,-0.0828317,0.288112,-0.135799,-0.157928,0.00539587,0.0965097,-0.102831,-0.0393055,0.0218082,-0.14829,0.290713,0.09928,-0.0138479,0.0601571,-0.082785,-0.0202308,-0.158482,0.128785,-0.151653,-0.0380506,0.120759,0.225637,-0.266453,0.154644,-0.122719,0.0565181,-0.00471676,0.00134874,0.150711,0.0318895,-0.0824869,0.017306,0.216597,0.0257971,-0.139805,-0.174458,-0.198205,0.0670826,0.149971,-0.134203,-0.201857,0.0968266,0.217436,-0.220244
guinness	-0.254739,0.0519397,0.252626,0.0445131,0.0990737,0.0183577,0.0974718,0.00332822,0.21888,-0.288096,0.0966044,0.0664606,-0.0576398,0.0595708,-0.111329,-0.0627782,-0.0144364,0.014232,0.102063,-0.101612,-0.0711547,0.160627,-0.0781685,-0.0677618,-0.188407,0.0605957,-0.0884971,0.109041,0.0848919,0.023063,-0.0206413,-0.0185713,0.209734,0.242936,0.105426,0.0133621,-0.106941,0.104735,-0.107491,0.070776,0.116372,-0.0234783,0.292445,-0.114088,-0.0289752,0.415573,-0.0177668,-0.189739,-0.270499,-0.00569303
confectioners	0.027089,-0.368761,-0.115855,-0.0777791,0.0992516,0.0911166,0.103483,0.0814763,0.283962,0.0138363,0.0896218,0.00105142,-0.159582,-0.0926526,-0.158656,0.115911,-0.146792,0.0644653,0.158995,0.0596158,-0.0850243,0.0708016,0.272128,-0.0876657,0.219223,-0.0889585,0.0138173,-0.0858036,0.0881044,-0.0920795,0.0131718,-0.01637,0.390736,-0.158482,-0.0461793,-0.0219808,-0.0382147,-0.0755811,0.320909,0.0217385,-0.058696,-0.0954716,-0.0321049,0.090644,0.109627,-0.166283,0.0749636,0.0716453,-0.232724,0.0253619
top	0.0893515,-0.0266524,-0.159501,0.127984,0.169742,0.000877814,-0.304551,0.0191475,0.0377994,-0.0190626,0.0406852,-0.056091,0.0834569,0.259348,0.194757,0.0516295,-0.0674421,-0.0753971,0.130237,0.136512,-0.131151,0.177088,-0.0637322,0.159988,0.0738827,-0.147498,-0.186898,-0.0814997,-0.144881,-0.0137944,-0.0810135,-0.253132,-0.0511237,0.0840081,0.0827395,-0.0201083,-0.249603,-0.0555933,-0.0956788,-0.214927,-0.255176,0.0634979,0.309997,-0.116082,-0.193746,-0.0843041,-0.175778,-0.145328,-0.0717652,0.0573388
bonito	0.0493696,-0.0282137,-0.0878129,0.027482,0.0924574,0.0552396,0.0581956,-0.121628,0.237246,-0.0464763,0.338968,-0.0944206,0.083436,0.0730965,0.10721,-0.137247,-0.0596833,-0.180612,0.201519,0.181715,-0.0924779,-0.0286184,0.0329113,0.101976,-0.27041,0.157901,0.112909,-0.0363031,0.017033,-0.0238786,0.163024,0.169538,0.06134,-0.104118,0.232447,0.0969623,0.304332,0.0245541,0.277873,0.0288062,-0.0861724,-0.103164,0.0551934,0.148551,-0.0520969,0.214379,-0.144337,0.225632,0.117459,-0.0892374
zinfandel	-0.062468,0.0426481,0.0999336,0.0614635,0.231069,-0.225605,-0.0214112,0.0546387,0.166621,-0.270227,-0.020318,0.278871,-0.0361793,-0.187496,0.00873402,0.149117,-0.089459,-0.0638775,0.36156,-0.16309,0.0490865,0.0644988,0.114516,0.140641,-0.0347958,0.136501,0.0924681,-0.106436,0.0523169,-0.0987449,-0.0436974,0.0227972,-0.0246725,-0.0738485,0.0793804,-0.164449,0.0688485,-0.235239,-0.013997,0.100504,-0.223747,0.0525861,-0.159787,0.137715,0.121814,0.0118505,0.115932,-0.287531,-0.187041,0.135437
ton	0.0391251,-0.145586,0.221764,-0.0338234,-0.0988661,0.0597128,-0.379782,-0.10595,-0.0182413,-0.0384656,-0.0852354,0.0630167,0.00622718,0.20239,-0.00676091,-0.108919,-0.09433,0.0105423,0.151616,0.280498,-0.0871583,-0.0935666,-0.0693788,-0.121227,-0.209403,-0.143324,-0.0910248,0.0214876,-0.306609,0.0365661,0.051091,0.253697,-0.192221,0.118918,-0.0132395,0.017105,0.103284,-0.116342,-0.112549,0.0446844,-0.146012,0.028975,-0.0291048,0.232311,0.00449099,-0.187769,-0.029433,-0.183874,0.00944034,-0.269735
blossoms	0.102213,-0.269285,0.0885221,-0.0505143,0.137758,-0.122493,-0.0107062,-0.021731,0.129327,-0.0151277,0.268681,0.184511,-0.0455002,0.0623273,0.111185,-0.0764494,-0.151349,0.0487035,0.20863,-0.270679,-0.021553,0.0633942,0.254049,0.102288,0.0238138,-0.0421673,0.170999,-0.0815073,0.0799282,0.0286187,0.110932,0.111691,-0.0846453,-0.0313325,-0.176136,0.279028,-0.0784675,0.150439,0.187307,0.0422852,-0.10003,-0.0216596,-0.305079,0.0358953,0.110275,-0.205374,-0.171858,-0.184313,0.129602,0.103865
haas	-0.00157353,-0.243905,-0.131561,-0.0062425,-0.0451484,-0.00836308,-0.000301516,0.0548095,-0.110196,0.0670144,0.0288113,0.137418,-0.186347,0.0918195,0.0584361,0.181697,-0.11024,0.0871333,-0.096639,-0.0964008,-0.151484,0.0634169,-0.0620264,-0.114176,-0.149998,-0.221497,0.0542816,-0.0293648,0.247501,0.159861,-0.0694379,0.120417,-0.179431,-0.118495,-0.332801,0.124234,0.150908,0.17495,0.0502273,0.114552,-0.205683,0.12399,-0.0622784,-0.188343,-0.135804,0.255941,-0.0355597,-0.043416,0.126159,0.311263
