mackerel	0.122646,0.0780793,0.117114,-0.0244212,-0.0862064,-0.21205,0.206751,-0.092179,-0.000935943,0.0903169,0.297804,0.143193,0.157059,-0.21377,0.227402,0.177897,-0.0404373,-0.0345704,0.131072,0.11502,0.278985,0.195489,-0.0651079,0.0868,-0.0744469,-0.0588613,0.195255,0.0166477,0.0124332,-0.0575962,0.0530195,0.0336163,-0.240414,-0.0556946,-0.187671,0.0184943,-0.120651,0.0466607,-0.102258,0.198551,-0.0471543,0.40433,0.0215334,-0.151561,0.0446653,-0.0594432,0.0172751,0.0293797,-0.0924656,-0.0805939
yellow	0.275841,0.0212223,0.000670884,-0.130302,0.172789,-0.101393,-0.00756476,-0.0615499,-0.14531,-0.0571648,0.0826979,0.0345012,0.102144,-0.178684,-0.0676039,-0.22541,0.20218,-0.223485,-0.0298051,-0.0787753,-0.0398628,0.0357672,0.221687,0.01465,-0.0802354,0.0381641,0.0848329,-0.0140167,0.255576,-0.00377157,-0.0281471,-0.0632677,0.131439,0.136868,-0.217298,-0.0821394,0.190129,-0.198268,-0.0950803,0.173936,0.364017,0.136029,0.147388,-0.126838,-0.0572724,-0.260793,0.163658,0.00803688,0.0711939,0.0049855
sichuan	0.0333241,-0.0035672,0.163617,-0.0293839,-0.0917469,0.100763,-0.0766262,0.0294594,0.0217571,0.0476164,-0.173702,0.00844743,0.206817,0.100196,-0.174095,0.333664,0.122353,0.131475,-0.141177,0.410082,0.0476438,-0.0175967,-0.0333851,-0.00605268,0.0831295,-0.109531,0.0213211,0.0347759,0.0649927,0.154818,0.298287,0.0336387,-0.03897,0.044895,-0.07946,0.0351455,0.139472,-0.0875462,-0.25462,-0.211407,0.185926,-0.361554,0.0321225,0.0382323,0.0815572,-0.0477303,0.0927142,-0.0756819,-0.108539,0.0706924
asian	-0.0352293,0.0458754,-0.14154,-0.0190428,0.140965,-0.0679376,-0.16516,0.122085,0.197443,0.00133279,0.00767726,0.114516,-0.0786593,-0.109113,-0.170078,0.143229,0.0818722,0.119126,-0.246611,0.209287,0.18104,-0.0572748,0.164628,0.125189,0.221469,-0.23864,-0.012617,0.0491881,0.119128,-0.160097,-0.073582,0.108057,0.133567,0.0989372,-0.0971678,-0.126344,-0.197845,0.0992102,-0.142258,-0.18766,0.203422,-0.274617,0.104479,-0.199131,-0.166406,0.077101,0.129461,-0.0439209,0.118561,-0.169843
bucatini	-0.41874,-0.125479,-0.147609,0.0517407,0.098837,-0.120022,-0.138799,0.00526134,-0.138569,0.133678,-0.106306,0.066872,0.0540988,-0.0949997,-0.0594923,0.19711,0.0155235,-0.148265,0.144251,-0.0898764,-0.110339,0.19015,-0.172959,0.189308,0.0552536,0.2046,-0.173759,-0.00097531,-0.0245686,-0.211648,0.01651,0.0512929,0.0185024,0.369035,-0.114183,0.00104914,-0.0954491,-0.0236987,0.0664446,0.0588818,0.301773,0.13159,-0.05585,-0.0264252,0.12332,0.0978311,-0.161614,0.113762,0.0400092,0.0206424
orecchiett	-0.455754,-0.106917,-0.036812,-0.033731,0.0845736,-0.0790001,-0.236825,-0.173403,-0.179883,-0.0481254,-0.14234,-0.03117,0.154761,-0.0618583,0.0909084,0.224046,0.10728,-0.0947118,0.1774,-0.0650279,-0.176261,0.0362032,-0.0905921,0.0257279,0.100313,0.253752,-0.0840092,-0.126564,-0.0917454,-0.225848,0.0608903,0.115935,0.108157,0.2479,-0.00777001,-0.0347678,-0.0949438,0.0323585,0.0166641,0.0926102,0.224903,-0.0770684,-0.202159,0.0866585,0.0220474,-0.131571,-0.100395,0.189663,0.0431311,-0.0346166
pancetta	-0.329416,-0.118435,-0.0532216,0.0445875,0.250468,-0.163709,0.00595699,-0.0987975,-0.117398,0.0652396,-0.239032,0.121699,0.171772,-0.0882513,0.189159,0.20597,0.0184046,0.0365178,0.0775826,-0.199197,-0.0328015,0.189881,-0.0718907,-0.123209,-0.132835,0.06937,-0.051033,-0.227548,0.0903341,-0.227644,-0.137956,0.16923,-0.027583,0.232675,0.141604,-0.0797103,0.0183025,0.00304891,0.0401648,-0.033482,0.200089,-0.0575231,-0.0420777,0.241524,0.199351,0.057226,-0.158032,-0.0411968,0.134819,-0.0527691
deli	0.0135008,-0.0532307,0.0441805,0.187412,0.208091,0.100752,-0.174784,0.113008,-0.109617,-0.0465735,-0.219166,-0.0238594,-0.281641,0.0269726,0.119557,-0.148238,-0.193186,0.056921,0.0185758,0.0281387,-0.0130362,0.0932234,0.011445,-0.120236,0.10645,-0.0382831,-0.156811,-0.127271,0.0990669,0.202962,-0.0696122,-0.126604,-0.121191,0.0399035,0.0815242,0.12516,0.273234,0.152848,0.266514,-0.314223,0.00462992,0.174584,-0.160174,-0.00771167,-0.190712,0.00738977,0.148887,0.159715,-0.0262498,-0.214554
rise	0.203887,0.0149244,-0.127431,-0.0355176,0.369252,-0.108641,0.00500316,0.0729028,-0.0410183,-0.0251834,-0.190065,-0.201453,-0.200653,0.25889,-0.0241917,0.0232346,-0.0670518,-0.0440128,-0.155928,-0.0488669,-0.145193,-0.224241,0.0616594,0.0849187,0.236019,-0.0949856,-0.0564362,0.0074512,-0.0180624,-0.136242,0.00576032,-0.144528,-0.176739,0.076592,-0.224055,0.142787,-0.225383,-0.0532516,0.231779,0.0665932,-0.124334,0.150082,-0.0165585,-0.181652,-0.0405793,0.210519,-0.108586,-0.111965,0.0576398,0.110185
furikak	0.0745314,-0.230366,0.276842,-0.170642,-0.336766,-0.0235059,-0.0147627,0.0767573,-0.0369834,0.0645862,0.289906,-0.16177,0.0895283,-0.01378,0.140946,0.227674,0.0443866,0.0832297,-0.0670073,0.110281,0.206543,0.0197915,0.0151068,0.20012,0.159982,-0.124694,-0.0260305,-0.12137,-0.048142,-0.0557152,0.118196,-0.280664,-0.130213,0.107816,0.0491649,0.077949,-0.043032,-0.0727523,-0.159737,-0.123648,0.0474303,0.183178,-0.111978,0.0556775,-0.00838733,0.0729824,-0.00468629,0.174976,0.0845079,-0.276854
jack	-0.0804739,0.27506,0.0196112,0.329065,0.00265269,0.102332,0.124121,0.0338084,-0.14461,-0.066201,-0.0543506,-0.00956506,-0.198023,0.082549,-0.115394,-0.156015,-0.0976471,-0.195875,0.0618761,-0.0201685,0.124358,-0.00188086,0.132355,0.200506,0.0245082,-0.196788,0.149641,-0.0948133,-0.110773,0.397354,-0.000869038,0.076424,-0.0390481,-0.182403,-0.0255122,-0.0564151,0.149778,-0.224055,0.182884,-0.0155743,0.133774,-0.0840095,0.0892905,0.210989,0.0615333,-0.179168,-0.157631,0.101803,-0.0411095,-0.0540719
mediumgrain	0.095929,0.0706006,0.185691,-0.0793335,-0.223958,-0.0395099,0.138339,-0.236934,-0.0947722,0.104119,-0.00834618,-0.185451,0.0740054,-0.0456636,0.239723,0.00878643,-0.236012,0.202546,-0.0422343,0.171391,0.24433,-0.0929426,0.0698509,0.0724321,0.0297996,-0.174427,-0.153277,-0.199952,-0.0896219,-0.0542758,0.0811335,-0.138206,0.088017,0.273835,-0.230645,0.117632,0.0752511,0.242766,-0.0730865,0.0693438,0.0511685,0.0234529,-0.0454947,0.112429,0.229703,0.0706125,0.0356218,0.06953,0.204877,-0.112417
four	-0.267648,0.156982,0.18726,-0.0826265,0.0405147,1.23557e-05,-0.0933728,0.0619721,-0.12297,0.00686129,0.0499866,-0.125823,-0.277309,-0.100942,-0.104558,0.222925,0.00776657,-0.0964774,-0.0529664,-0.0967623,-0.120147,-0.126048,0.0330978,0.0340699,-0.0876353,0.0253012,0.019442,0.0499187,-0.0613329,0.172844,-0.119275,-0.178772,-0.0218111,-0.111235,-0.10359,0.158532,0.201821,-0.233379,0.269483,0.0932292,-0.218047,0.0618136,-0.066059,-0.0971469,-0.104129,-0.26018,0.0653186,0.296577,0.0939852,-0.226492
tangerin	0.0320109,-0.330774,0.05777,-0.131294,0.0148906,-0.0980223,0.101314,-0.000319986,0.269526,-0.239744,-0.0247261,0.0996943,-0.0092482,-0.0774429,-0.331768,0.217521,-0.036763,0.120804,-0.0748786,0.132959,0.0919166,-0.0427523,-0.0626775,0.0131439,0.0761867,0.0368148,0.156981,-0.143455,-0.0804589,-0.316956,-0.0345175,0.170838,-0.231958,-0.135817,-0.0568908,-0.0243024,-0.0202172,0.172977,0.138137,0.0890375,0.106806,0.050459,0.162044,-0.160976,-0.112626,0.150029,-0.197682,-0.0471153,-0.0303706,-0.156512
poppi	-0.0545997,-0.114421,-0.154375,0.132434,-0.240994,0.243617,0.115673,0.170079,0.0629633,-0.112028,0.0531962,0.0785928,-0.057075,0.0936554,0.111944,-0.102053,-0.257531,-0.0259403,-0.132894,-0.067034,-0.0261651,-0.0343168,0.0839024,-0.19744,0.114325,-0.124736,-0.0627076,0.258884,-0.367358,-0.174044,0.143434,0.040501,0.117691,-0.116132,0.240232,0.285539,-0.169166,0.000555175,-0.0222385,-0.00536804,0.0372055,0.0805979,-0.1962,0.0284357,-0.0415826,0.0642297,-0.0100971,0.0493916,-0.205135,-0.0697864
chambord	-0.273206,-0.426588,0.00800926,-0.121598,-0.176121,-0.0883516,0.0830865,0.170861,0.187131,0.0890614,-0.0275911,0.0591512,-0.135776,0.173128,-0.255796,0.148951,-0.223551,-0.065498,0.129614,0.0213183,-0.00497954,-0.202966,0.0668941,-0.0635125,-0.130623,0.131517,0.0917748,-0.0341563,-0.0141881,-0.140873,0.0525299,0.0832947,-0.100505,-0.0405629,-0.0753487,-0.00259901,-0.120431,0.0447899,0.173363,0.0269361,-0.160278,0.211433,-0.134033,-0.0703698,-0.142392,0.214773,-0.0609132,0.180718,-0.0357135,0.115559
frozen	-0.0917894,0.00692118,0.359683,0.0898002,0.0260379,0.136858,-0.17855,-0.232649,-0.0972412,-0.219422,-0.0594176,-0.122646,-0.282935,-0.341428,0.0333757,0.0367532,-0.0686359,-0.0957275,0.0314253,0.0873939,-0.0677876,-0.0900437,-0.0699457,-0.0528132,-0.389571,0.00176452,0.0705907,0.065035,-0.0113728,0.0560954,0.0678167,-0.0326954,0.0961095,-0.0716089,-0.138369,0.0788534,-0.0817391,-0.313624,-0.0199955,0.11335,0.0674184,0.0280723,-0.196855,0.0867466,-0.0613079,-0.0759309,-0.0704178,-0.015215,0.182365,0.054809
mayonnai	-0.302802,-0.0512193,0.184644,0.0671878,0.148762,-0.239018,-0.155307,0.00196862,-0.18188,0.0557724,0.135486,0.0563688,-0.276427,0.125773,-0.022775,0.0522267,0.0106236,-0.0223562,-0.0667917,-0.0264837,-0.161271,-0.225275,-0.00407198,0.248216,-0.237761,-0.0676055,-0.113863,-0.0947815,0.107843,0.108251,-0.00435177,0.0984117,0.0118958,-0.33852,-0.00603371,0.270992,0.133019,-0.0116443,0.0424129,-0.0624879,-0.108287,0.0314445,-0.0442798,-0.235424,-0.198583,-0.158982,0.0513229,0.0280459,-0.0160083,0.00141322
barbecu	0.0615499,0.0420433,0.0482848,0.00822209,0.0977511,-0.140754,-0.144501,0.194413,0.117419,-0.000538524,-0.176835,-0.113156,-0.043369,0.289632,0.0631048,-0.0189036,0.17467,0.262327,0.14543,0.0300896,-0.0534227,-0.0468671,-0.145478,0.084957,-0.135253,-0.181174,-0.0159234,-0.056773,0.196178,0.28022,0.210366,0.00824847,-0.0361291,-0.03041,-0.124996,-0.14348,0.257797,-0.326898,0.18366,-0.144092,-0.0788811,-0.028811,0.0886956,-0.183499,-0.0865178,-0.00682522,-0.10661,0.0191659,-0.164031,-0.155805
orzo	-0.226336,0.0746091,0.0665354,0.0338559,0.0938078,-0.056345,-0.118,-0.161054,-0.26516,0.328711,-0.0451723,0.247546,0.0118243,-0.0797708,0.203887,0.0206576,0.22251,-0.191254,-0.0069984,-0.233496,-0.0474232,0.0762732,0.0501012,0.223349,0.0223096,-0.104993,0.113154,-0.0181237,-0.151163,-0.223782,-0.07207,-0.0931108,-0.0611922,0.126006,-0.236803,-0.156252,-0.0967964,0.182217,0.0276553,0.0299559,-2.05634e-05,-0.121631,0.0170916,0.0197191,0.0502731,0.0765848,-0.0878987,0.220929,0.241348,-0.00713396
tumer	0.0766461,0.0094898,-0.0553653,0.097975,-0.077731,0.0781282,0.113211,-0.293682,0.105109,-0.0368072,0.248054,0.0718951,0.0593769,0.0821953,0.263457,-0.0609375,0.237357,-0.00520751,-0.157708,0.00978975,-0.180284,-0.109409,0.0133443,-0.0958023,0.0751539,-0.322273,-0.175049,0.193393,-0.0137376,-0.195929,0.227288,0.0226472,0.136991,-0.0045398,0.10134,-0.070767,-0.129741,0.0054754,-0.027982,0.43694,0.0825959,-0.12132,-0.0502492,-0.0749331,0.0745832,-0.00099986,0.0422625,0.0862482,-0.0014213,0.130731
ravva	0.00189391,-0.014911,0.013419,0.0774211,-0.0675937,0.224138,0.121505,-0.00353681,0.024865,-0.223512,0.0193286,-0.018669,-0.0683918,0.0429733,0.139004,0.205851,-0.0569526,0.0259103,-0.163411,-0.0371232,-0.109686,-0.0295452,0.0477852,-0.189519,0.00828753,-0.139706,-0.211637,0.182412,-0.0377464,0.0782513,0.359357,0.0568903,0.308207,-0.0400807,0.117662,0.135988,-0.0785832,-0.204284,-0.0850144,0.146072,0.15539,0.32764,-0.210639,-0.15025,-0.0630932,0.0197186,0.0667396,0.0961051,-0.195967,-0.153356
almond	-0.0392149,-0.133915,-0.0405697,-0.0623569,-0.198425,0.413048,-0.0471184,0.0427723,0.216626,-0.151582,0.00422791,0.103427,0.0959101,-0.159871,-0.0613375,-0.0826355,-0.0172473,-0.0119516,-0.0314878,-0.016205,-0.0136454,-0.245956,0.112553,0.00280569,-0.0794236,0.0791175,-0.0317178,-0.0823377,-0.275475,-0.366866,-0.0673155,0.290089,-0.224484,-0.0634176,0.0945518,0.0131016,-0.129906,0.120772,0.0242846,0.0374236,-0.125374,0.0652944,-0.00647032,0.0799075,0.0584752,-0.305906,0.0560048,0.104628,0.0162621,0.0754953
bacon	-0.00769227,-0.0800657,0.0780754,0.0152033,0.250339,0.0450043,0.0484151,0.0143069,-0.262011,0.0454009,-0.295105,-0.195784,0.0913299,-0.0394233,0.164173,-0.172056,0.187497,0.0667349,0.0552228,-0.0128007,-0.0439543,0.107553,0.103486,-0.225476,-0.0710685,0.115868,-0.0748193,-0.0281671,-0.0704301,0.0866048,-0.0621436,0.0205529,-0.107271,0.0204462,0.0160928,-0.276695,0.2865,-0.137526,0.178078,-0.20594,0.206663,0.201997,0.164748,0.0747264,0.179483,0.0210896,0.0415452,-0.099427,0.0871918,-0.256753
millet	0.102948,-0.186846,-0.0534777,-0.0162763,-0.0532987,0.27747,0.200586,0.152068,0.135338,-0.160645,0.216306,0.0838372,0.172723,-0.0144146,0.180021,0.0891717,-0.0867783,-0.0237994,-0.0983402,0.118469,-0.109152,-0.171497,0.163244,-0.079494,0.0520068,0.0505057,0.0476164,0.234586,0.119934,-0.0042422,0.139695,-0.11696,0.130119,-0.0595549,0.105909,0.206674,0.018028,-0.259493,-0.0883898,0.0641135,0.172913,0.316345,-0.18789,-0.192074,0.0154283,-0.132529,0.0626788,0.0733071,-0.0445883,-0.195795
soppressata	-0.167452,-0.282956,0.0643087,-0.039313,0.120439,-0.0573602,-0.224607,0.0376302,-0.154364,0.0890621,-0.10032,-0.0185678,-0.105456,0.016423,0.000295188,0.00344188,-0.145378,-0.109651,0.0850368,-0.112263,-0.168163,0.192354,-0.140242,0.0172537,0.127815,0.0941706,-0.25993,-0.0547807,-0.107697,-0.0917546,-0.249338,-0.0937953,0.0976787,0.18326,-0.143016,0.202847,0.0880656,0.0543812,0.336466,-0.255121,0.0310168,0.174074,-0.012506,-0.0166817,0.143846,-0.180921,0.0473216,0.181018,-0.0388251,-0.150405
chee	-0.23463,-0.0276518,-0.0678309,0.0242973,-0.00932038,-0.0570669,-0.148214,0.0371841,-0.039211,0.147557,0.0681648,0.0600508,-0.00771951,-0.0697285,-0.285216,0.241572,-0.0860567,-0.0730809,-0.053351,-0.111627,-0.201717,0.139583,0.0207346,0.293517,-0.0631243,0.0721697,0.0806218,-0.0754176,0.214795,0.0692241,-0.0081756,-0.0899452,0.0860121,-0.0746959,-0.149953,0.34997,0.175402,0.0598404,0.118376,0.100591,0.0511029,0.0954357,-0.102562,0.102418,0.121449,-0.390209,-0.049007,-0.0606409,-0.0988983,-0.220933
albacor	-0.1353,-0.175606,0.0182087,-0.080025,-0.079843,-0.320087,-0.167774,0.0924746,0.0102842,0.199172,0.155984,0.0317297,0.0298273,-0.115648,0.047884,0.0100665,-0.0599446,-0.0905642,0.129902,-0.123677,0.072778,-0.0998575,0.0988566,0.273225,0.19221,0.0832117,-0.20685,-0.0914546,0.1819,0.0018311,0.0355318,-0.288664,-0.130977,-0.024615,0.123755,0.0743802,0.303501,0.189266,-0.0440572,-0.151727,-0.238842,0.0403043,-0.18196,-0.100535,-0.176811,-0.116713,0.0140579,0.0647311,0.0440663,-0.125917
blue	0.0271556,0.102181,0.15122,-0.0991927,-0.0499397,-0.148594,-0.0939413,0.0861579,0.0834942,0.151675,-0.100612,0.0702171,-0.15348,0.132582,-0.359765,-0.0564433,-0.156854,-0.212572,-0.0849148,0.0605849,-0.072329,0.292721,-0.16222,0.170643,-0.193925,-0.0360068,0.0307518,0.164745,-0.040763,0.0610287,0.0202542,-0.133695,-0.0691385,0.155353,0.149095,-0.279727,-0.0691276,-0.0250609,0.260705,-0.30549,0.0438764,0.112463,-0.120975,0.0283907,0.0847789,-0.159189,-0.0194201,-0.0901825,0.108073,-0.00250653
zesti	-0.198537,0.228468,0.163053,0.0543736,0.0279077,0.016891,0.015152,0.0271064,-0.150698,0.0170237,-0.0361404,-0.0156861,0.134857,-0.0451588,0.0117673,0.13697,-0.0626714,-0.140367,0.0724345,0.0338104,0.00580942,-0.240129,-0.184934,0.0612317,0.0670657,0.0831765,-0.0208118,0.0337234,-0.153485,0.072512,-0.299065,-0.0792432,-0.0910031,-0.045897,0.0625657,0.0233678,0.0781879,-0.120613,0.189391,-0.0990299,-0.0822402,-0.00780598,-0.227376,-0.195562,-0.117757,-0.250527,0.0346762,0.243867,0.0988436,-0.474258
beaten	0.319486,-0.0977948,0.0649621,0.135143,0.0934401,0.0556164,0.0961083,0.127854,0.0519896,0.0325114,-0.0354031,-0.125351,-0.275852,-0.0793023,-0.0310371,0.0972596,-0.0971141,0.24861,-0.15287,0.00559643,0.194733,0.0266293,0.00609617,-0.0187986,-0.0312099,-0.0167452,-0.114506,0.181175,-0.142138,0.00678918,0.137856,0.101216,-0.262982,0.100257,0.113575,0.220873,-0.11089,-0.258839,0.123241,0.0043083,-0.199383,0.313468,0.160717,-0.011229,0.0448154,0.132758,0.106049,-0.00570727,-0.231541,0.026502
fingerl	-0.109725,-0.368249,0.125161,0.0767978,0.00707024,-0.283111,-0.21788,-0.170138,-0.201188,0.189915,0.166547,0.00975321,0.305069,0.169987,0.0478305,0.0028932,-0.000323553,-0.202081,0.0299687,0.0171237,-0.0818191,0.0778022,0.0346121,0.0149082,0.207755,0.0180433,-0.0206705,0.121092,0.101156,-0.088461,0.128718,-0.053595,-0.0748908,-0.0241175,4.26693e-06,-0.0571777,-0.153233,0.107152,0.163002,0.0845614,0.165788,0.0705246,0.107136,0.237381,0.181735,-0.0193895,-0.0577909,-0.268144,-0.0755202,0.0219958
new	0.0408309,-0.101068,0.0108854,-0.0517643,-0.0536276,-0.329065,-0.0654922,-0.1005,-0.0548702,-0.0145666,0.106475,0.0579771,0.0210767,0.0147474,0.110376,-0.00457819,0.107854,-0.155652,0.273942,0.113805,0.0211146,0.0987376,-0.125419,-0.285886,0.314268,-0.0172136,-0.132922,0.170572,-0.0937096,-0.163392,0.0731304,-0.342448,0.0849504,-0.176076,-0.11006,0.0322508,-0.0268618,-0.022903,0.132911,0.1268,-0.101485,0.0141114,-0.0358827,-0.0543802,0.00949828,0.0879068,0.0801876,-0.226456,0.0620965,-0.350799
devein	-0.0729911,0.0801385,-0.0946339,-0.227212,-0.0181507,0.0133508,-0.0953824,-0.351547,-0.24074,0.139646,0.0840063,-0.155584,-0.212119,0.0785775,-0.214419,0.0705362,-0.00524939,-0.0839307,-0.255469,-0.0204474,0.203577,-0.0525476,-0.048873,-0.0186666,-0.0810995,-0.0144299,-0.0853136,-0.276039,0.0124853,0.05713,0.0407709,0.156119,0.145218,-0.0593695,-0.297609,-0.176755,0.00630196,-0.114199,-0.15603,0.0240715,-0.031418,-0.0250149,0.224961,0.107139,-0.0105803,-0.0621114,0.198595,0.133408,0.1703,0.0887939
kefalotyri	0.243094,-0.188388,0.0431303,0.174931,0.0058185,0.12059,-0.0267616,-0.0105513,0.120941,0.190006,0.026938,0.154579,0.0270197,-0.104706,0.198851,-0.0168718,0.0488482,-0.42594,-0.0397711,0.0283225,-0.137661,0.202783,0.00050776,0.167067,-0.117901,0.0818424,0.0202469,0.177499,-0.178052,-0.261001,0.168399,0.0643757,0.0756623,0.0431482,-0.0250083,0.0152287,0.00741053,-0.00138692,0.214621,-0.213602,-0.110927,0.0938306,0.0167741,0.05625,0.220051,0.140484,-0.196112,0.0517324,0.116144,0.155359
herb	-0.237313,-0.0679889,-0.0264151,0.0554049,0.338216,-0.178096,0.177946,-0.0200069,0.0714679,0.269851,-0.0132224,-0.0311357,0.0787662,-0.230825,0.156309,0.0320303,-0.064686,-0.101673,-0.170839,-0.136631,-0.0458184,-0.0137898,-0.00571063,0.179735,-0.115183,-0.217151,-0.167509,0.0648868,-0.102848,-0.102171,-0.0841781,-0.311648,0.100576,0.00876012,-0.0741591,0.137423,0.275701,0.133468,-0.0328951,0.00278363,0.0511446,0.114853,0.0500131,0.0293848,0.108754,0.187596,0.190232,-0.12102,-0.0843227,-0.156702
broccolini	0.0285822,0.064925,0.245285,-0.0629265,0.157046,0.0194499,-0.0452721,-0.0293412,0.204567,-0.0840518,0.0113671,-0.0154339,0.00130678,0.0389475,-0.100179,0.435289,0.142226,-0.00224509,-0.0727414,0.243622,-0.0335336,-0.148914,0.0730274,-0.234471,0.0354703,-0.00233715,-0.0448753,-0.0468835,-0.00522608,0.0847389,0.164173,0.160704,-0.11216,0.0784457,-0.0986029,-0.00234711,-0.0945448,0.0983274,-0.452675,-0.0429752,0.244719,-0.021222,0.0554775,0.0176643,0.101342,-0.170609,0.0448322,-0.04379,-0.0610471,-0.232471
marnier	-0.0725602,-0.310789,0.153973,-0.08653,-0.0276333,0.0944443,0.108342,0.0423099,0.10913,0.0267357,-0.0901691,0.124984,-0.170818,-0.0705879,-0.322066,0.197469,-0.0714629,-0.0400956,-0.0598784,0.179263,-0.0313862,-0.0807089,0.0405568,0.078451,0.057297,0.0144689,0.146088,-0.040359,-0.0727019,-0.039581,-0.0648289,-0.0572059,-0.297952,-0.218341,-0.023962,-0.16607,-0.0688053,0.206673,0.223133,0.122053,-0.147334,0.279012,0.0307067,0.107394,-0.16299,0.23049,-0.0693791,-0.0615473,-0.232866,0.0259141
floret	-0.0360929,0.0645163,0.102606,-0.0522809,0.0459772,0.0127189,-0.0693372,-0.0416574,-0.00739054,-0.0727603,0.0710912,-0.00731367,0.21561,-0.179371,0.0450285,0.182236,0.0638856,-0.11506,-0.105147,0.174014,-0.0358328,-0.268819,-0.304619,-0.183777,0.0586158,0.262135,-0.00330808,0.0241269,0.0691565,-0.145121,-0.00702623,0.214095,0.0592344,0.103178,0.00807966,-0.0583196,-0.0700637,-0.118201,0.00917881,0.296028,0.0921164,-0.357693,-0.297918,0.164904,0.0613634,-0.0330717,0.143354,0.0650693,-0.0442701,-0.191461
safflow	0.146338,-0.196094,0.123888,-0.0729676,-0.161066,-0.0127831,-0.081052,0.145453,0.0620181,-0.147912,0.293739,0.00626368,0.24283,0.00942534,0.197287,0.0991752,0.11953,0.014956,-0.0275255,0.239461,-0.0272495,-0.0828611,0.188427,0.0957701,0.196868,-0.0365811,0.195382,-0.100117,-0.0152471,0.103765,0.152219,-0.182135,0.0173108,0.0411383,0.0196139,-0.043734,-0.264537,-0.170839,-0.129756,0.0456593,0.186235,0.0386673,-0.164235,0.077431,-0.0565392,0.0177796,-0.0645569,0.0566858,0.12857,-0.38248
pati	-0.189611,0.0410899,-0.099811,-0.1053,0.182257,-0.160016,0.0665348,0.0162035,0.1163,0.204559,0.0716234,0.00222914,-0.0542717,0.029613,0.222581,0.0721038,0.075719,0.182817,0.072775,0.373196,0.162905,-0.0469101,0.262989,-0.107818,-0.0154014,-0.238684,0.0369051,0.176861,0.0319519,0.14642,-0.101124,0.172666,0.208417,0.140684,-0.0747171,0.115166,0.0275198,-0.071635,-0.177355,-0.0516228,-0.0598208,-0.0371481,0.149335,-0.298879,0.0412459,0.11148,0.157441,-0.173584,-0.0284286,0.0678061
mozzarella	-0.183258,0.0254152,-0.0250619,0.120601,0.397859,0.170865,-0.161598,-0.0102547,-0.249724,-0.0482164,-0.183773,-0.087974,-0.0963035,-0.0751922,-0.296021,0.131523,0.107417,-0.166908,0.0890725,-0.329954,-0.0498262,0.208807,0.124846,0.0165887,-0.0666085,-0.179476,-0.0774946,0.066297,0.0592711,-0.0310213,-0.0602709,-0.117036,0.105965,0.193469,0.0421529,0.125824,0.145926,0.0321057,0.054872,-0.0483717,-0.118625,-0.0819086,-0.0562047,-0.0825989,-0.0171176,-0.114683,-0.132347,0.219001,-0.141748,-0.0108594
consomm	0.338699,-0.0232172,0.186391,0.165868,0.325045,-0.16511,-0.0239953,-0.0436176,0.0876183,-0.127546,-0.0683879,0.201375,-0.0819208,-0.0205125,0.201571,0.022493,0.0258275,-0.0426721,0.138827,0.109777,0.0948149,-0.0127074,0.0610363,-0.127491,0.0292443,0.0238049,-0.13626,-0.0578724,-0.00907169,-0.0346576,-0.112164,-0.0688568,-0.250313,0.0495934,0.195094,0.161027,0.147627,0.0668392,0.276679,-0.201583,0.0222505,-0.060685,-0.188395,-0.01341,0.0845728,0.165041,0.277074,0.024666,-0.187043,-0.0748827
stevia	-0.046449,-0.168359,-0.157394,0.0662297,-0.12408,0.143501,0.00165208,0.226418,0.159499,0.00854744,0.0253679,0.139134,-0.271263,0.0569535,-0.142346,0.155548,0.0707672,-0.0865553,-0.124634,0.232559,0.0873211,0.0347743,0.0629118,-0.0534808,0.0656312,0.202562,0.110908,0.144009,-0.000794936,-0.0503008,0.11928,0.0604622,-0.0884377,-0.140401,-0.00207398,0.115691,-0.224552,-0.260321,-0.17861,-0.0693656,0.0981519,-0.0353046,-0.178206,-0.467394,0.111149,0.128529,0.0429506,-0.0397366,0.0159158,0.0157855
dri	0.181335,0.164958,-0.0027215,0.0783353,0.0287047,0.0629327,-0.0355495,-0.222015,-0.233399,0.312843,-0.195534,0.149507,0.0420505,-0.00596205,-0.024594,0.000103731,-0.0347932,-0.265834,0.118669,-0.0110387,-0.0893858,0.125174,0.060557,-0.0244213,-0.0936143,0.101461,0.0159252,0.0318335,0.23683,-0.133968,-0.226134,0.152533,-0.106694,0.372802,-0.030803,0.152544,0.0679935,0.175945,-0.00829501,-0.156491,0.0265001,0.0994826,-0.015497,0.231791,0.0977608,0.0308913,0.103283,-0.162338,-0.0400975,0.178568
smoke	0.328533,0.0874808,0.250719,-0.0426736,0.0459314,0.0158405,-0.0808849,-0.076645,-0.109383,0.266646,0.132901,-0.28416,0.198352,0.184437,0.182022,-0.217161,0.0637183,-0.0825768,0.126718,-0.160032,0.0314963,-0.0778232,-0.00462823,-0.2237,0.0372336,-0.129885,-0.118906,-0.230836,0.0412294,0.0331302,-0.110084,-0.0530819,0.0778301,0.191718,-0.0602645,-0.191876,0.156624,-0.100978,0.0212877,0.126415,0.0273767,0.201674,-0.0831964,-0.0899601,0.0712311,-0.0947878,-0.211879,-0.0533742,0.0549327,-0.0328491
bertolli	-0.330111,0.0267862,0.35618,-0.158672,0.16571,-0.134268,-0.196419,-0.170005,-0.160671,0.124753,-0.0289696,0.0354879,-0.216907,-0.0424883,-0.302321,0.307581,-0.00269902,0.0466522,0.137707,-0.0374085,0.0299174,-0.114528,-0.137723,-0.0204891,-0.028745,0.139164,0.106812,0.0497127,0.131642,-0.0662861,-0.181071,0.0323335,-0.128461,0.0465717,-0.179402,0.179785,0.103249,0.0544915,0.0713961,0.026117,0.0224184,0.0249938,0.104739,0.153142,-0.0936575,-0.1452,0.137298,0.00660882,0.0423928,-0.112717
sriracha	0.181953,0.0263404,-0.0833365,-0.00740123,0.0762558,0.0574516,-0.125446,0.0894518,0.127188,-0.141225,0.0909024,-0.0122736,-0.0503208,-0.0815031,-0.23073,0.160023,0.118318,0.149422,-0.109739,0.132813,0.232427,-0.165512,0.0485327,0.105054,0.161688,-0.128124,0.113275,-0.144525,-0.105402,0.204308,0.142217,0.0169471,0.186886,0.0568905,-0.0591673,-0.040241,-0.0254103,-0.00522631,-0.124168,-0.295456,0.0920056,-0.363815,0.0871443,-0.188342,0.0190042,0.0737438,0.0434017,0.075282,-0.0171777,-0.372998
lasagn	-0.387283,0.0549894,0.0678964,0.165154,0.198118,-0.100593,-0.0938314,-0.0677717,-0.200841,-0.0813208,-0.113765,0.105006,-0.153312,0.0875343,0.120779,0.190131,-0.074426,-0.12043,0.0032284,-0.191188,0.099844,0.338475,-0.201621,0.083964,-0.0711921,0.0962511,-0.132368,0.0492093,0.150671,-0.108707,0.104244,-0.13487,-0.0234639,0.0773619,0.0523246,0.151839,0.0597863,-0.143929,0.0921649,0.0163937,0.0882388,-0.0481977,-0.166943,0.0244866,0.103129,-0.104641,-0.117485,-0.00396781,-0.357554,0.0749041
golden	0.0735505,-0.164193,-0.266558,-0.00937095,-0.00891382,0.120874,0.0855922,-0.0383545,0.192326,-0.189912,0.00506849,-0.0251,-0.0666372,-0.106144,0.234912,-0.038613,-0.0799998,0.0735629,0.0359322,-0.17478,0.090163,0.0862932,0.0232205,0.176971,-0.0660125,-0.0939631,0.042416,-0.165656,-0.125143,-0.264216,0.0546769,0.249828,-0.192609,0.220166,0.125091,-0.00726601,-0.233614,0.160505,0.0427621,0.041434,-0.136662,-0.00841161,-0.261778,-0.0442907,-0.0155864,-0.219684,0.246983,0.0805736,-0.0989819,0.20576
canola	0.435466,0.0598729,-0.157914,-0.192689,-0.0775422,-0.0851408,-0.133031,-0.0382193,0.155799,-0.0603555,0.178131,-0.120824,-0.00450322,0.0714703,-0.0300316,-0.142407,0.102707,-0.0578116,0.0569567,0.099123,0.097681,-0.196116,0.218946,0.0769473,-0.0648417,-0.146542,0.0102714,-0.0538287,0.0540638,0.3605,0.00662512,0.0364421,0.0411583,0.111402,-0.0414296,-0.0186101,-0.117008,-0.203587,-0.177192,0.0214581,0.126221,-0.116201,0.0598456,0.178749,-0.0272979,0.0427903,0.242033,-0.0879306,0.135465,-0.254198
straw	-0.296195,0.0489986,-0.0385279,-0.0834158,0.121885,0.0422904,0.144284,-0.0808021,0.0867103,0.149894,0.0434412,0.127679,-0.243532,0.0500516,-0.131614,0.274591,0.113345,0.125709,-0.0114354,0.11877,0.0878398,-0.15943,-0.0192574,-0.31704,0.203924,-0.186041,0.33583,-0.0289846,0.102507,0.056831,-0.124344,0.0602732,-0.0806698,0.049371,0.105584,-0.0624203,-0.212044,-0.105839,-0.218158,0.13158,0.0950686,-0.131082,0.204761,-0.102269,0.157619,0.013503,0.0372859,0.0247967,-0.0661521,-0.00955918
homemad	-0.171959,0.000682399,0.0635975,-0.102001,0.299145,0.0562961,-0.00965659,-0.330681,-0.200886,0.131811,-0.121288,0.164326,0.0640198,0.0843935,0.177264,0.0918426,0.278337,0.140345,0.0987892,0.082855,-0.0258205,0.149997,0.0708803,-0.0791091,0.0101153,-0.00319271,0.30594,-0.107588,-0.0227412,0.00623725,-0.0915066,0.131011,0.00358879,0.141454,0.042692,0.0693674,0.0734919,0.120919,-0.130363,0.0368169,0.310546,0.0099363,0.152769,-0.0556091,0.302619,0.152373,-0.0732651,-0.109201,-0.0157002,-0.058355
shaox	0.0988522,0.120448,0.0971143,0.00246662,-0.069994,-0.0581801,-0.126113,0.148718,0.0651626,0.128397,-0.252091,0.200755,0.149826,0.147388,-0.0923652,0.365036,0.0984764,0.17096,0.00984327,0.271939,0.103575,-0.244859,0.00554989,-0.03252,0.0727884,-0.00839939,0.0372664,0.112572,-0.0234805,0.00434166,0.213387,0.0149157,0.0652851,0.219967,-0.0736133,-0.0101862,0.0776913,-0.0178476,-0.114342,-0.101433,0.1412,-0.191906,0.247474,0.143784,-0.1334,0.0735429,-0.0718099,0.0305146,-0.298777,0.117507
shoyu	0.0231682,-0.263612,0.209561,-0.228148,-0.151643,0.0311247,0.093222,0.0356305,0.19486,0.075018,0.127998,-0.127452,-0.0200751,0.00196773,0.127884,0.16857,0.111368,0.341136,0.0292814,0.137116,0.213002,0.0973257,0.10346,0.0364676,0.0828516,-0.119296,0.148931,0.125464,0.0194848,-0.0316317,0.186516,-0.25813,-0.156748,0.0881324,-0.0587511,0.24699,0.0318111,-0.0265748,-0.263507,0.117775,0.0523164,0.139123,0.109652,-0.128814,0.101416,0.163017,-0.0401865,-0.0622667,-0.00821348,-0.163106
blueberri	-0.0442767,-0.290325,-0.1557,0.0645126,-0.101255,0.0260594,-0.0678932,0.252409,0.133228,-0.0542299,0.0167624,0.0437419,-0.150969,-0.0929887,-0.148736,0.0706762,-0.0891053,-0.121558,-0.0209219,0.0759478,-0.205051,-0.129567,0.0106008,-0.00958148,-0.298677,0.180705,0.0327691,0.10376,-0.133406,0.0512423,0.0563955,0.0313535,-0.129,-0.119306,-0.0436538,-0.198987,-0.14239,-0.0394263,0.358681,0.22229,-0.128078,0.129566,-0.0733261,-0.129706,-0.134456,0.228947,-0.13382,0.20279,0.02568,0.14338
spike	-0.0698179,0.398048,0.0443417,0.0237249,-0.133274,-0.0656403,-0.111818,-0.0659262,-0.104282,0.187061,-0.064323,0.0133156,0.09107,-0.0457859,0.085609,0.0721653,0.0822282,-0.407064,0.0309881,-0.300847,0.0341921,0.101897,-0.0949688,0.160772,0.0324335,-0.140743,0.0187362,-0.109197,0.00273778,-0.0811631,-0.0696052,-0.0476911,-0.0457927,0.0378797,-0.113638,0.0697733,0.272805,-0.255466,0.182988,-0.0298033,-0.0266789,-0.0453625,0.0146505,-0.26779,-0.0013887,-0.142808,-0.208331,0.159099,0.0203694,-0.0730243
cottag	-0.201922,0.0884365,0.166531,0.122224,-0.0786721,0.282573,0.0476377,0.082009,-0.146737,-0.0915202,-0.005493,-0.0479196,-0.211175,-0.0805192,-0.073096,0.106084,0.0830024,-0.385418,-0.156614,-0.120661,0.0504905,0.323707,-0.0169004,-0.242036,-0.0600812,0.184561,-0.0647832,0.115212,0.0200312,0.0729947,0.155748,-0.097133,-0.00311187,0.0238315,0.0161928,0.146437,0.199511,0.106456,0.0379049,0.121007,-0.0630637,-0.0306248,-0.137859,0.034842,-0.15691,0.0837805,-0.10572,0.293371,-0.121793,0.0122892
broth	0.0537582,0.180911,-0.10149,-0.280701,0.157071,-0.0630273,0.0645382,-0.220882,-0.104301,0.0264109,-0.16304,0.0955943,-0.0750636,-0.0730705,0.268764,-0.155585,0.125789,-0.0857829,0.0401105,-0.0859546,0.0333555,-0.145125,0.0495539,-0.183893,-0.0871071,-0.126809,0.157109,-0.140106,0.167684,0.168777,-0.188079,-0.0406025,-0.10009,0.107356,-0.0886575,-0.0377128,-0.000926219,0.117914,-0.039237,-0.00220646,0.283355,-0.313903,-0.133632,0.269713,0.00253192,-0.041523,0.0570581,-0.17174,0.17045,0.086668
calf	0.15233,-0.0481442,-0.0517539,-0.101957,0.314955,-0.198942,0.143279,-0.061442,-0.0800534,0.134124,0.0309955,0.164945,-0.122615,-0.00800571,0.16471,-0.0407037,0.00814531,0.0392952,0.192634,0.231938,0.0705592,0.253645,0.0591473,-0.146028,-0.0437624,0.103974,-0.152078,-0.04702,-0.175711,0.0430617,-0.0738436,0.148176,-0.183278,0.324572,-0.0819645,0.10633,0.0704089,0.0209239,0.303594,-0.015402,0.00602802,0.179766,0.1695,0.0455423,0.137693,0.149643,0.137316,-0.137374,-0.0331408,0.137564
sauvignon	-0.149516,-0.231698,0.0530554,0.160848,0.046137,-0.306619,0.0462842,-0.0404793,0.149788,0.157325,-0.121672,0.30137,0.0932225,-0.0395424,-0.156693,0.087922,-0.0566466,-0.123078,0.1627,0.0689383,0.0306766,0.115344,0.0518114,-0.271923,0.10211,0.0718882,0.0599499,0.0220635,0.109101,-0.0567412,-0.143102,0.069505,-0.115806,-0.0532686,-0.110416,-0.3647,-0.0310617,0.118843,0.163939,0.0794816,0.188266,0.253578,0.0668934,0.0242631,-0.0271433,0.205,-0.0330276,-0.116463,0.116135,-0.118304
oscar	-0.315797,0.0609099,0.0245764,-0.0905855,0.0491358,0.0157824,-0.0273401,0.0858378,-0.189113,-0.0122047,-0.0112958,-0.176327,-0.223774,-0.00492682,0.106032,0.0190636,-0.174406,-0.00149951,-0.0102944,-0.0419004,0.0241936,-0.114639,-0.0769283,-0.1265,-0.00986229,0.0692258,-0.132126,-0.128055,-0.165467,0.15461,-0.269323,-0.238371,-0.0259653,-0.0392757,-0.135575,0.0716821,0.15232,-0.105214,0.359093,-0.112386,-0.0603836,0.180803,-0.109436,-0.0165083,-0.00892305,-0.114312,0.0420986,0.345056,0.0692992,-0.268082
padano	-0.381698,-0.229144,-0.102981,-0.104073,0.157345,-0.0790756,-0.0969565,-0.0289068,-0.0647356,-0.0360816,-0.18142,0.0401206,0.0488054,-0.163512,-0.019685,0.207674,-0.0115052,-0.217017,0.183271,1.88489e-05,-0.110689,0.0342311,-0.209172,0.00933472,0.00587152,0.181416,0.0182697,-0.0166008,-0.173699,-0.16758,0.0806113,0.190468,0.142781,0.293862,0.0847037,-0.10269,0.0760765,0.0295941,-0.132143,-0.0926486,0.163676,0.113403,-0.0787416,0.202726,0.249597,-0.0022267,-0.144807,-0.0806815,-0.0805723,-0.11579
glass	-0.0409715,0.067325,-0.134612,-0.168973,0.115678,0.0213229,-0.16927,0.11718,0.216225,-0.0717675,-0.0378051,0.198564,-0.165069,-0.0277086,0.0107792,0.310543,0.0509094,0.0673992,-0.0410308,0.340812,0.21678,0.0067155,0.0670685,-0.0803893,-0.00608932,-0.0517227,0.0869129,0.0515652,0.127126,0.0495592,-0.0714532,-0.200167,0.0157783,0.0451972,-0.0656282,0.20624,-0.0306381,-0.012556,-0.207654,-0.298572,0.0833682,-0.287325,0.199073,0.00390273,-0.00258836,0.102219,0.128284,0.0504718,-0.101936,-0.249771
warm	0.136393,0.0507933,-0.13503,-0.0216111,-0.00141778,0.150891,0.139808,0.101929,0.030407,0.150785,-0.120222,0.0280518,0.250683,-0.0212136,-0.07237,-0.0139102,-0.156012,-0.190019,-0.0798988,0.0745037,-0.120196,-0.107277,0.115046,0.149975,-0.163424,0.11996,-0.275834,0.137468,0.088674,-0.0632695,-0.0289044,-0.147711,0.0384371,0.322142,0.0506991,0.300152,-0.291344,0.0315563,-0.103964,-0.116488,0.0223824,0.187885,-0.0417208,-0.178542,0.0359215,-0.127669,-0.0363837,0.06278,-0.295632,0.0853181
pecan	-0.00161059,-0.102248,-0.234335,-0.0682061,-0.129422,0.173236,0.0163979,0.114427,0.123787,-0.138458,-0.0521445,0.0358365,-0.0134964,-0.152737,-0.287505,-0.175793,0.0442429,0.358124,-0.00242221,-0.192952,0.0606381,-0.0501486,-0.117148,0.105384,-0.0463445,-0.0683739,-0.0499463,0.164355,-0.0252195,-0.00770287,-0.000222246,0.0787743,-0.260314,-0.0380351,0.0644758,-0.150197,0.119618,-0.314273,0.316466,-0.0998684,-0.145091,0.0320321,-0.125421,-0.0946494,-0.207221,0.0595348,-0.0681544,-0.100037,0.0195538,0.158658
holi	0.0164379,-0.010105,-0.134168,0.0412808,0.210478,-0.108164,0.0936938,0.0032629,0.203288,0.111415,0.048105,0.106147,-0.258468,-0.159273,0.0439404,0.105467,0.0718584,0.136381,-0.0859916,0.268419,0.109485,-0.0923926,0.0488546,-0.039511,-0.0576239,-0.227158,0.0482573,-0.138293,0.177122,0.0772404,-0.133373,-0.00392715,0.149957,0.112934,-0.188451,-0.160645,0.100926,0.0375923,-0.291686,-0.121725,0.153855,0.0961156,0.0700686,-0.301549,0.116631,0.247948,0.172301,-0.0718389,0.0378742,-0.18766
shoot	-0.261267,-0.194145,0.167239,-0.0792444,0.128774,0.0431162,-0.245796,0.172606,0.174707,0.0359433,0.0803938,-0.0117561,0.0859699,0.0367909,0.0824568,0.161514,0.15967,0.0855272,0.15451,0.19378,-0.0614251,-0.219108,-0.139396,-0.241653,-0.224645,-0.110289,0.230182,-0.102991,-0.190468,0.208613,-0.0348061,-0.0632166,-0.0407107,-0.163558,-0.00181564,0.0734954,-0.000654884,-0.211339,-0.193184,-0.155078,-0.0303981,0.0989582,0.142455,-0.0235754,0.154561,0.0622273,0.123541,0.0361562,0.1038,-0.0975504
flora	0.0234578,-0.0697999,0.322818,-0.0727062,0.185311,0.0274933,0.117314,-0.155096,0.172996,0.0157671,0.14572,0.247593,-0.317277,0.0567274,0.152035,0.147468,0.0594732,-0.0916983,0.0571856,-0.10325,0.143917,-0.279043,-0.0314665,-0.130426,-0.0902881,-0.152009,0.105258,0.078942,-0.0261016,-0.0524212,0.126367,0.0882739,0.162097,-0.239889,-0.204704,0.000838366,-0.0748206,-0.00328682,-0.0435571,0.290394,-0.137181,-0.0183706,-0.0030383,-0.079844,0.134982,-0.10379,0.210345,-0.0382054,-0.0136584,-0.120455
sweeten	-0.193864,-0.122947,-0.178415,-0.134508,0.0568966,0.224706,0.184975,0.0685396,0.0888192,-0.00930913,-0.0597429,-0.11775,-0.27825,-0.13924,-0.155873,-0.187898,-0.071775,0.156802,0.00670778,-0.0513985,0.273174,-0.151163,-0.0883099,-0.0213572,0.00532747,-0.0669043,0.0426564,0.111117,-0.274424,-0.00784614,-0.200693,0.108536,-0.174841,-0.241614,0.0611831,0.150343,-0.0623373,-0.110802,0.0517425,0.137062,0.0869221,0.058548,-0.121588,-0.221156,0.0623838,0.222034,-0.00401652,0.143149,0.0801168,0.175904
campanel	-0.462833,-0.0358263,-0.102852,-0.031007,0.0105808,-0.111353,-0.0472328,-0.106887,-0.184041,0.14208,0.0715583,0.127617,0.00632581,0.0235146,-0.102992,0.146623,0.0507567,-0.185153,0.135527,-0.0871012,0.0487566,0.153929,-0.0224118,-0.0112975,-0.063185,-0.0514617,-0.0122276,-0.16202,-0.191796,-0.265914,-0.17377,-0.0207757,0.0679423,0.452629,-0.0131079,-0.0146406,-0.0930418,0.0603254,0.0744267,0.0890809,0.11864,0.164406,-0.0673635,-0.00100826,0.152515,-0.0910122,-0.175583,0.157012,0.0478705,0.085711
mr	0.15278,0.165329,0.0878565,0.169118,-0.0322339,-0.0575019,0.0707975,0.100198,-0.208721,0.194166,0.138549,-0.146168,-0.174155,0.0900701,0.249567,0.0175777,-0.132846,-0.0654233,-0.144186,-0.0122774,0.143672,-0.00240604,0.393834,-0.24813,-0.0553326,0.192253,-0.135941,-0.0268848,-0.0915107,-0.00838016,0.0100327,-0.0686072,-0.263814,-0.0650508,0.0300458,0.0355627,-0.0447061,-0.269402,0.0738911,-0.163959,-0.084632,-0.0120844,-0.183681,0.0312938,0.196816,0.0701011,-0.12823,0.134582,-0.118881,-0.0282518
elbow	-0.263351,0.00582343,-0.0441442,0.20379,0.120054,0.0707132,-0.0783186,-0.175172,-0.32674,0.00257809,0.0912221,-0.143991,-0.0424864,-0.000946604,0.162931,-0.147045,0.133161,-0.137833,0.190166,0.097455,-0.0237366,0.29055,-0.0565226,-0.133342,-0.0415425,0.144677,0.0680586,0.145761,-0.133234,0.185811,0.0253236,0.22565,0.0692465,-0.00517384,0.221027,0.0204086,0.179271,-0.0855587,0.287442,-0.0478996,0.0536964,0.0370466,0.0120914,-0.154625,0.065639,-0.0503016,0.0112366,0.168056,-0.0667876,0.240709
root	0.269519,-0.15459,0.051172,-0.0473737,-0.0315364,-0.01998,0.051029,-0.101471,0.187919,0.166406,0.160989,0.255209,-0.0374631,-0.0123522,0.1545,0.133138,0.186235,0.150396,-0.105448,0.183713,0.0884479,0.0253385,-0.0590478,-0.126144,0.117661,-0.219433,-0.0066162,0.125995,-0.016939,0.125967,0.333545,0.121698,0.148224,-0.0814056,0.108786,-0.0153859,-0.32973,0.0463615,-0.209677,0.0932402,0.0155052,-0.194227,-0.149203,-0.00575446,0.145832,-0.00159004,0.10671,-0.0109693,-0.198276,0.0196002
shirataki	-0.00431352,-0.174147,0.119268,-0.10069,-0.0316436,0.176764,0.0487408,-0.0338015,-0.0206672,-0.047123,0.145475,-0.12272,0.0402701,-0.0137948,-0.0160319,0.270429,0.172264,0.206365,0.180497,0.262213,0.342076,-0.118888,-0.0229436,-0.101896,0.0690246,0.0962562,0.0305624,0.0592563,-0.00821618,0.0217008,0.192451,-0.234584,-0.233716,-0.0160259,-0.124224,0.125773,-0.0394162,-0.0716616,-0.252014,0.132688,0.11459,-0.0965856,-0.0859681,-0.178902,0.14658,0.0198414,0.00782582,-0.0299368,0.102513,-0.315563
vodka	-0.149501,-0.22093,0.0377154,-0.18473,-0.137314,0.138086,0.0979453,-0.134605,0.0270179,0.142999,0.0346672,-0.105999,0.0107337,0.131041,-0.492732,-0.00371167,0.0480428,-0.00420914,0.24254,-0.242629,-0.0443654,-0.178323,0.000965074,-0.00289979,-0.165286,0.297155,0.0437442,0.107909,-0.029237,-0.139603,0.0983804,0.169642,-0.0138492,0.0177476,-0.183982,-0.0578022,0.089598,0.133135,0.0226036,0.139098,-0.00932861,-0.10894,-0.116572,-0.0949644,-0.00896637,0.17427,0.142131,0.0979452,-0.042437,-0.11073
edibl	0.166819,-0.386725,0.179698,-0.179802,-0.255918,0.00942184,0.00939598,0.15704,0.267356,-0.0367654,-0.086861,0.154833,0.0197427,0.070163,-0.249772,0.0252177,-0.225566,-0.0841397,-0.0163925,0.0598197,-0.0707754,-0.175869,0.0368331,0.0516117,0.00582637,0.0847217,0.0578958,-0.0589849,0.0483885,-0.317777,-0.0157442,0.15455,-0.0964483,-0.05711,0.135023,0.0305461,-0.26277,0.154767,0.0691322,-0.000222174,-0.000313178,0.156499,-0.0319468,-0.218437,-0.166596,-0.00630149,-0.061285,0.12351,-0.0425677,-0.0189692
honey	0.344661,-0.318252,-0.0603292,-0.0735223,-0.0164221,0.0608114,0.120366,0.107943,0.24182,0.0260438,0.0820748,0.0310921,0.0496663,0.0726996,0.0701524,-0.0175518,0.000212099,0.0426189,-0.126727,0.274407,-0.26558,-0.180911,-0.0761212,0.366884,-0.083263,-0.0119784,0.197306,0.0727451,-0.0233135,-0.157534,0.163777,0.141946,-0.00236925,0.0384624,-0.105986,0.154949,-0.093222,0.101689,-0.077008,-0.0919686,-0.0147017,-0.0944327,-0.267344,0.0198545,-0.0190786,-0.0248785,-0.11904,-0.0435983,-0.158207,-0.0850671
beansprout	-0.0160461,0.192233,-0.0350114,-0.0567284,0.178417,0.132516,-0.0121168,0.0515393,0.186821,-0.102389,0.0974632,0.116268,-0.314205,0.136448,-0.201808,0.308627,0.0595668,0.0973918,-0.160724,0.296602,0.272731,-0.131589,-0.0626221,-0.115284,0.161353,-0.125487,0.00372613,-0.0573717,0.0709004,0.00229063,0.166023,0.0152132,0.186084,0.0439076,-0.0212446,-0.0905327,0.0140705,0.0945751,-0.202993,-0.174525,0.0348592,-0.188948,0.133838,-0.125262,0.0275367,0.013454,0.187457,-0.0149323,0.0654746,-0.183422
cotija	-0.0219742,0.150863,0.0348269,0.147363,-0.207071,-0.318781,0.096611,0.232473,-0.113955,-0.0603566,0.273816,-0.188951,0.00318679,-0.0229239,-0.0572346,-0.139799,0.000575045,-0.0481233,0.139437,-0.0287126,0.0804372,0.0418833,0.361943,0.0750952,0.026128,-0.174793,0.133069,-0.146289,0.0677152,0.0458101,0.00688456,0.0731805,0.105189,-0.145353,-0.015326,0.054649,0.0517748,-0.240946,0.0476933,0.0629737,-0.081954,-0.0384355,0.197962,-0.000266729,0.0336378,-0.176388,-0.346169,-0.0229397,0.0301022,-0.205253
pinto	-0.0318199,0.450958,0.0509456,0.146422,-0.117702,-0.104641,0.031316,0.380554,-0.106046,-0.085312,-0.0867056,-0.0106845,0.204759,0.0894073,0.05818,-0.0705888,0.177504,-0.28678,0.0621329,-0.0431726,0.0523128,-0.0272044,0.176045,-0.0705624,-0.0926472,-0.119419,-0.0182222,-0.194491,-0.0540288,0.0203949,-0.0734342,0.108333,-0.0723882,-0.100534,-0.103045,-0.205523,0.245566,-0.116665,-0.00401126,-0.0176481,0.113087,-0.0367397,-0.157506,-0.0509454,-0.0197582,-0.223503,-0.0900854,0.0150542,0.0763991,0.166254
hog	0.0344534,0.0288449,-0.201278,-0.0942802,-0.0725497,-0.0107262,0.16907,-0.202165,0.0267544,-0.0482961,-0.110675,-0.2499,0.282986,0.129888,0.0173055,-0.120434,0.126202,-0.0217799,0.225614,0.0600519,0.0148153,0.237194,0.157706,0.0510986,-0.128297,-0.0437323,-0.196116,-0.144113,-0.160117,-0.0570455,0.0742343,0.149957,0.0224181,0.229529,-0.209883,0.028692,0.216915,-0.00291658,0.123834,-0.0960459,0.00555463,0.0718132,0.142338,0.298516,0.244659,0.0488873,-0.16804,-0.109473,-0.0900374,-0.00780662
confit	0.0329111,-0.226509,-0.0886154,-0.0479094,0.0953665,-0.168033,-0.0713786,0.218465,0.073189,0.361545,-0.0765026,0.161458,0.0812536,0.128532,0.31081,-0.119217,-0.14981,0.0126556,0.102068,0.0509935,0.0373111,-0.046477,0.0433025,-0.276991,-0.00141628,-0.138794,-0.140015,0.0238859,0.17361,-0.0313443,-0.0767946,-0.11145,-0.0863844,0.00790036,0.0863053,-0.0139118,0.0369902,0.344363,0.0669548,-0.213773,-0.0713626,0.0441405,0.0447396,0.134845,0.045448,0.0562265,-0.0330117,-0.301539,-0.170048,-0.00612782
hot	0.329741,0.281133,0.020728,-0.308983,-0.00968737,-0.249352,-0.141744,-0.29952,-0.0778495,0.00282123,0.0274464,-0.282212,-0.0116964,0.135873,0.0256829,-0.0452511,-0.138632,-0.00153166,-0.0811321,-0.0270982,0.254437,0.0640217,-0.0292301,0.0534212,-0.0934526,0.160286,-0.0690575,-0.238816,0.0568752,0.209206,-0.0048606,0.159344,-0.011232,0.16298,-0.0379642,0.0228291,0.102316,-0.164034,-0.0867508,-0.15091,0.0359467,0.00318467,-0.0712882,-0.129572,0.0280119,0.00803353,-0.125754,0.108869,-0.135405,-0.0491287
piecrust	-0.0833872,-0.224221,-0.10716,-0.0390945,0.20874,-0.0474313,-0.0863442,-0.0567852,0.144231,-0.158308,-0.138811,0.185133,-0.149079,-0.109449,-0.15307,-0.153478,0.120441,0.378558,0.0292279,0.0887845,0.0668463,-0.0205882,-0.0175672,0.0651133,-0.0904236,0.143543,-0.122358,0.0495645,0.0321565,0.0238343,-0.157634,-0.0415745,-0.0182524,0.120158,-0.0698979,-0.00494929,0.0815196,-0.179418,0.517335,0.0453727,0.0165838,-0.190388,-0.039692,-0.0606315,-0.142557,0.0757322,-0.15447,0.029658,-0.119382,0.0851324
applewood	-0.00667918,-0.00968071,-0.10632,-0.143844,0.0266958,-0.12343,0.0209568,-0.0707497,-0.218376,0.0171842,-0.0984523,-0.173482,0.144572,-0.0283151,0.265059,-0.236745,-0.0913834,0.0365352,0.173124,-0.101246,0.00711254,0.040331,0.0525616,-0.170197,0.0111317,0.0397552,0.201179,0.0243318,0.140306,0.0785359,-0.130857,-0.175202,-0.0454326,0.129097,-0.218713,-0.211085,0.185272,-0.121075,0.149938,-0.118031,0.271734,0.237299,-0.0174978,0.294624,0.124952,-0.0111094,-0.116957,0.070549,0.188824,-0.164651
pizza	-0.120556,-0.0865688,-0.0849615,0.232024,0.088807,0.0493999,-0.245899,0.0460375,0.0760275,0.0337166,-0.207109,0.0890196,-0.179559,0.122853,-0.0975867,0.0421143,0.0604,-0.0958439,0.161381,-0.221547,-0.204002,0.0852924,-0.0457429,0.0193829,0.0322742,-0.0342701,-0.239208,0.152074,0.0566898,0.0949531,-0.182033,-0.13151,-0.116248,0.182066,-0.217755,0.259375,-0.0254226,-0.0938619,0.214415,-0.0386529,0.141868,-0.0704257,0.123701,-0.110571,-0.0121862,-0.244177,-0.241821,0.0681527,-0.130519,-0.179651
lan	-0.0623784,0.315305,-0.0686327,-0.0098285,0.152666,-0.0452453,-0.0741868,0.107093,0.125024,0.0645685,0.0163824,-0.0272057,0.0919026,0.0202683,-0.27616,0.361006,0.0743982,0.20298,0.118918,0.256815,0.0309168,-0.222731,-0.0161243,0.0815523,0.0202331,-0.0698166,0.0586977,0.110714,0.0522605,0.0627253,-0.022337,-0.000927148,-0.189857,0.22112,-0.0357676,-0.0282638,0.159668,-0.11404,-0.391724,-0.0208075,0.122196,-0.107166,0.129716,-0.00338599,-0.000671518,0.181069,0.0107689,0.101866,-0.168998,-0.0796993
chines	0.126599,0.0248321,0.0635812,-0.0398703,-0.0640285,0.0582581,-0.189709,0.204103,0.064143,0.0418658,-0.294853,0.0633345,0.0636251,0.0591047,-0.01176,0.41391,0.0243635,0.271356,-0.0849915,0.274703,-0.0183323,-0.322184,-0.115224,-0.092324,0.0291143,-0.139224,0.110302,-0.00665205,0.0226387,0.077205,0.255034,0.116096,-0.0285394,0.171681,-0.0487521,0.0397305,-0.017555,0.0250074,-0.17539,-0.175185,0.0599048,-0.254758,0.125869,0.110655,-0.0409432,-0.0523165,-0.00748653,0.0235946,-0.135051,0.002523
lump	0.0897195,0.0988033,0.106851,-0.207836,-0.31552,-0.283177,-0.188155,-0.129183,-0.0583115,-0.0431668,-0.0907248,-0.0329055,-0.261916,0.0704663,-0.211096,-0.0515193,-0.140279,0.0216147,-0.188821,-0.0867794,0.142512,0.201965,-0.117853,-0.0139125,-0.111043,-0.203452,-0.135369,0.100339,0.293599,0.239562,0.0799954,-0.129484,0.0733584,0.107533,0.142964,-0.0507899,0.0215807,-0.00547945,0.156152,-0.124043,0.0258278,0.197407,0.147468,0.120211,-0.0342091,0.0725315,0.0830183,0.0430713,-0.0394577,0.0142351
salsa	-0.107597,0.258203,0.224405,0.11828,-0.0210069,-0.0727803,-0.0405473,0.146596,0.025467,-0.11053,-0.0563083,-0.086608,-0.006631,-0.061317,0.134712,-0.0483216,-0.0450929,-0.314885,-0.067818,-4.07181e-05,0.138551,0.118274,0.240196,-0.0369791,-0.00338141,-0.159416,0.0761514,-0.119396,0.123429,0.15567,-0.0183564,0.154297,-0.099342,-0.163313,0.0182333,-0.138684,0.121573,-0.0489757,0.163444,0.0243046,-0.204598,-0.283252,0.0343197,-0.116728,-0.0172509,-0.37102,-0.273638,0.0340727,-0.140254,-0.0493954
nosaltad	0.000433891,0.317887,0.220873,-0.00313726,-0.228364,-0.0183069,-0.0836605,-0.150394,-0.315427,-0.0074172,-0.150562,-0.101803,-0.0226514,-0.158054,0.0821287,0.0517741,0.0309144,-0.184582,0.0187108,-0.199916,-0.0393048,-0.0712731,0.160075,-0.0719099,-0.222553,-0.246902,0.0426254,-0.178932,0.0780283,0.187168,-0.0687488,-0.117868,-0.0734482,-0.0386504,-0.149599,-0.126612,0.146128,-0.111507,0.0396015,0.156247,0.119968,-0.130574,-0.0120299,-0.00234783,0.11234,-0.191299,-0.0133733,0.140509,0.278866,0.0126349
gremolata	-0.121678,-0.347112,-0.189558,-0.111668,0.0942397,-0.290473,-0.00840977,-0.115812,-0.142536,0.16997,-0.036286,0.131509,-0.0446029,-0.0219055,-0.245076,0.239681,-0.0975822,-0.162451,0.0882241,0.036623,-0.0140091,0.128363,-0.139715,-0.130358,-0.139212,0.0343042,0.00983841,0.0565768,0.130435,0.0178944,-0.179617,-0.0329562,0.0347518,-0.13637,-0.0451673,-0.136241,0.159577,0.0810297,-0.132577,-0.00100902,0.259154,0.197638,-0.122701,0.226773,0.112598,-0.0146665,0.00297021,-0.147844,-0.178672,-0.140031
croissant	-0.0192947,-0.42204,-0.0506716,0.0899779,-0.00267995,0.246055,0.131772,0.0803592,0.207938,-0.205426,-0.150381,0.0517675,-0.223335,0.0825473,-0.0787473,0.0224134,-0.206127,-0.0174579,0.0881454,-0.0564499,0.0789364,-0.021102,0.0667931,-0.0815577,0.0138324,0.0035123,-0.11484,0.114264,-0.224704,-0.249272,0.00107372,0.0520334,-0.258283,0.0611373,0.209751,0.0609028,-0.00594829,-0.0755567,0.301124,-0.0627018,-0.109734,0.195544,-0.106225,-0.0420943,-0.111951,0.00315284,0.0365243,-0.0125641,-0.187446,0.0895194
greek	-0.0359559,0.101111,0.0418526,0.0992787,-0.0723929,0.130716,-0.160959,-0.0865634,-0.00976942,0.222926,0.0109872,0.226206,0.0721639,-0.101765,0.139226,-0.107309,0.0870131,-0.460055,-0.0263812,-0.0851383,-0.209029,0.0893875,-0.053331,0.167866,0.00332325,0.0348733,0.068762,0.155484,-0.136142,-0.221708,0.202818,0.0652147,-0.00185788,0.106697,0.010713,0.0382285,0.0457641,0.076912,0.140696,-0.179312,-0.241616,-0.0431983,0.182527,-0.0958727,-0.0295034,0.111457,-0.123637,0.0910819,0.288378,0.157518
fungu	-0.032977,-0.247265,0.0508235,-0.281006,0.00303175,-0.0617677,-0.0670276,0.248963,-0.0464705,0.129493,-0.0465557,0.0906775,0.020355,0.123354,-0.0276017,0.365005,-0.0104971,0.19507,0.0667501,0.322534,0.0159101,-0.240402,0.0587519,-0.289494,-0.0334929,-0.138522,0.0666112,0.171717,-0.0578228,0.105649,0.0806932,0.0220454,0.0354587,0.0499799,-0.112075,0.0717015,-0.0541483,-0.00692957,-0.152013,-0.113462,0.0923963,-0.108306,0.254879,0.122695,0.164566,-0.0700642,-0.0528856,0.146567,-0.137183,0.0592195
green	0.302031,0.343573,0.187116,-0.233626,-0.0569967,-0.00702573,-0.00074161,-0.269622,-0.211668,0.0174679,-0.0115755,-0.164476,-0.204749,-0.12696,0.136416,-0.121503,0.123681,-0.123585,-0.154747,0.0622494,0.0192502,-0.0955487,0.0874125,-0.123737,-0.0175883,-0.0422797,-0.0479909,-0.0993316,0.0600979,0.148496,0.0168393,-0.0383839,0.106971,-0.0786898,-0.158238,-0.136345,0.150496,-0.0772718,-0.186632,-0.168199,0.218625,-0.133682,-0.113618,-0.0819364,0.0395466,-0.150981,0.223288,0.0291835,-0.0741312,-0.100239
jaggeri	0.0191816,-0.141427,-0.0911756,0.00845358,-0.125713,0.11539,0.206262,-0.0729294,0.0378135,-0.105851,0.18496,-0.048303,0.126041,0.0874801,0.194213,-0.0839195,-0.0566586,-0.0179927,-0.157311,-0.0152715,0.00600476,-0.0298927,0.106642,-0.106277,0.0710328,-0.290901,-0.00337968,0.123451,-0.243734,-0.149677,0.224003,0.111436,0.240956,-0.101162,0.15238,0.00339679,-0.105866,-0.055946,-0.233081,0.232425,0.19527,0.113822,-0.279779,-0.231069,-0.115526,0.129786,0.176818,-0.0515564,-0.113502,0.0372709
wing	0.243459,0.0836914,-0.203466,-0.159172,-0.11661,-0.0843667,0.167658,-0.103691,0.107014,0.164522,-0.0572348,0.0563256,0.0931001,0.311034,-0.00739617,0.0941305,0.0627958,0.367319,0.11388,0.177778,0.0445339,-0.0241095,0.0315462,0.129212,-0.124723,-0.139805,-0.0686065,0.187404,-0.1569,0.308397,0.132265,-0.010926,-0.00926687,-0.0117376,-0.130826,0.0403794,-0.17293,-0.0947381,-0.0254644,-0.15687,0.0595612,-0.143154,-0.0311681,-0.130178,-0.138969,0.192517,-0.0269,0.0416838,-0.199932,-0.0910102
wine	-0.0521524,-0.0491263,0.0330473,-0.210755,0.0363895,-0.181518,-0.0134303,-0.0942636,-0.149849,0.245315,-0.0605034,0.165291,0.247423,-0.0764915,-0.0445533,0.160741,-0.104462,0.10184,0.147945,0.00964545,-0.271335,0.0179363,-0.114521,-0.180358,0.0645932,-0.08041,-0.0319466,-0.143636,0.0741161,-0.136213,-0.109769,-0.00604012,-0.166157,0.257304,-0.103028,0.0676352,-0.00494279,0.33389,-0.038188,-0.206751,0.0883161,-0.12453,0.141434,0.205681,0.0558187,0.197532,0.155242,-0.118477,-0.185942,-0.0325529
banger	0.0061833,-0.231197,0.0734116,0.049429,0.220891,-0.00248002,0.0738877,0.0063335,-0.0998724,-0.0735092,-0.0483528,0.084485,0.0618474,0.204172,0.125227,0.113814,-0.0601907,-0.129479,0.285071,0.0433565,0.15983,0.215702,-0.0225414,-0.060913,-0.209514,0.133643,-0.0302738,0.0509173,0.0599885,-0.0840088,0.158959,0.110566,-0.122725,0.0591618,-0.0827887,0.0325475,-0.0785525,-0.278362,0.279552,0.0386582,-0.0261908,0.388343,0.0195293,0.141882,0.12344,0.193454,-0.0399132,-0.24715,-0.116133,-0.0391212
fettuccin	-0.5503,-0.0764673,0.166286,0.0432214,0.280416,0.0436692,-0.0409818,-0.234177,-0.120164,0.079557,-0.135479,0.0766788,-0.0790002,-0.164013,-0.108832,0.0796232,0.142728,0.092966,0.0234262,-0.206225,-0.0163937,0.012029,-0.0427656,0.0664007,0.0869425,0.117374,-0.142716,0.0670045,-0.0429985,-0.00227217,-0.113558,-0.0200661,-0.0675733,0.192168,-0.200188,-0.00224225,-0.039317,-0.0523326,0.153398,0.185932,-0.0273288,-0.114626,-0.170116,0.0671219,-0.0766384,0.0894846,-0.0102961,0.287657,-0.0159818,-0.00691969
couscou	0.000264139,0.153409,0.00156972,0.0151469,0.0299138,0.0959371,0.0509603,-0.0969151,0.0686834,-0.0872952,0.0312055,0.37663,-0.0335208,-0.0341189,0.310856,-0.193788,0.207217,0.0907548,0.0170116,-0.112834,-0.19283,-0.232557,0.0180415,0.0950959,0.0720781,-0.0811789,-0.000687532,-0.0800475,0.0831268,-0.298059,0.189268,0.0974238,0.042912,0.113849,-0.0457925,0.0388968,-0.0117757,0.406269,0.165123,0.0875023,-0.0886874,-0.00296194,-0.146121,0.0959401,0.0409699,-0.105675,-0.0928136,0.0718318,0.222107,0.0742508
crumbl	-0.0926926,-0.100043,-0.0437368,0.112405,-0.0804486,0.0479562,0.00925958,-0.0316587,-0.214287,0.0125973,-0.139257,0.095088,-0.0107334,-0.209215,0.138731,-0.084018,-0.100292,-0.365005,-0.217499,-0.137064,-0.155573,0.0780773,-0.119447,0.312462,0.196879,-0.167618,0.0462994,0.105713,0.131367,-0.0850566,-0.0853524,0.0195492,-0.0577323,-0.0928081,-0.185448,-0.0117344,0.187899,0.0863188,0.152004,-0.304494,-0.164548,-0.202358,0.0159337,-0.0663483,0.170726,0.0287677,-0.130286,0.11874,0.0246504,0.0947863
orang	0.156699,-0.327391,-0.10668,-0.189686,-0.190036,0.075669,0.0166125,0.0388518,-0.0368641,0.103632,-0.133528,0.0272098,0.0168997,-0.0200112,-0.157793,-0.00968785,-0.0250335,-0.0210708,0.0732882,-0.0461764,0.039483,-0.176782,0.013817,0.157725,-0.0435495,-0.101056,0.239594,-0.246035,-0.00202039,-0.217586,-0.0574644,0.230194,-0.0850001,-0.0913886,-0.15113,0.0352971,-0.122077,0.385503,0.118102,0.0917269,-0.135954,-0.0937724,-0.0448834,-0.00541891,-0.304594,0.140775,-0.139429,-0.0451656,-0.178455,-0.00221066
roquefort	-0.284398,-0.382106,0.0866728,0.0580752,0.0409196,-0.085563,-0.155119,-0.0498145,-0.234563,0.106267,0.0100914,0.0657816,-0.0528383,-0.0379782,-0.0786327,0.0208036,-0.0140355,-0.101073,0.0262161,-0.00999731,-0.0643015,0.378017,-0.236714,-0.0522258,0.1278,0.149317,0.000742478,-0.00400008,-0.0850148,0.00123322,0.00422903,-0.150752,-0.264887,0.0617357,0.171861,0.0462032,0.0245073,-0.125232,0.355205,-0.129627,-0.0579376,0.0855962,-0.115277,0.173249,-0.0203351,-0.139017,-0.0909587,-0.0136086,-0.0496894,-0.0996375
caster	0.160418,-0.141816,0.18907,0.00949646,0.0106856,0.0992932,0.319689,0.0691307,0.170128,0.0343447,0.0742289,0.221431,-0.0744638,-0.105614,0.0464778,0.294662,-0.173572,0.116687,-0.0287904,0.185079,0.100831,-0.215042,-0.147002,0.104612,0.208049,-0.0377614,-0.216504,0.102053,-0.108807,-0.115102,0.22459,-0.0607967,0.0411616,-0.00315205,-0.0584951,0.0155112,-0.207997,-0.101041,-0.134266,-0.0304629,-0.282844,0.162115,-0.0559967,-0.0914345,0.0850664,0.131995,0.024113,-0.0160661,-0.173637,0.103827
saigon	0.0738819,-0.467842,-0.192445,-0.0317747,-0.0214864,0.0125337,0.216068,-0.0299051,0.0746443,-0.231465,-0.0608133,-0.0532583,-0.0284661,-0.0143667,-0.0264591,-0.235656,0.0836555,0.128102,-0.0125313,0.215706,0.0488457,-0.105733,0.0636837,0.111296,-0.106137,-0.11848,-0.143751,0.164488,-0.180935,0.0202135,0.115492,0.156607,0.0774059,-0.00403899,-0.0123078,-0.233481,0.10545,-0.0864854,-0.0288639,0.0111944,0.283763,0.221312,-0.0585831,-0.0931982,-0.0172539,0.300942,-0.0602512,-0.0553196,-0.0527613,-0.0128903
chihuahua	-0.172335,0.0696801,-0.158927,-0.0334945,-0.0691363,-0.261139,0.18622,0.165138,0.00189735,-0.148857,0.0904212,-0.148938,0.0159313,0.109415,-0.116404,-0.280307,-0.0556851,-0.273733,0.21956,0.0438656,0.0265679,0.0036485,0.408988,-0.0319481,-0.157025,-0.105445,0.0593463,-0.0558012,0.133592,0.243444,-0.0701634,0.0665006,0.00510047,-0.150116,-0.0200258,0.0115283,0.126455,-0.111826,0.0920091,-0.00429911,-0.140378,-0.0864085,-0.0208387,0.0931361,-0.00704358,-0.214838,-0.191142,-0.176224,0.0188006,-0.103585
savori	0.133562,-0.143733,-0.208549,-0.209785,0.166474,-0.103842,0.0720636,0.0109099,-0.0274189,0.133299,0.0142284,0.203068,0.357045,-0.0293454,0.0857829,-0.0263761,0.00955022,-0.119657,0.158896,0.111063,-0.0929127,0.216643,0.0294925,0.00371196,0.0279079,-0.070851,-0.0622709,0.269242,0.145011,-0.21923,0.00759181,-0.109225,-0.0745105,0.0308518,0.0330184,0.0213447,0.107844,0.149222,0.104327,0.0524704,0.0598773,0.309688,0.265065,-0.0763725,0.241272,0.179596,-0.0758927,-0.185766,0.0102528,0.0117624
avocado	-0.0624393,0.146612,0.102185,0.082349,-0.261601,-0.136453,-0.0185412,0.110382,0.0851176,0.0173328,0.174765,-0.168307,-0.102329,0.103948,-0.0751891,-0.0132534,0.0336008,-0.222328,-0.00120403,0.0184192,-0.158472,0.0222878,0.321992,0.0426604,0.0751115,-0.272687,0.0396915,-0.20111,0.0779206,0.109931,-0.0944394,0.0224102,0.0893606,-0.226397,-0.102317,-0.118081,0.00417611,-0.224953,-0.0245502,-0.155974,-0.13542,-0.161639,-0.0218247,-0.105741,-0.0905225,-0.206356,-0.292647,0.0558849,0.205349,-0.188771
imo	0.0368757,-0.354572,0.0120433,-0.263306,-0.11333,0.053113,0.159539,0.00645391,0.139724,0.0283818,0.0674134,-0.0290652,0.180507,0.123038,-0.0225583,0.175107,0.0260885,0.314453,0.00438053,0.00830747,0.302209,-0.0963863,0.062019,0.0845132,0.0851635,-0.123183,0.132636,0.219211,-0.117112,-0.0996602,0.154818,-0.272113,-0.143716,0.176472,-0.0466743,0.219515,-0.0744217,-0.0460776,-0.145321,0.0966797,0.0427743,0.0492115,0.0426482,-0.18243,-0.0176436,0.14583,-0.053153,0.0617409,-0.0180099,-0.168828
fig	-0.0116648,-0.221155,-0.0721412,-0.106382,-0.0604239,0.0534671,0.0389397,0.0338983,0.119179,0.0144672,-0.138338,0.346477,0.0934282,0.171403,-0.128326,0.0459038,-0.236073,-0.00747259,-0.115717,-0.00631221,-0.271719,0.0771561,-0.188676,0.277704,0.0579965,-0.0069668,-0.131938,-0.0489466,-0.167116,-0.249487,0.046003,-0.0276741,-0.250219,0.0851167,0.0785595,-0.0705926,-0.0871352,0.123865,0.141156,-0.133633,-0.0978439,0.1043,-0.179032,0.158267,0.0452278,-0.0326096,-0.187791,-0.162478,-0.206733,0.100986
hidden	-0.0638584,0.2599,0.0162257,-0.0245338,-0.029128,0.00783682,0.0190146,0.120043,-0.0809143,0.0883012,0.140691,-0.025522,0.0343066,0.193169,0.0898625,-0.0430242,-0.0489627,-0.119381,0.0168146,-0.0334479,-0.0436463,-0.20128,0.0711572,0.132042,-0.160702,-0.130237,0.0973337,0.0577355,-0.127393,0.229109,-0.0733319,-0.225827,-0.0918609,-0.203812,-0.130482,0.0273788,0.169807,-0.191059,0.159262,-0.150852,-0.19889,-0.0279783,-0.130958,-0.352194,-0.0965346,-0.141587,0.107321,0.194332,-0.00216612,-0.351523
fregola	-0.252332,-0.23999,-0.103129,-0.169251,-0.155223,-0.0919207,-0.0827276,-0.372534,-0.151563,0.160298,-0.0518091,0.154793,-0.00864348,0.0852251,-0.00850791,0.0672949,0.0301129,-0.0520904,0.0482293,-0.161013,0.0622041,0.0549635,-0.027711,0.154089,0.11235,-0.224167,-0.00621406,-0.227926,0.0859094,-0.25957,0.0713595,-0.0519759,-0.156486,0.263838,0.021185,0.183128,0.018798,0.248062,0.13759,-0.00117938,-0.000203299,0.138005,0.114862,-0.110957,0.0229267,-0.0744663,-0.15738,0.0848307,-0.0390184,-0.142598
promis	-0.370207,-0.154111,0.187266,-0.200465,-0.0306895,-0.0682901,-0.0128834,0.109232,-0.00852293,-0.190504,-0.00604421,-0.144072,-0.142069,-0.114957,0.00334321,0.180829,0.0296326,0.02331,0.123705,0.129117,-0.00800083,-0.321155,0.106871,0.0493431,-0.0278468,0.164205,0.0641038,0.00659202,0.128343,0.0138948,0.0644583,-0.0410662,-0.00169545,-0.172928,-0.227301,0.0639388,0.16718,-0.0648447,0.293722,0.053774,-0.205102,-0.174103,-0.0149963,-0.0450383,-0.00325088,-0.235797,-0.0483582,0.205424,0.0287634,-0.188497
runni	0.252185,-0.37851,0.0404811,0.0602479,-0.0117962,0.105382,0.0180539,-0.0589677,0.3465,-0.0175164,-0.00906644,0.324194,0.229035,0.0999543,0.177313,0.0843026,-0.03649,0.0966855,-0.0522903,0.0651383,-0.0710242,-0.0663456,-0.0304045,0.0562319,0.164389,-0.257732,0.0569539,0.234027,-0.0126388,-0.182862,0.175143,0.0222898,0.074781,0.0507061,-0.0791727,0.100617,-0.189088,-0.0125409,-0.0268196,0.0346034,0.0434167,0.190308,0.000748174,-0.0556939,0.0901558,0.0676641,-0.0894382,-0.199172,-0.0903065,-0.163487
bread	-0.240732,0.0302151,0.0176239,0.258185,-0.0305978,-0.0166422,-0.199604,-0.0938542,0.0491725,0.104922,0.100269,-0.171159,0.0802948,-0.108745,0.0360597,-0.132904,0.0434554,-0.0382952,-0.0099607,-0.129502,-0.0174336,0.159256,-0.032893,0.110814,-0.153814,0.0467525,-0.340837,0.0467544,0.095359,-0.0742919,-0.143088,0.084997,-0.241854,0.199225,0.0828997,0.0910593,-0.173397,0.143493,0.275594,-0.288823,-0.158487,0.245197,0.0400048,-0.0168717,0.111069,-0.00737845,0.177018,-0.122885,-0.13693,-0.0211561
crock	-0.246176,-0.214276,0.0864631,-0.112297,-0.0741641,-0.0138164,-0.00143604,0.0721763,-0.153123,-0.199367,0.010923,-0.242486,-0.0229342,-0.0278572,0.0563164,-0.16348,-0.0109947,0.0719646,0.268248,0.014347,0.0264329,-0.210929,0.065231,0.024065,-0.196366,0.243794,-0.230572,-0.00158515,0.147913,0.169703,-0.0900235,-0.0858306,-0.0924291,-0.0705522,-0.0341145,0.0360152,0.229118,-0.100553,0.291938,-0.131783,-0.165164,-0.164851,0.0677626,0.0206248,0.0420936,-0.239323,0.0296,0.0616295,-0.142598,-0.199186
thyme	-0.0236222,-0.0344482,0.0071256,-0.0711504,0.116111,-0.209389,-0.119569,-0.197622,-0.114706,0.143448,-0.238041,0.171049,0.225447,0.0580718,0.0425675,-0.157066,0.0806532,0.0643141,0.0922354,-0.266418,-0.0673413,0.230223,0.0778796,-0.199039,-0.0479043,-0.117903,-0.136919,-0.120052,0.209763,-0.0253348,0.0347626,-0.0292046,-0.177486,0.0256,-0.0249898,-0.0924785,0.0903212,0.125702,0.147236,-0.100113,0.196837,0.213629,0.136497,0.08736,0.192069,0.181497,0.118796,-0.211967,0.0508605,0.23157
gingerroot	0.158032,-0.0751225,0.0918057,-0.138384,-0.0824215,0.183262,-0.253489,-0.19863,0.170595,0.0728454,0.0930187,0.102754,-0.213406,-0.0524904,-0.0375809,0.0259662,0.144796,0.0661484,-0.273096,0.0756592,0.0844311,0.0293717,0.0752619,-0.10941,0.00290355,-0.0890597,-0.180815,-0.175163,0.154088,0.0616874,0.123488,0.229163,-0.082208,0.00385199,-0.112359,-0.0785556,-0.362863,0.173265,-0.299868,-0.113523,0.064065,-0.147225,-0.0498128,-0.0878569,-0.0349502,0.110866,0.213748,-0.0731071,-0.0420306,0.0587272
rosemari	-0.142286,-0.062551,-0.145564,0.0304123,0.232449,-0.131777,-0.0587446,-0.070217,-0.109655,0.24155,-0.329328,0.343054,0.238829,0.00321041,0.0451152,0.00109283,-0.0169297,-0.10437,0.246508,-0.317886,-0.165485,0.167566,0.0421475,-0.0239229,-0.0577427,-0.0989157,-0.0946345,0.0203137,0.183273,-0.240453,0.00403449,-0.0766282,-0.111944,0.0739314,-0.0386538,-0.104661,0.0681304,0.0926504,0.103148,-0.193414,0.0128136,0.1064,0.165512,0.115938,0.091676,0.0406848,-0.00823886,-0.0615069,0.0897648,0.0418124
chuck	0.0830412,0.244181,-0.0565188,0.0409008,0.133216,-0.0569651,0.0424908,-0.0344268,0.0375005,-0.0322182,-0.125698,0.0609251,-0.0107514,0.133819,0.0309463,-0.0208073,0.277841,-0.118701,0.265358,0.0572612,0.436947,0.298614,0.0233345,-0.0833853,-0.0432061,0.0705606,-0.136205,-0.0634784,-0.206374,-0.000517161,0.00838524,0.205461,0.0339622,-0.21094,-0.0397334,0.0338953,0.224673,0.0809862,-0.0996229,-0.205234,0.0329612,0.0607057,-0.145991,0.112278,-0.0218518,-0.0487523,-0.1734,-0.224757,0.0122473,-0.129041
dumpl	0.0669566,-0.0708245,0.0550703,-0.266547,-0.119297,0.137781,-0.114334,0.0523219,-0.070075,0.140105,-0.188146,0.149096,0.0500415,0.170778,0.200185,0.222637,0.214482,0.174302,-0.152822,0.335511,0.0603493,-0.158043,0.126722,0.0382231,-0.100631,0.0282383,-0.152158,-0.0632466,0.0251093,0.19112,-0.0814928,-0.171436,0.166578,0.0423917,0.244049,0.173773,0.0314543,-0.177857,-0.220442,-0.146,-0.0916596,0.10694,0.0315567,0.159388,0.0132851,0.0630371,0.039688,0.0950088,-0.0587708,-0.0890377
toffe	-0.138799,-0.0373189,0.0450445,0.0549468,-0.0816856,0.24063,0.148853,0.106677,0.203174,-0.264486,0.14451,0.0873304,-0.0584609,-0.0179567,-0.337984,0.00225105,-0.13417,0.000357437,-0.00336812,0.153162,0.0515555,-0.0444206,-0.123264,0.243298,-0.033088,0.0768756,-0.0617726,-0.0374657,-0.332157,-0.148787,0.066792,-0.0901185,-0.20227,-0.0218837,0.073934,-0.139956,0.0197491,-0.237382,0.137388,-0.273883,-0.0341109,0.100044,0.00988462,-0.122917,-0.176662,0.165256,0.129115,-0.126629,0.0233866,-0.0739858
roast	-0.0471328,0.108425,-0.0302086,0.14266,0.0681491,-0.219926,0.149635,-0.0626911,0.0317551,-0.289596,0.0745686,0.0486184,-0.122258,0.0680762,-0.146133,-0.135729,0.0333898,0.0468191,-0.0241845,0.0914321,-0.300937,-0.18187,0.0592184,-0.0569377,-0.114159,0.0321079,0.0506574,-0.260648,-0.0145305,0.00981901,0.0703549,0.004235,-0.0127505,0.199258,-0.176389,0.102539,0.199344,0.125509,-0.213296,-0.353843,0.0882181,-0.21293,-0.154636,-0.143381,0.124969,0.0143704,0.239275,-0.130259,0.0170399,-0.0719408
meal	-0.0310308,0.143709,-0.210809,0.213264,0.146451,-0.0750718,-0.0562107,0.103685,-0.152185,-0.100416,0.13234,-0.377566,0.185401,-0.100354,-0.114855,-0.0440787,-0.182853,0.0907006,-0.0998203,-0.0512003,-0.0707571,-0.220627,-0.0017842,0.0934921,-0.0141857,-0.000794179,-0.0942201,0.345085,0.209084,-0.0474442,0.0697045,0.0030432,-0.194382,-0.076446,-0.0994148,-0.0288957,-0.00782688,-0.0401128,0.307092,-0.0250418,0.194078,0.00363329,-0.00607072,0.0240523,0.0135129,0.00229496,-0.29562,-0.0476235,0.133779,0.0437688
bone	-0.0417214,-0.0329237,0.0768987,-0.205633,0.0987213,-0.221916,-0.0750056,-0.105476,0.139534,-0.0216792,-0.0767004,0.269216,0.14259,0.0450405,0.214344,-0.191176,0.141121,0.166841,0.118632,-0.062376,0.170216,-0.104847,0.277024,-0.0509696,0.00536546,-0.0756296,-0.119396,0.225236,-0.0308764,0.219092,-0.00823836,-0.144308,0.125807,-0.0465219,0.17957,0.00260083,0.328305,0.168127,-0.250271,-0.108352,0.0761486,0.139455,0.0216006,0.0532786,-0.0410346,0.083584,-0.207276,-0.0596192,0.00801208,0.0018845
hanger	0.0391564,-0.240422,-0.0709637,0.0867528,-0.0669119,-0.326171,-0.0264268,0.11115,0.100585,-0.196907,0.0374089,0.316484,-0.0558509,-0.0618541,-0.0632537,0.0497672,0.0502445,-0.0589234,0.105032,0.189029,0.242819,0.106754,-0.187039,0.00823195,0.0826332,0.0698821,0.0783193,-0.0173855,-0.145391,-0.222812,0.0379833,0.0318613,-0.132365,-0.14126,-0.0969439,-0.182328,-0.115285,0.011127,-0.0270517,-0.166202,0.160535,0.200115,0.047958,-0.023164,-0.160848,-0.0299707,-0.118798,-0.232517,0.0719044,-0.316377
navi	-0.14135,0.0550716,0.0931097,0.170275,0.0596108,-0.0252421,0.00289773,-0.029143,-0.401086,0.0881989,-0.165124,0.139044,0.189627,-0.0223025,0.223641,-0.0247925,0.0966746,-0.165832,0.165256,-0.0718473,0.0703258,0.0130799,-0.0532333,-0.0808109,-0.124141,0.0107514,-0.0656261,0.0263722,0.164985,-0.123597,-0.177472,0.0641668,0.106044,-0.0169373,-0.0269251,-0.218642,0.361851,0.0710956,0.238216,-0.0155327,0.316961,0.0646156,-0.0863352,-0.113175,0.0451078,-0.0840712,0.0734204,0.0276785,0.195803,0.134029
prawn	-0.0404191,0.201525,0.296073,-0.0686459,-0.0599609,0.0440727,0.140027,-0.0917775,0.125471,0.0487177,0.168935,0.18667,-0.152844,-0.0373547,-0.116483,0.310835,-0.0190515,0.0849313,-0.104891,0.248739,0.17894,-0.114347,-0.188201,-0.190659,-0.0634916,-0.0904504,0.0648605,0.0685004,-0.0262238,-0.0593287,0.0146036,-0.0236257,0.328189,-0.04068,-0.179621,0.146409,-0.0828532,-0.0178365,-0.175881,0.12518,-0.0243345,0.271305,0.0935168,-0.130612,0.207612,0.0107247,-0.00370848,0.0824811,-0.157726,-0.0141224
adobo	-0.189571,0.0522467,0.102137,-0.198976,-0.0676269,-0.234749,-0.166302,0.113443,0.131573,0.0752665,-0.0107088,-0.0750058,0.0776296,-0.010601,0.176207,-0.258947,0.154158,-0.088392,0.0423065,-0.157051,0.128094,-0.0171281,0.411132,0.150939,0.0231082,0.189323,-0.023673,-0.0632506,-0.0110675,0.252762,0.0208559,0.144975,-0.00795637,-0.0457006,0.0526767,-0.146249,0.278788,-0.0961213,-0.154124,-0.061623,-0.0766936,-0.00954919,-0.00599603,0.00447827,-0.210041,-0.14251,-0.26461,0.0170425,0.00081289,0.060028
turnip	0.18752,-0.37889,0.0276741,-0.125183,0.154384,0.00682515,0.0676827,-0.169909,-0.167644,-0.19037,0.030799,0.176989,0.0475228,0.118089,0.327324,-0.113307,0.168414,0.0987515,0.031757,0.0613932,0.108864,0.151995,0.0202574,-0.320791,-0.0697598,-0.0420898,-0.119384,-0.0639191,0.0105682,-0.11158,0.181755,-0.058491,0.099466,-0.0114842,0.0788661,-0.161668,-0.0490615,0.139101,0.115175,-0.118815,0.21698,-0.237423,0.036495,-0.0733619,0.013886,-0.00694553,-0.0202017,-0.149999,0.181022,-0.0441523
rind	-0.0610551,0.0299924,-0.316803,-0.166605,-0.14715,0.0670024,-0.149574,-0.0298933,0.176242,0.0670146,0.0123148,0.191905,-0.306191,-0.15542,-0.056913,-0.0554949,-0.060669,-0.0465177,0.00731429,-0.0328305,0.0978598,-0.187219,-0.0417027,-0.0459378,-0.0762546,-0.0879869,0.103494,0.0322344,0.305148,-0.173775,-0.0467302,0.0515342,-0.169552,-0.248747,-0.0547252,-0.194208,-0.251944,0.352721,0.104096,0.0351273,-0.031968,0.0100444,0.0946484,-0.049337,-0.0106312,0.146863,-0.145156,-0.0683324,0.0712939,0.125939
extract	0.00488657,-0.0757628,-0.2201,-0.152229,-0.0618371,0.177874,0.23448,0.0606996,0.138535,-0.166888,0.0293004,-0.0938423,-0.0851183,-0.0152205,-0.278418,0.151336,-0.146361,0.108735,-0.0441092,0.0554655,-0.0255561,-0.0419157,0.0375209,-0.0347441,-0.124767,0.100048,-0.0567488,0.211421,-0.256035,-0.093836,0.0170807,0.0437955,-0.215895,-0.090635,0.0947642,0.0491404,-0.0411613,-0.0620238,0.197941,-0.0035256,-0.141032,0.14289,-0.20129,-0.123829,-0.226495,0.0438381,-0.214989,-0.0320542,0.063177,0.398691
marmalad	0.139503,-0.291474,-0.0401945,-0.200567,-0.0541676,0.171923,-0.0738616,0.171042,0.138547,-0.0065483,-0.170581,0.0245334,-0.227358,0.0710828,-0.10758,0.00774552,-0.0886475,0.190064,0.0528529,0.0836817,0.0702606,-0.159555,-0.00470065,0.107023,0.119861,-0.0653025,0.097559,-0.107274,-0.0444755,0.0188884,0.117387,0.1011,-0.307421,-0.104137,-0.137364,-0.12221,-0.166427,0.303697,0.097997,0.0437562,-0.215385,-0.037959,-0.207184,0.0902246,-0.194853,0.114775,-0.0827696,0.00821548,-0.275654,-0.0635045
whip	-0.230871,-0.0378264,-0.063559,-0.20855,-0.0370855,0.131461,-0.0498504,-0.0820639,0.088844,-0.168605,-0.0719545,0.327325,-0.109467,-0.0192227,-0.314279,-0.0245494,-0.161,-0.114762,0.0655504,0.0257309,0.10641,-0.0627251,-0.210275,-0.00560504,0.0220516,0.129368,0.074143,-0.0683011,-0.0952837,0.0514356,-0.239379,0.0874103,-0.113393,-0.0453772,0.201487,-0.102526,-0.0396393,-0.218617,0.356557,0.070146,-0.0555103,0.0418022,-0.00493672,0.133082,-0.130019,0.277832,-0.0648446,-0.107018,-0.123148,0.0834084
won	-0.148445,-0.0643571,0.0927531,-0.207683,-0.226523,0.0820983,-0.295835,0.146656,-0.0788523,0.0696812,-0.228458,0.0184261,-0.307027,-0.0369918,0.00397902,0.275041,0.12062,0.0163181,-0.0954503,0.206821,0.0755292,0.0515765,0.12056,-0.00343064,-0.169243,0.0560239,-0.172648,-0.264133,0.165437,0.2368,-0.0191217,-0.165664,0.0772944,0.149245,0.0571249,0.0428352,-0.0768803,-0.00220414,-0.10093,-0.121915,-0.0993444,-0.00829732,0.0713277,0.259194,0.0849775,0.0898794,-0.0172014,0.10043,-0.0758759,0.0996246
sand	0.0177126,-0.371801,-0.153132,0.0152309,0.0603599,0.00825624,0.217087,0.0778869,0.108944,0.00237501,-0.102217,0.004323,0.0851679,-0.0402386,-0.186412,-0.0265615,-0.165004,0.0228456,-0.166819,0.119053,-0.0221734,-0.0804279,0.0960899,-0.0851302,-0.0948322,0.152584,-0.0372271,0.221208,-0.264671,-0.112421,-0.00818267,0.0291565,-0.220041,0.161281,0.12551,0.0536106,-0.0747375,-0.164917,0.304174,0.0688985,-0.12471,0.302845,0.0515103,-0.0842144,-0.0444991,0.199395,0.0538855,0.0958129,-0.191506,0.155513
pepita	-0.100695,-0.0796878,-0.0370961,0.10584,-0.144994,-0.24304,0.0920297,0.230041,0.0721882,-0.0592597,0.219501,-0.126646,0.0585155,0.04814,0.0638913,-0.278425,-0.0504053,-0.0378168,0.0837348,0.136986,-0.0666405,-0.0515947,0.380138,0.1327,-0.242428,-0.135159,0.124672,-0.218832,0.0334483,0.0771509,-0.0288382,0.161656,0.0296089,-0.265594,-0.0297223,0.0100032,-0.0480135,-0.209905,-0.144881,0.0187247,0.0798723,0.0746235,-0.0348594,0.118331,0.140161,-0.235487,-0.124868,-0.180672,0.0387192,-0.0599155
daniel	-0.0692119,-0.0121925,0.00770533,-0.182451,0.0326078,-0.23493,0.0234591,0.245856,-0.0344437,-0.134115,-0.230767,-0.00871665,0.0201546,0.372099,-0.0599785,-0.148547,0.180166,0.151507,0.159857,0.131835,-0.0448727,-0.0149964,-0.0946438,-0.0410339,-0.140782,-0.0314537,-0.03277,0.019608,-0.17312,0.148239,0.0716857,0.00023325,-0.156104,-0.0594742,0.028231,-0.0379192,0.0708724,-0.101169,0.179354,-0.131404,-0.0532659,0.0410716,-0.0974581,-0.233404,-0.153041,0.106666,-0.0713508,0.000115201,-0.204852,-0.414326
ra	0.161089,-0.0516195,-0.00713042,0.0190427,0.178718,0.0865569,0.192008,-0.0701783,0.250969,-0.1147,0.0412143,0.0980032,0.126005,-0.287067,0.20019,-0.0801161,0.0451217,-0.100024,-0.143588,-0.0450793,0.0557112,0.0249974,0.205575,0.012342,0.0299234,-0.0935061,-0.0152928,-0.0746028,-0.0586803,-0.380761,0.0310359,0.0554654,0.0928458,0.105245,0.101743,-0.0399152,-0.0542403,0.212347,0.285413,0.14452,-0.0472022,-0.0940911,0.12522,0.0781572,0.0393908,-0.0301868,-0.192982,0.0588311,0.296161,-0.251042
hothous	0.0495056,-0.105455,-0.154168,0.129188,-0.361294,-0.0755459,-0.130188,-0.0503771,-0.0792626,0.255641,0.361123,0.156804,-0.133037,-0.0518932,-0.152527,0.00852517,-0.0764859,-0.283018,-0.184177,0.0779427,-0.0615841,-0.103756,-0.0533554,0.0835436,0.0572049,-0.100385,-0.094543,-0.18047,-0.195594,-0.0588178,0.0898263,-0.141071,0.287899,-0.0202764,-0.0579693,-0.0626544,-0.109535,0.0600917,-0.133769,-0.121118,-0.0433492,-0.0488462,0.115027,-0.171328,0.056656,-0.0116682,0.0965624,-0.194448,0.0702615,-0.0631447
ro	-0.0825244,-0.378881,-0.020744,-0.0702828,-0.0675036,-0.262468,0.225249,0.171132,0.305964,0.135895,-0.115963,0.0217094,-0.179146,0.101502,-0.214601,0.0429646,-0.151252,-0.134172,0.0310322,0.0234354,0.0445369,-0.124267,-0.017495,0.129977,0.056171,0.0653354,-0.00154154,-0.107109,-0.124463,-0.252095,-0.00162644,-0.00162742,-0.131792,-0.0644817,-0.254907,-0.0213034,-0.0113034,0.15899,0.202051,0.105057,-0.0930172,0.236703,-0.0167228,-0.150913,-0.0947438,0.150017,0.00946135,0.0528104,-0.113162,-0.0203343
carcass	-0.00314596,-0.0894587,-0.118756,-0.230919,0.138825,-0.0189199,0.172182,-0.0177783,-0.0694308,-0.00999534,-0.0463579,0.0840725,0.0170386,0.121233,0.0880705,0.426937,0.0262668,0.0111314,0.0762875,0.160093,0.0782109,0.113037,0.154748,-0.00735093,-0.12911,-0.167228,-0.0206014,0.173829,0.157646,0.0203885,0.00129598,-0.0256889,-0.0577918,-0.0672376,-0.0131419,0.0585058,0.150768,0.126604,-0.343203,-0.000227853,0.196626,0.0377929,0.137562,0.0566566,0.107727,0.285041,0.273411,-0.0613802,-0.115808,-0.253836
fava	-0.151425,-0.299539,0.203544,-0.0236841,-0.152751,-0.0923117,-0.0157167,-0.00479303,-0.27356,0.034512,-0.045993,0.0980704,0.0911168,-0.0438035,0.0966641,0.124843,-0.152195,-0.200771,0.0670532,-0.0460083,0.0386611,-0.0127781,-0.0994779,0.0303862,0.0202483,-0.0130335,-0.158968,-0.0933338,-0.111336,-0.169346,-0.0411467,-0.119043,0.173545,0.145928,-0.0623593,-0.113685,-0.0884458,0.127315,0.00148681,0.11686,0.372461,0.115305,-0.0179973,0.181255,0.387363,0.0316684,-0.054932,-0.0109064,0.262869,0.0430598
free	-0.0369678,0.0770543,-0.237112,-0.354935,-0.00577392,0.145632,-0.187219,-0.0308522,-0.0724542,0.0384438,-0.151389,-0.0417985,-0.0598438,-0.051668,0.0842615,0.0551697,-0.0819295,-0.162727,0.0294306,0.0511327,0.0305075,0.0188191,0.0196441,-0.0855446,-0.0128754,-0.0418962,-0.0329691,0.0550611,0.273986,-0.00438649,0.0769343,-0.0470259,-0.130479,0.0293616,0.147506,-0.423032,-0.0552789,0.0893914,-0.0075187,0.149625,-0.311793,-0.205337,-0.197456,0.131462,0.0619192,-0.22129,0.0134664,-0.174255,0.178083,0.0879677
mullet	-0.281833,-0.236834,0.0307598,-0.336824,-0.0766206,-0.210201,0.150252,-0.119615,-0.0709257,0.306707,0.307862,-0.118116,0.0863729,0.0112504,0.0215858,0.0673938,0.0219181,-0.128632,0.0747553,0.0989918,-0.0219609,-0.0899447,-0.073429,-0.182491,0.129348,-0.123883,-0.0570682,0.0715749,0.0817049,-0.0891887,-0.188622,-0.0752441,-0.115173,-0.0206365,-0.0933194,0.0745521,-0.0682589,0.162541,0.0727946,0.140032,0.107991,0.275389,0.169714,-0.0820697,-0.015276,0.0746994,-0.0366666,0.150142,-0.0130251,-0.17279
cornhusk	-0.00899199,0.0776023,-0.144441,0.0772693,-0.0732803,-0.141654,0.00159978,0.161635,0.0853404,-0.0831337,-0.181716,-0.0123612,0.171239,0.0107186,0.0102938,-0.175509,-0.0417563,-0.111658,0.258957,0.00251882,-0.120471,-0.138521,0.478063,0.12034,-0.195815,0.0678916,-0.203597,-0.00832018,0.184611,-0.0362681,-0.036651,0.0931589,-0.0335518,-0.0167267,-0.0428285,0.198979,0.124336,-0.222821,-0.0636501,0.104716,0.0264653,0.0853711,0.0699414,0.150679,0.264383,-0.158793,-0.198895,-0.0827728,-0.103329,0.0956275
tabasco	0.0958397,0.275656,0.0607665,0.00236892,0.0561472,-0.219351,-0.00912077,-0.247966,-0.19972,0.178845,0.0690505,-0.149607,0.0840442,0.209886,0.0431845,-0.180534,-0.0624005,0.138727,-0.252756,-0.0912532,0.204655,0.09857,-0.161052,-0.112777,0.103278,0.0327945,0.148037,-0.1609,0.0571836,0.194151,0.182279,0.0215403,-0.0384266,0.00376902,0.00500342,-0.165912,0.207952,-0.179562,0.218215,-0.0634503,0.078378,0.091337,0.105065,-0.146079,0.017715,0.189766,-0.192115,-0.00469186,-0.0677105,-0.114073
chanterel	-0.229118,-0.281244,-0.051319,-0.170487,0.0521079,0.000838053,-0.00283926,0.0376073,-0.0795037,0.0069805,-0.0426289,0.0411112,0.0896401,-0.0281414,-0.130088,0.118856,-0.164913,-0.0265344,-0.0160867,0.0871125,-0.108626,0.0581483,-0.0545489,-0.0730529,-0.00815284,0.0373971,-0.0637412,-0.0248768,0.163105,0.0176547,-0.179293,-0.231565,-0.172493,0.205844,0.0335932,-0.0477223,-0.112866,0.098941,-0.0327863,-0.231394,0.282072,0.14351,-0.0334085,0.365872,0.376055,-0.0973403,-0.0463734,-0.135939,-0.202587,-0.0660593
raisin	0.211501,-0.112997,-0.045647,-0.000983304,0.0486584,0.237188,0.148355,-0.0841893,-0.0674399,-0.0620828,0.034083,0.131543,-0.149624,-0.209067,0.056881,-0.226884,-0.116198,0.0784813,-0.0457014,-0.0907458,0.0725781,-0.156628,0.0189858,0.184632,0.0945016,0.116979,-0.336152,-0.0497608,-0.200766,-0.199857,-0.00402848,0.390154,-0.0484717,0.021721,0.1433,0.120158,-0.0279399,0.0387876,-0.0545319,0.0259388,-0.14138,0.00304205,-0.133315,0.0189891,0.0498647,-0.133757,-0.138735,-0.336206,-0.0515113,0.055122
sprig	-0.0562247,-0.130308,-0.183572,-0.0399525,-0.0218332,-0.308725,0.0032195,0.0287688,-0.0269257,0.0673139,-0.086613,0.342757,-0.281167,0.0865652,0.0167137,-0.192527,-0.123544,-0.178213,0.104172,0.0798297,-0.0427091,0.061733,0.0753927,-0.0854591,-0.0680646,0.0441419,-0.016328,-0.0428079,0.27584,-0.064819,0.0598607,0.0130254,0.0677734,0.0538914,0.067837,-0.265208,0.139481,0.264191,0.0201542,0.0624504,0.188701,0.048972,0.138263,0.148971,0.0810308,0.154808,0.090009,-0.292909,0.1956,-0.0146665
soda	0.306629,0.0541039,-0.154562,0.000444255,-0.0777133,0.0641508,0.233747,0.169656,0.157672,-0.188239,0.046074,-0.0865882,0.0109622,0.138913,-0.14655,0.0518862,-0.0699918,0.0401863,-0.0486585,-0.122262,-0.0413648,-0.246514,0.094742,0.0576239,-0.15781,0.229423,0.0487983,0.198574,-0.018767,-0.0982654,0.129603,0.100878,-0.0500045,0.109726,0.0336027,0.0602361,-0.165318,-0.142749,0.243687,-0.0968153,0.166893,0.24314,-0.165238,0.0806716,-0.335721,0.183668,-0.100994,-0.0334299,0.0518292,-0.0124948
rang	0.108595,-0.0564299,0.258179,0.140816,-0.0974219,0.125052,0.215894,0.0357113,0.313943,-0.0607277,-0.0261243,0.0854593,-0.0280945,-0.050462,0.0624454,0.0944224,0.0129507,-0.0700695,-0.0279891,-0.0458817,0.186595,-0.297398,-0.194888,0.132112,-0.0900655,-0.0213607,-0.00286741,0.0340977,-0.115518,0.0415028,0.0807606,0.0297941,-0.172372,0.0570873,-0.228251,0.0925215,-0.12002,0.0840016,-0.111317,0.0200101,-0.0802039,0.496647,-0.0949788,0.212516,0.0938421,0.0686553,0.0699652,-0.131793,-0.0123806,0.0957209
tilapia	-0.0248707,0.174574,-0.12219,0.0633741,-0.171218,-0.2717,0.137912,0.0295563,-0.166169,0.264964,0.380786,0.00778957,0.0397347,-0.0970383,0.0891817,0.140391,0.00537888,0.0372969,-0.0935043,0.0303647,0.210728,-0.0171956,0.088089,0.0998037,-0.0871015,0.00603008,0.182657,0.0401314,0.139115,0.163376,0.0879855,-0.0850019,-0.0863151,-0.192427,-0.255536,-0.0219183,-0.0868847,0.0233334,-0.0776332,0.130026,-0.0232297,0.118231,0.00504281,-0.0449802,-0.258976,-0.288675,0.00437044,0.24256,0.032929,0.00925597
render	0.0390353,-0.207215,-0.143153,-0.187244,0.108805,-0.268878,0.0579101,0.0591499,-0.0597114,0.258737,-0.264125,0.11568,0.259815,0.080031,-0.0184065,-0.118121,-0.110198,0.0657189,0.100837,0.0354235,0.146429,0.0119615,0.0564376,-0.169189,-0.0834514,-0.128508,-0.078945,0.117407,0.192623,-0.0828724,-0.026331,-0.0438,-0.0216727,-0.0307389,0.120615,-0.167803,0.133139,0.20581,0.194627,-0.0580788,0.117082,0.125997,-0.0288732,0.126886,0.0589993,0.087416,-0.190227,-0.357303,-0.0851985,0.1469
grade	0.034665,-0.217367,0.242224,-0.0699519,-0.184693,-0.2312,-0.0599642,-0.0099789,0.0537038,0.0723296,0.339883,-0.0811384,0.0186239,-0.0458098,-0.0354222,0.191836,-0.101553,0.0769392,0.17236,0.0409777,0.274551,-0.204453,-0.0158099,0.188246,0.253662,-0.111352,-0.0664632,-0.128949,0.0247341,0.000231519,0.0473025,-0.304451,-0.153528,0.0106727,0.0400389,0.0574633,0.0721606,-0.00331617,-0.0706629,-0.038175,-0.0681155,-0.095204,-0.235987,-0.0745681,0.0242436,0.136286,0.210181,0.14479,0.058818,-0.170925
tzatziki	0.239769,0.0697802,-0.1025,0.137279,0.0167136,0.0311659,-0.0977141,-0.0245575,0.0104518,0.196976,0.129441,0.19381,0.023672,-0.141283,0.11897,-0.12294,0.185269,-0.480173,-0.0222192,-0.0820724,-0.187213,0.103484,0.00731448,0.300642,-0.0769112,-0.0430515,0.053093,0.0801991,-0.0282344,-0.181711,0.216547,0.077416,0.0387829,0.0288514,-0.0824362,0.19193,0.0676226,0.10931,0.043645,-0.166718,-0.203483,0.00914608,0.103023,-0.177925,0.147485,0.0152962,0.0708444,-0.117583,0.134192,-0.0839429
tamarind	-0.158993,-0.0542207,-0.150918,0.138325,0.0441388,-0.0577212,-0.0021398,-0.189121,0.194818,-0.132098,0.0674762,-0.177302,0.0466858,0.0682932,-0.111219,-0.126187,0.092266,-0.0241643,-0.201645,0.0338283,0.283523,-0.206562,-0.00211221,-0.198265,0.201842,-0.0984064,0.09888,-0.0600659,0.174592,-0.108934,0.199978,0.143327,0.346724,0.00957346,-0.00457029,0.0631028,-0.152563,-0.0272438,-0.246324,-0.0347387,0.0275218,-0.0428363,-0.108522,-0.241103,-0.0176128,0.160851,0.223377,-0.0927078,-0.111189,-0.0507935
spinach	-0.0915686,-0.0788282,0.00624987,-0.066645,-0.0302366,0.224517,-0.128935,-0.12476,-0.246442,-0.110305,0.0724953,0.0968034,-0.106051,-0.129525,0.0629647,0.302727,0.244217,-0.235846,0.0607033,-0.163638,-0.0283877,0.021386,-0.141325,0.118278,0.0726006,-0.189613,0.114059,0.0337926,-0.0308249,0.197723,0.0914493,-0.379273,0.0528344,-0.0659122,-0.0403187,0.099152,0.0351837,0.060823,0.0293915,0.119303,0.175439,-0.117408,-0.0978132,0.0055074,0.343893,0.014617,0.0129738,-0.0320288,0.0316799,0.210246
top	-0.0669884,0.11737,0.164503,0.170282,-0.0194113,0.0626062,-0.0958891,0.0998386,-0.0972616,-0.0731916,-0.17995,0.0426351,-0.253498,-0.345146,-0.143614,0.00983143,-0.12335,0.0909105,0.30314,0.167477,0.0879043,-0.048471,0.17119,0.233663,-0.0926398,-0.00217711,-0.0367335,0.0206723,0.00699789,0.0473914,-0.0211311,0.0180069,-0.316434,-0.111704,-0.0545401,-0.20261,-0.0266704,-0.118687,-0.0705772,-0.0697816,-0.0635091,0.087785,-0.00383917,-0.0653103,-0.00163576,0.34266,0.212576,-0.00336745,0.188371,-0.0534771
bonito	-0.0374561,-0.0911751,0.169643,-0.229202,-0.19394,0.155292,-0.1123,-0.0397005,0.115093,0.0619122,-0.107499,-0.152863,0.161829,0.0915914,0.00986862,0.0732509,0.132488,0.271952,0.000216812,0.0332112,0.402443,0.113573,0.158089,0.116428,0.260231,0.0236029,-0.0223601,0.0327517,0.0599589,-0.143557,0.0977916,-0.250262,-0.174423,0.0396772,-0.024893,0.277396,0.037793,-0.0515467,-0.0971706,-0.118385,0.174735,-0.0295867,0.102027,-0.0542652,0.0294642,0.194186,-0.0193903,0.14244,-0.0332829,-0.162865
zinfandel	-0.195974,-0.211223,-0.134952,-0.0838151,0.0141351,-0.0406068,0.0272269,0.046683,0.00506914,0.259646,-0.158962,0.409997,-0.0501603,0.0827116,-0.0415923,-0.107607,-0.0890548,-0.252001,0.120755,-0.120895,0.153031,0.0730246,0.132729,-0.0589938,-0.0836509,0.0177287,0.00194061,0.110369,-0.00793088,-0.198599,-0.0682123,-0.170723,-0.0459818,0.101937,-0.131449,-0.00815624,0.234409,0.303395,0.127363,0.0225316,-0.0286998,-0.0459773,0.179124,0.106057,0.145721,0.237837,-0.11381,-0.150689,-0.0695975,-0.045431
calori	-0.0527754,0.16765,-0.290748,0.0701798,-0.018605,0.0772639,-0.0424129,-0.11015,0.0142684,-0.196624,-0.267025,0.00475499,-0.130756,-0.210337,-0.184724,-0.0277715,-0.026386,-0.0842828,0.0174574,0.125318,-0.133307,-0.202895,0.205964,0.0118766,-0.227467,0.0445566,0.0965894,0.0818885,0.0774804,0.196015,0.0550245,0.0745328,-0.0997309,-0.169051,-0.0407379,0.0243577,0.046637,-0.286709,0.00564867,0.0501611,-0.102733,0.0631309,0.0698796,-0.413496,0.159024,0.180419,0.027121,0.0185083,0.0664056,0.153194
mayonais	0.199155,-0.0435226,-0.0160462,0.0501836,0.018687,-0.286023,-0.19653,-0.0890374,-0.200703,0.130601,0.451226,-0.215811,-0.188038,0.190517,0.0116071,-0.00335661,-0.0844198,-0.00730268,-0.0690082,0.0757894,-0.0308149,0.233467,-0.0893148,0.149099,0.0141085,-0.0385296,-0.176191,-0.0766906,-0.112395,0.14935,0.033754,-0.035429,-0.172506,-0.154097,0.0282726,-0.0652229,-0.0034127,-0.0808468,0.0287947,-0.243306,-0.0338483,0.0788806,0.0874014,-0.119761,-0.148448,-0.0472485,-0.119712,0.205431,-0.0584729,-0.172174
ton	-0.155887,-0.0907198,0.0610371,-0.214436,-0.16453,0.0540203,-0.316352,0.140714,-0.0569579,0.0725194,-0.233902,0.0703517,-0.331454,-0.072146,0.0439562,0.274431,0.107156,0.0613614,-0.0841589,0.193977,0.0781904,0.0669144,0.0987825,0.00171639,-0.196669,0.0526808,-0.180784,-0.255957,0.162263,0.273026,0.0404622,-0.119048,0.0870995,0.158917,0.0569472,0.0313945,-0.0226956,0.0344961,-0.106642,-0.0788415,-0.0937905,0.00246946,0.0577209,0.246354,0.0478732,0.0712974,-0.0533955,0.0764382,-0.0920547,0.13056
tom	-0.307539,0.091973,-0.128138,-0.159129,0.150363,-0.0938495,0.191322,-0.193655,0.118841,0.0739251,0.169735,0.21237,-0.165107,-0.15537,-0.228553,0.211349,0.125887,0.0410517,-0.0926396,0.120748,0.207011,-0.149905,-0.0206033,-0.171607,0.143884,-0.164664,0.285874,0.0758142,0.056467,-0.0407437,-0.12845,0.0580283,-0.121022,-0.00957127,-0.0358604,0.0471142,-0.0839034,0.00911446,-0.199855,0.048497,0.017782,-0.059704,0.00618718,-0.242103,0.0824926,0.144194,0.160005,0.0805377,-0.0800077,-0.125359
bitter	-0.110619,-0.279167,-0.212886,-0.137052,-0.161326,-0.129778,0.209158,0.0727875,0.145439,0.13836,-0.12087,0.00186477,-0.169128,0.295152,-0.167368,0.0325484,-0.0191218,0.22245,0.21941,0.00412004,0.212808,0.027764,-0.0546472,0.0254097,-0.141426,-0.0115191,-0.0757552,-0.0583659,-0.0150058,-0.222335,0.13615,0.067641,0.102814,-0.182583,-0.158235,0.0745875,0.00587606,0.0662479,0.000681254,0.0549567,-0.0404758,0.180337,0.0452102,-0.306247,-0.0363482,0.214135,-0.0112463,-0.0966433,-0.188044,0.0204836
kiwi	0.114533,-0.217213,0.0486483,0.00271847,-0.197065,-0.141167,-0.00648194,0.131211,0.258204,-0.0917486,-0.119119,0.17216,-0.240841,-0.000346816,-0.0318498,0.0851889,-0.218886,-0.0172589,0.173341,0.284389,0.0904049,0.0354532,0.0101036,0.124597,-0.0961771,-0.164735,0.0458757,0.0259209,-0.101696,-0.176076,-0.196601,-0.120225,-0.0748024,0.0191282,-0.172824,0.00313899,-0.302519,-0.0540048,-0.0548897,-0.00271848,-0.0371791,-0.0712268,-0.156329,-0.301218,-0.143547,0.165061,-0.00832449,0.0970379,-0.131638,-0.16948
canela	-0.0820483,-0.16171,-0.204979,0.0431721,-0.182199,-0.292339,0.0415436,0.182222,0.185406,0.0396728,0.0613739,-0.0849036,-0.0110338,0.0799765,-0.10272,-0.236061,-0.054768,-0.0298834,0.245202,0.220204,-0.046509,0.0231535,0.332258,0.11573,-0.164115,-0.0697771,-0.0076515,-0.0919093,-0.0745203,-0.115654,-0.131929,0.241297,0.0913175,-0.164756,0.0787165,0.115515,0.0840008,0.0498,-0.102204,0.0868305,-0.114601,0.00830511,-0.206767,0.034161,-0.00644506,0.0478765,-0.172393,-0.29803,-0.0524544,0.113025
cornflour	0.149021,-0.000305036,0.318662,0.096455,0.0340014,0.00880659,0.10534,0.077739,0.175083,-0.0469686,0.0249484,0.136326,0.0632434,-0.103824,0.0765332,0.343414,0.0545562,0.1218,-0.00242409,0.26245,-0.0498878,-0.199952,-0.279914,-0.03755,0.0830325,-0.185709,0.0546961,0.199841,-0.031581,0.0299928,0.223278,0.139344,-0.135857,-0.00456664,-0.108955,0.139475,-0.109679,0.04364,-0.150819,0.0825063,-0.214364,0.211308,0.0844484,0.0328185,-0.0275489,0.0473929,0.000756524,0.141435,-0.276565,-0.043907
toor	0.00834469,-0.128206,-0.0312859,-0.0215506,-0.183389,0.0405482,0.0695531,-0.128078,0.0336635,-0.11051,0.164786,-0.0620372,0.128643,0.00427769,0.0499268,-0.0284052,0.0610209,-0.195762,-0.117398,-0.149776,0.0739474,0.131761,0.0196846,-0.0806379,0.0291824,-0.268429,-0.157529,0.0285425,0.00765558,0.0226953,0.162664,-0.0548907,0.233834,-0.118736,0.158692,0.0773685,-0.154696,-0.227357,-0.197235,0.286007,0.294636,0.236553,-0.300327,-0.209023,-0.136491,0.0317913,0.110471,-0.105012,-0.0189663,-0.0927357
cereal	-0.072213,0.0705939,-0.0584742,-0.107306,0.21686,0.24076,0.0617661,-0.0421162,-0.110917,-0.0473602,0.194702,-0.337154,0.0573641,0.1412,-0.0676674,-0.1197,0.0935403,0.187625,-0.148493,-0.0844144,0.0352006,-0.161115,-0.0240097,0.105364,0.0685658,0.133046,0.178965,0.139193,0.0354297,0.19752,0.088417,-0.0506475,-0.305268,0.103761,0.0652784,0.0415607,0.0344244,-0.0459209,0.359351,-0.0643374,-0.168452,0.101428,-0.13888,-0.0981485,-0.204898,0.0417068,-0.0185078,0.237016,0.0155343,-0.070604
hazelnut	-0.11044,-0.214867,0.0442364,0.0297761,-0.166705,0.393261,-0.075468,0.0719896,0.122366,-0.0366925,-0.0439824,-0.00252528,0.179383,0.0501977,-0.330801,-0.09158,-0.151468,-0.0699183,0.0369492,-0.0161165,0.0245135,-0.00500893,0.0685639,-0.0399941,0.208129,0.0147469,-0.00278891,-0.170378,-0.124024,-0.253545,-0.114697,0.117176,-0.178274,0.0834338,0.198052,0.00719963,0.0218451,0.0577611,0.211489,-0.113115,0.0035401,0.0843092,-0.151209,0.31698,-0.123946,-0.100356,-0.148244,-0.170019,0.0149409,0.113279
prego	-0.259582,0.121766,0.267586,0.0935737,0.210457,0.0114397,-0.0108187,-0.0791705,-0.134028,-0.0808277,-0.156016,0.03893,-0.269176,-0.152434,-0.159877,0.193344,0.169682,-0.0447764,0.0202861,0.00452941,-0.00667741,0.0261619,-0.0411986,0.0858897,-0.0150265,-0.0609917,0.0284773,0.0648592,0.0403114,0.0404659,-0.168251,-0.0575343,-0.105788,0.235615,0.0446215,0.262713,0.284648,-0.100312,0.192981,-0.018112,-0.134049,-0.0771828,-0.0266802,0.111021,0.0974862,-0.138963,-0.0494227,0.270819,-0.280761,-0.0774491
mochiko	-0.134432,-0.230868,-0.03893,-0.062816,-0.172147,0.23724,0.0123971,0.0576347,0.136777,-0.0419874,0.0051083,-0.126658,-0.102069,-0.0742034,-0.152317,0.0586213,-0.107928,0.212823,-0.0533958,0.106328,0.150785,-0.265961,0.0414451,-0.097218,0.0869759,0.0944906,0.105831,0.165388,-0.198069,-0.141915,0.114675,0.0267423,-0.199665,0.0349104,0.129965,0.28709,-0.0902703,-0.281757,0.107032,0.0167355,-0.172243,0.0814805,0.072987,-0.208327,-0.0852852,0.295278,0.00931239,0.164435,-0.0659423,0.00350271
galang	-0.26713,-0.02683,-0.133986,0.0456083,0.103768,-0.124682,0.169767,-0.142603,0.25243,0.21438,0.1718,0.15295,-0.152008,-0.0387956,-0.0804031,0.0253726,0.272543,0.0350177,-0.0671574,0.0539007,0.157211,-0.0195132,0.0344753,-0.279755,0.133375,-0.25458,0.233858,0.0533705,0.156779,0.115917,-0.092837,0.17068,0.0892321,-0.171126,0.0882951,-0.00362279,-0.117893,-0.0836629,-0.26914,0.160854,0.0937176,-0.0233638,0.0702155,-0.0511652,0.130861,0.0571223,0.114031,-0.115934,-0.0753539,0.0329684
minut	0.198835,0.407381,0.161738,-0.134281,0.1238,-0.167296,0.0606666,-0.0124247,-0.074975,0.0540098,0.0166394,0.1416,0.029135,0.172124,0.189529,0.189609,0.0451259,0.0351307,-0.0352979,0.056739,0.257076,-0.179724,-0.00630486,0.0610097,0.0105947,-0.190084,0.0860429,0.0356629,-0.127727,0.0398592,0.119179,0.16035,0.034522,-0.0787601,-0.0762411,0.278106,0.321564,-0.240216,-0.0997127,0.0167835,-0.0762569,0.0808046,0.032273,0.0248271,-0.117835,-0.0344351,0.0576252,-0.0218575,0.00778007,-0.253992
perilla	0.100313,0.103675,-0.212514,0.0754937,0.126126,-0.0530545,0.0289332,0.0261098,0.113025,-0.0865108,0.280395,0.121209,-0.137067,0.0249228,-0.0692645,0.253731,-0.0209963,0.0225902,-0.104354,0.378934,0.172117,-0.0774682,0.00317669,0.125178,0.0341369,-0.19195,-0.176934,-0.16344,-0.0428686,-0.160053,0.0671856,-0.189426,0.189082,0.161657,0.0456776,-0.0277195,0.00401473,0.0564606,-0.226951,-0.199909,0.0829906,-0.0565798,0.0929372,-0.191364,0.0409296,0.152067,0.141466,0.141638,0.0262308,-0.234501
idli	-0.0756145,-0.073468,0.135637,0.0901934,-0.10011,0.135892,0.0285811,-0.0235189,-0.0909338,-0.0610618,0.132457,0.0159206,-0.0331306,0.0976138,0.0755094,0.0567145,0.0057772,-0.142675,-0.207582,-0.0292456,-0.0844735,-0.0466176,0.0361227,-0.100495,0.0722439,-0.253972,-0.074,0.169722,-0.113453,-0.0187991,0.361858,0.0342925,0.275363,0.0712877,0.0729937,0.142049,-0.0633578,-0.338515,-0.131304,0.184486,0.163786,0.301282,-0.260428,-0.167878,-0.110871,-0.0259069,0.0486111,0.133505,-0.133089,-0.0894463
goya	-0.0824407,0.119908,-0.0459771,-0.0204822,-0.0958547,-0.169402,0.0759461,-0.00757181,0.0182712,0.13217,0.195115,-0.344749,0.129672,0.250506,-0.105823,-0.0777201,0.105992,0.00841701,0.339995,0.135043,0.0824132,-0.277095,0.177259,-0.0464984,-0.0268927,-0.0381438,0.103633,-0.29147,-0.0840207,0.156322,-0.127941,0.368693,-0.0890066,-0.0249837,-0.0390643,0.0271387,0.207004,0.0243872,-0.0654979,0.0225484,-0.0859315,-0.0326265,-0.009602,-0.0292362,-0.00115249,-0.0397698,-0.110482,0.0976942,0.159016,-0.00400541
mini	-0.0363042,-0.0322343,0.115532,-0.198296,-0.0989383,0.336835,0.0107298,-0.107137,0.0387786,-0.138427,0.0279661,-0.0427129,-0.163931,-0.058593,-0.188224,-0.0195501,0.218418,0.107458,0.0836272,-0.03878,-0.0405755,0.0141933,0.185469,0.112442,0.0878424,0.0333223,0.152757,0.100553,-0.0467223,0.041096,-0.232464,-0.0612655,-0.181555,-0.151859,0.110206,0.184762,0.0865706,-0.373246,0.179771,-0.0823011,-0.0905097,-0.0272137,-0.0532175,-0.371266,-0.0418151,-0.0453234,-0.177954,-0.00393709,0.0866866,0.139138
boston	-0.122109,-0.116057,-0.247457,0.114607,-0.00791676,-0.133887,0.121924,0.221662,0.31596,0.19024,-0.110872,-0.132826,-0.0521686,0.0433896,0.217215,-0.037884,0.0827179,-0.0513675,0.181909,0.25028,-0.0392954,0.131995,0.0595365,-0.0979774,-0.0474245,-0.18864,0.0880769,-0.200806,0.189827,-0.0696524,0.0374523,-0.0485938,0.173853,0.0642859,-0.0851835,-0.20884,0.121826,0.139305,-0.0898774,-0.285013,0.137458,-0.0513483,0.085593,-0.038521,-0.199918,0.0291269,-0.0713911,-0.0272201,-0.127145,-0.162019
minc	0.242182,0.342949,0.0121105,-0.121278,-0.0355037,0.0412429,0.0124796,-0.3057,0.0151841,0.17934,-0.0334379,0.0761373,-0.137746,0.0480271,0.0601062,0.118798,0.27129,-0.160124,0.0263445,0.115568,-0.00229859,0.117394,-0.0590633,0.107833,-0.0287503,-0.00426387,-0.149508,-0.085155,0.171572,0.228281,0.015609,0.0631354,-0.134031,0.127231,-0.1265,0.0128908,0.186816,0.0308721,-0.252937,-0.149946,0.210896,-0.189692,0.0150172,0.191495,0.209696,-0.0199213,0.149661,0.00471979,-0.125464,0.0552663
skinless	-0.0267556,0.21346,0.0864287,-0.0817876,-0.0490443,0.132029,-0.0859136,-0.205098,-0.169181,0.133445,0.123388,0.0572727,-0.0362188,0.101348,0.0339493,-0.0548051,0.226122,0.0787284,-0.126602,-0.112545,-0.071581,-0.278531,0.0550931,0.0886665,-0.079343,-0.161155,0.257373,0.239409,-0.124003,0.292259,-0.0810896,0.0735698,0.0346127,0.0169603,-0.196389,0.0292761,-0.0456529,0.116579,0.118626,0.00783188,-0.137271,-0.303019,-0.175016,0.0984361,-0.07943,0.00869191,-0.00425166,-0.286787,-0.152742,-0.0877033
asparagu	-0.207571,-0.114617,0.0324572,-0.083329,0.0612589,0.117996,-0.0970995,-0.056516,-0.144782,-0.204865,0.331003,0.153144,-0.0742314,-0.0435598,-0.116152,0.176716,-0.130228,0.0104998,-0.13584,0.0254777,-0.0396007,-0.0145543,-0.218682,-0.102327,0.27163,-0.0847993,0.0118193,-0.114513,-0.0684124,0.145235,-0.105594,-0.334223,-0.155999,0.118886,-0.0990311,0.0124076,-0.187011,0.0870725,0.0666253,0.06728,0.0876976,0.0536245,-0.0748446,0.28339,0.163422,-0.010733,0.0785862,-0.0105351,0.16378,-0.248891
truffl	-0.239851,-0.281781,0.0864546,0.0903942,0.0872222,-0.0233174,-0.0772798,0.0692422,-0.071407,0.112307,-0.107828,0.160891,0.0757523,0.0696856,-0.153445,0.0561239,-0.182799,-0.0201158,0.0626909,0.104322,0.000361468,0.121309,-0.0772952,-0.142037,0.0594614,-0.116643,0.108955,-0.08473,0.0215395,0.0808217,-0.0708088,-0.227956,-0.149678,0.142218,0.135966,0.0339934,-0.247337,-0.0633989,0.0426002,-0.0661923,0.174492,0.208429,0.0305314,0.420525,0.264622,0.175731,0.0730926,-0.211436,-0.0603152,0.0800689
softwheat	0.0193845,-0.200313,-0.219835,-0.133323,0.0731656,-0.0598187,0.00499015,0.200608,-0.0991905,-0.160229,-0.0589231,-0.166717,0.0178369,0.0556237,-0.114529,-0.140823,-0.133977,0.0704184,-0.0822694,0.0609331,-0.0501799,-0.138949,0.206173,0.0820007,-0.187566,0.148052,-0.108525,0.292268,-0.0485,0.0297319,0.0739509,0.049313,-0.135101,0.0811202,0.0256175,-0.165927,-0.0527509,-0.291537,0.282878,-0.0728242,0.0558683,0.393607,-0.00455626,-0.0752927,-0.077358,0.0789838,-0.133912,0.124363,-0.123804,0.142724
raw	0.073006,-0.197386,-0.00478192,0.0110359,-0.338603,0.110665,0.250279,-0.0382496,0.187197,-0.0225772,0.0369868,-0.0561389,0.0651761,-0.0950233,-0.13746,0.100791,-0.131193,0.176616,-0.0582736,-0.134065,-0.243186,-0.182627,0.0635814,-0.0613342,-0.0782835,0.10042,0.156583,-0.0445242,-0.187041,-0.00697712,0.116901,0.17798,0.0636596,0.161145,0.0167493,0.00329595,-0.234253,-0.0145008,-0.266154,0.0527477,0.160153,0.0912692,-0.255316,-0.193057,0.128329,-0.10846,-0.168273,0.024939,0.0278984,-0.188676
seed	0.231469,-0.0667198,-0.135898,-0.0888627,-0.230877,0.0862874,0.0582961,0.0194815,-0.0360404,-0.157901,0.105674,0.112031,0.13822,-0.0715382,0.0715167,-0.143863,0.16802,-0.0892731,-0.0734095,0.129241,-0.00673633,0.0334708,0.0184217,-0.0449762,0.0224889,-0.228745,-0.000878722,0.049421,0.0160493,-0.139153,0.199372,0.0333704,0.274708,0.00888056,0.0693923,0.0775265,-0.0960361,0.00459407,-0.529893,0.100433,-0.00652073,0.036986,-0.328296,0.08644,-0.0490349,0.0507153,0.0825904,-0.140742,-0.13956,-0.138878
miniatur	-0.0356485,0.0649104,0.00826791,-0.0519423,-0.0870785,0.12328,0.108894,0.0726249,0.138427,-0.135972,-0.0162861,-0.0449434,-0.178353,0.162407,-0.43646,0.00962045,-0.0963894,0.0240577,0.132515,0.0852984,-0.0654539,0.0115826,0.296063,0.190089,-0.0357396,0.0541221,0.0456853,0.121067,-0.111765,-0.154943,-0.0696309,0.0737562,-0.176815,-0.0964689,0.0940462,0.061954,0.0521537,-0.24342,0.207752,-0.165544,-0.107813,0.161311,-0.260782,0.220963,-0.104527,0.0560719,-0.1712,-0.054448,-0.0424666,0.209904
seltzer	-0.143079,-0.259625,0.031983,-0.234865,-0.246473,-0.00430255,0.07064,0.0017988,0.211326,0.152045,0.0693321,-0.103996,0.0620108,0.18359,-0.109651,0.0831741,0.015467,0.242372,0.0779988,0.0326725,0.1797,-0.170387,0.063052,0.122789,-0.0948055,0.198488,0.0878434,-0.0650363,-0.0105692,-0.108718,0.20033,-0.052902,-0.0320897,-0.0371452,-0.236733,0.105517,-0.086695,0.190933,0.0679395,0.138023,-0.0188693,0.158665,0.010815,-0.163536,0.127512,0.237898,-0.226997,0.229103,0.0707628,-0.130734
mint	-0.103923,-0.151566,-0.182883,0.0454345,-0.0166131,-0.0494761,0.0348114,-0.0845722,0.215755,-0.0152892,0.130238,0.247862,-0.16277,-0.220423,-0.102029,0.00935296,0.0381494,-0.212851,-0.19779,0.0919473,-0.101828,-0.0900122,-0.0200179,0.117368,-0.114489,-0.197484,-0.12018,-0.0594313,-0.065792,-0.251032,0.152667,0.0750184,0.269169,-0.246677,-0.00845898,-0.099726,-0.173153,0.243062,-0.155481,-0.207093,-0.0786673,-0.0182321,0.135948,-0.0727179,0.0638989,0.181245,0.0760115,0.121689,0.12767,-0.109421
snow	-0.122032,0.0356128,0.198289,-0.0442618,0.0888247,0.0169884,-0.183024,-0.0706013,-0.0116133,-0.0328728,-0.00618463,-0.0951195,-0.337512,-0.040262,0.101904,0.237908,0.0206933,0.293399,-0.0480037,0.190814,0.0753666,-0.314202,-0.133123,-0.122731,-0.000609987,-0.0382608,0.136997,0.150994,0.012711,-0.0425842,0.157437,0.00277166,0.0186562,0.267792,-0.216258,-0.00794254,-0.229371,0.0159364,-0.292652,-0.1043,0.108298,-0.139779,0.0257721,0.161042,0.0312284,-0.0905231,-0.067109,-0.101854,0.140642,-0.0298713
bengal	0.050553,0.0259557,-0.0469773,0.0432865,-0.222182,0.228686,0.0222709,-0.0616491,-0.0984347,-0.132067,0.101348,-0.0163937,0.158196,0.0434065,0.220219,0.0193619,-0.0127376,-0.151203,-0.0817565,-0.043336,-0.124373,-0.036548,-0.0101118,-0.184562,0.106805,-0.275831,-0.0758331,0.152117,0.0473103,-0.149441,0.260243,0.153397,0.297217,-0.0729517,0.0996503,0.108913,-0.0886984,-0.26169,-0.252857,0.104299,0.27989,0.114091,-0.229002,-0.0969333,-0.0541006,0.018904,0.143311,-0.0949894,-0.0577942,0.0501936
somen	-0.10053,-0.0979668,0.0999011,-0.156923,-0.19177,0.0845865,-0.0523328,0.0801184,0.0715409,0.131316,0.286186,-0.033527,0.0490943,0.0475331,0.0818416,0.270693,0.0780153,0.196774,-0.064794,0.0776811,0.353857,-0.153575,0.0613592,-0.043446,0.177207,-0.0810765,0.0345385,-0.0879006,-0.0753404,-0.13409,0.120182,-0.285815,-0.204534,0.0377283,-0.139974,0.237516,-0.0507075,-0.0483505,-0.224411,0.0327299,0.0605254,-0.0333922,-0.1543,-0.0970135,-0.0766737,0.0423853,0.0327206,0.0624764,0.0902427,-0.303314
hatch	-0.0545872,0.188942,-0.162322,0.114511,-0.206977,-0.296158,0.0783289,0.124777,-0.0232147,0.0163424,0.111039,-0.222436,-0.0487254,0.0882653,-0.0622071,-0.289731,0.0434303,-0.296043,0.205601,0.19358,-0.0609359,0.0893341,0.300413,0.0947942,-0.0108112,-0.133739,0.000193312,-0.0979061,0.0584074,0.106765,-0.0261787,0.123168,0.0356928,-0.168572,-0.0712758,0.0445081,0.0904221,-0.345022,0.100193,0.00787498,0.0900972,-0.103851,-0.0514861,0.0129687,0.01717,-0.0355289,-0.187735,-0.0939505,-0.0178461,-0.169772
